{"learner":{"attributes":{"scikit_learn":"{\"_estimator_type\": \"regressor\"}"},"feature_names":["runtime","budget","popularity","release_year","release_month","director_hist_rev","actor_hist_rev","is_debut_director","is_debut_actor","genre_Drama","genre_Comedy","genre_Action","genre_Thriller","genre_Romance","genre_Adventure","genre_Crime","genre_Horror","genre_Family","genre_Science Fiction","genre_Fantasy","genre_Mystery"],"feature_types":["int","int","float","int","int","float","float","int","int","int","int","int","int","int","int","int","int","int","int","int","int"],"gradient_booster":{"model":{"cats":{"enc":[],"feature_segments":[],"sorted_idx":[]},"gbtree_model_param":{"num_parallel_tree":"1","num_trees":"150"},"iteration_indptr":[0,1,2,3,4,5,6,7,8,9,10,11,12,13,14,15,16,17,18,19,20,21,22,23,24,25,26,27,28,29,30,31,32,33,34,35,36,37,38,39,40,41,42,43,44,45,46,47,48,49,50,51,52,53,54,55,56,57,58,59,60,61,62,63,64,65,66,67,68,69,70,71,72,73,74,75,76,77,78,79,80,81,82,83,84,85,86,87,88,89,90,91,92,93,94,95,96,97,98,99,100,101,102,103,104,105,106,107,108,109,110,111,112,113,114,115,116,117,118,119,120,121,122,123,124,125,126,127,128,129,130,131,132,133,134,135,136,137,138,139,140,141,142,143,144,145,146,147,148,149,150],"tree_info":[0,0,0,0,0,0,0,0,0,0,0,0,0,0,0,0,0,0,0,0,0,0,0,0,0,0,0,0,0,0,0,0,0,0,0,0,0,0,0,0,0,0,0,0,0,0,0,0,0,0,0,0,0,0,0,0,0,0,0,0,0,0,0,0,0,0,0,0,0,0,0,0,0,0,0,0,0,0,0,0,0,0,0,0,0,0,0,0,0,0,0,0,0,0,0,0,0,0,0,0,0,0,0,0,0,0,0,0,0,0,0,0,0,0,0,0,0,0,0,0,0,0,0,0,0,0,0,0,0,0,0,0,0,0,0,0,0,0,0,0,0,0,0,0,0,0,0,0,0,0],"trees":[{"base_weights":[1.0795395E0,-1.8996152E7,3.6519853E8,-3.961085E7,5.3001396E7,2.5756115E8,6.618547E8,-4.725932E7,1.1854042E6,1.603124E7,1.15369576E8,1.5149504E8,3.1689363E8,5.48376E8,9.483574E8,-5.4098876E7,-3.4438624E7,-1.093461E7,3.2928174E7,1.1977695E6,6.1777856E7,9.49095E7,2.3223595E8,6.3798664E7,2.0704435E8,2.7390067E8,4.5837184E8,4.8585075E8,4.3115348E7,6.1847104E8,5.5301376E7,-5.7657588E7,-4.7328696E7,-4.5779452E7,-2.7117204E7,-2.2993966E7,1.0591429E7,1.6664662E8,2.5989404E7,-2.1677934E7,2.3253428E7,5.364083E7,2.7280506E8,7.602451E7,1.3776082E8,2.0877114E8,4.1761533E8,4.0285924E7,1.17263944E8,1.8005966E8,2.795924E8,1.9166462E8,3.3041952E8,1.8497584E8,5.3177792E8,2.1666946E8,5.151069E8,1.1842294E7,3.3848024E7,-2.9807108E6,-2.7398228E6,-2.5757638E6,-2.1523098E6,-2.5349218E6,-1.953718E6,-1.6153629E6,-6.564067E5,-1.6133168E6,-7.660898E5,3.8948353E5,6.839685E6,-1.6737024E6,1.0500908E7,-8.838459E4,2.2026792E6,-1.3385849E6,-1.7655245E5,5.3652794E5,2.9613965E6,3.7573375E5,3.6623872E6,-1.244104E5,1.5376387E7,3.4669412E6,9.600686E6,5.8991715E6,1.1015188E7,8.835954E6,1.4596663E7,4.1505418E6,2.5067896E7,1.1212838E6,5.3994665E6,3.5708358E6,9.555212E6,4.1035788E6,9.73938E6,1.4689722E7,2.019092E6,7.8179E6,1.5228411E7,6.0323215E6,1.684705E7,9.692426E6,2.6280445E6,1.4998965E7,2.9968048E7,2.678914E6,1.1615707E7,1.8593492E7,2.8584058E7],"categories":[],"categories_nodes":[],"categories_segments":[],"categories_sizes":[],"default_left":[0,0,0,0,0,0,0,0,0,0,0,0,0,0,0,0,0,0,0,0,0,0,0,0,0,0,0,0,0,0,0,0,0,0,0,0,0,0,0,0,0,0,0,0,0,0,0,0,0,0,0,0,0,0,0,0,0,0,0,0,0,0,0,0,0,0,0,0,0,0,0,0,0,0,0,0,0,0,0,0,0,0,0,0,0,0,0,0,0,0,0,0,0,0,0,0,0,0,0,0,0,0,0,0,0,0,0,0,0,0,0],"id":0,"left_children":[1,3,5,7,9,11,13,15,17,19,21,23,25,27,29,31,33,35,37,39,41,43,45,47,49,51,53,55,-1,57,-1,59,61,63,65,67,69,71,73,75,77,79,81,83,85,87,89,91,93,95,97,99,101,103,105,107,109,-1,-1,-1,-1,-1,-1,-1,-1,-1,-1,-1,-1,-1,-1,-1,-1,-1,-1,-1,-1,-1,-1,-1,-1,-1,-1,-1,-1,-1,-1,-1,-1,-1,-1,-1,-1,-1,-1,-1,-1,-1,-1,-1,-1,-1,-1,-1,-1,-1,-1,-1,-1,-1,-1],"loss_changes":[5.3036166E19,1.0787836E19,1.1899561E19,1.7630196E18,3.7288727E18,1.7077856E18,2.7311385E18,4.153559E17,3.4391755E17,6.900429E17,1.417398E18,4.8368094E17,9.5714906E17,1.0335651E18,7.2030986E17,7.1983927E16,1.3642397E17,1.6819836E17,2.248458E17,3.8849433E17,4.129328E17,4.0547955E17,2.9995392E17,4.6817635E16,7.10334E16,5.827269E17,7.043906E17,3.924058E17,0E0,8.519593E16,0E0,8.086358E15,1.7038032E16,1.9424385E16,7.290587E16,2.9028395E16,8.13205E16,1.1118468E17,1.18410444E17,3.4846272E16,1.7596203E17,2.1740801E17,8.679545E16,2.6507878E17,2.286756E17,1.6431679E17,2.1056775E17,3.3854268E16,2.6976432E16,5.328522E16,3.9095335E16,1.8756679E17,7.0159287E16,1.5598634E15,3.058396E17,7.965137E15,2.4931096E17,0E0,0E0,0E0,0E0,0E0,0E0,0E0,0E0,0E0,0E0,0E0,0E0,0E0,0E0,0E0,0E0,0E0,0E0,0E0,0E0,0E0,0E0,0E0,0E0,0E0,0E0,0E0,0E0,0E0,0E0,0E0,0E0,0E0,0E0,0E0,0E0,0E0,0E0,0E0,0E0,0E0,0E0,0E0,0E0,0E0,0E0,0E0,0E0,0E0,0E0,0E0,0E0,0E0,0E0],"parents":[2147483647,0,0,1,1,2,2,3,3,4,4,5,5,6,6,7,7,8,8,9,9,10,10,11,11,12,12,13,13,14,14,15,15,16,16,17,17,18,18,19,19,20,20,21,21,22,22,23,23,24,24,25,25,26,26,27,27,29,29,31,31,32,32,33,33,34,34,35,35,36,36,37,37,38,38,39,39,40,40,41,41,42,42,43,43,44,44,45,45,46,46,47,47,48,48,49,49,50,50,51,51,52,52,53,53,54,54,55,55,56,56],"right_children":[2,4,6,8,10,12,14,16,18,20,22,24,26,28,30,32,34,36,38,40,42,44,46,48,50,52,54,56,-1,58,-1,60,62,64,66,68,70,72,74,76,78,80,82,84,86,88,90,92,94,96,98,100,102,104,106,108,110,-1,-1,-1,-1,-1,-1,-1,-1,-1,-1,-1,-1,-1,-1,-1,-1,-1,-1,-1,-1,-1,-1,-1,-1,-1,-1,-1,-1,-1,-1,-1,-1,-1,-1,-1,-1,-1,-1,-1,-1,-1,-1,-1,-1,-1,-1,-1,-1,-1,-1,-1,-1,-1,-1],"split_conditions":[9E7,2.007E1,5.2734E1,2.6E7,3.235E7,1.1E8,2E8,1.1997E1,5.1E7,3.3856E1,4.2954E1,2.2546E1,1.36E2,3.8325715E8,1.37E2,5.5E6,6.9E6,1.5773E1,7.762E0,1.2716953E7,1.9636077E8,2.9496E1,2.1081962E8,1.457933E8,3.7406E1,2.9496E1,1.2683676E8,4E0,4.3115348E7,5.5481E1,5.5301376E7,5.427E0,8.733E0,3.3E6,1.6931E1,1.2434E1,3.205622E8,1.54E7,1.4972E1,2.0745728E7,1.19E2,6.5E6,7.6E1,2.8457885E8,7.1E7,1E0,1.5562975E7,1E0,9.269915E7,2.74E7,1.52E2,1.27E2,3E0,1.71E2,1E0,9.6E1,1.2E8,1.1842294E7,3.3848024E7,-2.9807108E6,-2.7398228E6,-2.5757638E6,-2.1523098E6,-2.5349218E6,-1.953718E6,-1.6153629E6,-6.564067E5,-1.6133168E6,-7.660898E5,3.8948353E5,6.839685E6,-1.6737024E6,1.0500908E7,-8.838459E4,2.2026792E6,-1.3385849E6,-1.7655245E5,5.3652794E5,2.9613965E6,3.7573375E5,3.6623872E6,-1.244104E5,1.5376387E7,3.4669412E6,9.600686E6,5.8991715E6,1.1015188E7,8.835954E6,1.4596663E7,4.1505418E6,2.5067896E7,1.1212838E6,5.3994665E6,3.5708358E6,9.555212E6,4.1035788E6,9.73938E6,1.4689722E7,2.019092E6,7.8179E6,1.5228411E7,6.0323215E6,1.684705E7,9.692426E6,2.6280445E6,1.4998965E7,2.9968048E7,2.678914E6,1.1615707E7,1.8593492E7,2.8584058E7],"split_indices":[1,2,2,1,1,1,1,2,1,2,2,2,0,6,0,1,1,2,2,1,5,2,5,6,2,2,5,4,0,2,0,2,2,1,2,2,5,5,2,5,0,1,0,5,1,14,6,15,5,5,0,0,4,0,14,0,1,0,0,0,0,0,0,0,0,0,0,0,0,0,0,0,0,0,0,0,0,0,0,0,0,0,0,0,0,0,0,0,0,0,0,0,0,0,0,0,0,0,0,0,0,0,0,0,0,0,0,0,0,0,0],"split_type":[0,0,0,0,0,0,0,0,0,0,0,0,0,0,0,0,0,0,0,0,0,0,0,0,0,0,0,0,0,0,0,0,0,0,0,0,0,0,0,0,0,0,0,0,0,0,0,0,0,0,0,0,0,0,0,0,0,0,0,0,0,0,0,0,0,0,0,0,0,0,0,0,0,0,0,0,0,0,0,0,0,0,0,0,0,0,0,0,0,0,0,0,0,0,0,0,0,0,0,0,0,0,0,0,0,0,0,0,0,0,0],"sum_hessian":[7.643E3,7.266E3,3.77E2,5.649E3,1.617E3,2.78E2,9.9E1,4.757E3,8.92E2,1.016E3,6.01E2,1.01E2,1.77E2,7.3E1,2.6E1,3.1E3,1.657E3,6.46E2,2.46E2,7.68E2,2.48E2,5.13E2,8.8E1,4E1,6.1E1,1.38E2,3.9E1,6.3E1,1E1,1E1,1.6E1,2.027E3,1.073E3,6.48E2,1.009E3,4.14E2,2.32E2,1.1E1,2.35E2,3.77E2,3.91E2,2.4E2,8E0,3.58E2,1.55E2,8E1,8E0,2.9E1,1.1E1,4.7E1,1.4E1,5.8E1,8E1,9E0,3E1,7E0,5.6E1,2E0,8E0,1.192E3,8.35E2,5.37E2,5.36E2,3.7E2,2.78E2,7.35E2,2.74E2,1.86E2,2.28E2,2.28E2,4E0,2E0,9E0,9.3E1,1.42E2,2.94E2,8.3E1,2.91E2,1E2,7.2E1,1.68E2,1E0,7E0,3.4E2,1.8E1,1.27E2,2.8E1,6E1,2E1,2E0,6E0,2.4E1,5E0,8E0,3E0,7E0,4E1,1.3E1,1E0,4.6E1,1.2E1,3E0,7.7E1,8E0,1E0,8E0,2.2E1,1E0,6E0,1.8E1,3.8E1],"tree_param":{"num_deleted":"0","num_feature":"21","num_nodes":"111","size_leaf_vector":"1"}},{"base_weights":[6.037288E4,-1.803224E7,3.478883E8,-3.7630556E7,5.0415544E7,2.4523296E8,6.308178E8,-4.4899972E7,1.1438162E6,1.9490856E7,1.1814303E8,1.4441243E8,3.016288E8,5.2237056E8,9.0467994E8,-5.13973E7,-3.2720772E7,-1.0380385E7,3.132606E7,7.954482E6,8.038665E7,9.7501976E7,2.2873632E8,6.108792E7,1.971849E8,2.6053605E8,4.3688544E8,4.6251875E8,4.115556E7,5.917011E8,1.05397914E9,-5.39798E7,-4.2844012E7,-4.3497396E7,-2.5763592E7,-2.1850002E7,1.0092883E7,1.5904989E8,2.4698892E7,-1.882438E7,2.9506716E7,5.2261536E7,1.4884749E8,7.863069E7,1.3548994E8,1.8856827E8,3.3069715E8,3.8488988E7,1.12494584E8,1.7134509E8,2.6672667E8,2.0174331E8,3.345841E8,5.2286813E8,2.180854E8,2.076228E8,4.9017923E8,1.1447551E7,3.2343664E7,1.4484588E9,4.3299324E7,-2.8136905E6,-2.5405772E6,-4.3444715E4,-2.1745188E6,-2.4085175E6,-1.856382E6,-1.616364E6,-7.666635E5,-1.5330824E6,-7.279527E5,3.7009434E5,6.5660975E6,-1.6179124E6,1.0028367E7,-8.401241E4,2.0933152E6,-1.5324016E6,-4.963735E5,8.85273E5,2.7472078E6,1.7520499E6,7.7297375E6,1.0687511E7,5.00398E6,3.580496E6,9.017695E6,5.541557E6,1.0641647E7,8.185392E6,1.749295E7,1.1443412E7,2.5082978E7,1.0674621E6,5.174489E6,3.412132E6,9.196891E6,3.9240472E6,9.264288E6,1.4007698E7,1.9686149E6,8.837217E6,1.4199491E7,4.8334755E6,1.7056068E7,2.7020898E6,2.6911526E7,5.2438585E6,1.2837358E7,2.6119412E6,1.1117891E7,2.4927668E7,5.3075244E5,2.1023056E7,8.254854E7],"categories":[],"categories_nodes":[],"categories_segments":[],"categories_sizes":[],"default_left":[0,0,0,0,0,0,0,0,0,0,0,0,0,0,0,0,0,0,0,0,0,0,0,0,0,0,0,0,0,0,0,0,0,0,0,0,0,0,0,0,0,0,0,0,0,0,0,0,0,0,0,0,0,0,0,0,0,0,0,0,0,0,0,0,0,0,0,0,0,0,0,0,0,0,0,0,0,0,0,0,0,0,0,0,0,0,0,0,0,0,0,0,0,0,0,0,0,0,0,0,0,0,0,0,0,0,0,0,0,0,0,0,0,0,0],"id":1,"left_children":[1,3,5,7,9,11,13,15,17,19,21,23,25,27,29,31,33,35,37,39,41,43,45,47,49,51,53,55,-1,57,59,61,63,65,67,69,71,73,75,77,79,81,83,85,87,89,91,93,95,97,99,101,103,105,107,109,111,-1,-1,113,-1,-1,-1,-1,-1,-1,-1,-1,-1,-1,-1,-1,-1,-1,-1,-1,-1,-1,-1,-1,-1,-1,-1,-1,-1,-1,-1,-1,-1,-1,-1,-1,-1,-1,-1,-1,-1,-1,-1,-1,-1,-1,-1,-1,-1,-1,-1,-1,-1,-1,-1,-1,-1,-1,-1],"loss_changes":[4.8110855E19,9.750296E18,1.0824019E19,1.5926008E18,3.38652E18,1.5427951E18,2.497378E18,3.748301E17,3.1093402E17,7.80559E17,1.13505774E18,4.3647272E17,8.755136E17,9.5128647E17,6.380004E17,6.6184003E16,1.2318777E17,1.5214942E17,2.0514415E17,5.4076246E17,3.33029E17,2.9688876E17,2.6119091E17,4.3301345E16,6.5708464E16,5.376348E17,6.384908E17,3.4946328E17,0E0,7.204825E16,6.3617743E15,1.4423943E16,1.9605254E16,1.7529239E16,6.8650345E16,2.6215364E16,7.503886E16,1.01851335E17,1.0694568E17,4.3666812E16,1.5482776E17,2.1838651E17,1.400316E17,1.9348147E17,2.4532468E17,1.7930121E17,2.5077359E17,3.1213482E16,2.5385645E16,4.759896E16,3.4760991E16,1.14292584E17,6.0342298E16,1.7257715E17,2.997193E16,6.7009736E15,2.2361428E17,0E0,0E0,1.3855881E17,0E0,0E0,0E0,0E0,0E0,0E0,0E0,0E0,0E0,0E0,0E0,0E0,0E0,0E0,0E0,0E0,0E0,0E0,0E0,0E0,0E0,0E0,0E0,0E0,0E0,0E0,0E0,0E0,0E0,0E0,0E0,0E0,0E0,0E0,0E0,0E0,0E0,0E0,0E0,0E0,0E0,0E0,0E0,0E0,0E0,0E0,0E0,0E0,0E0,0E0,0E0,0E0,0E0,0E0,0E0],"parents":[2147483647,0,0,1,1,2,2,3,3,4,4,5,5,6,6,7,7,8,8,9,9,10,10,11,11,12,12,13,13,14,14,15,15,16,16,17,17,18,18,19,19,20,20,21,21,22,22,23,23,24,24,25,25,26,26,27,27,29,29,30,30,31,31,32,32,33,33,34,34,35,35,36,36,37,37,38,38,39,39,40,40,41,41,42,42,43,43,44,44,45,45,46,46,47,47,48,48,49,49,50,50,51,51,52,52,53,53,54,54,55,55,56,56,59,59],"right_children":[2,4,6,8,10,12,14,16,18,20,22,24,26,28,30,32,34,36,38,40,42,44,46,48,50,52,54,56,-1,58,60,62,64,66,68,70,72,74,76,78,80,82,84,86,88,90,92,94,96,98,100,102,104,106,108,110,112,-1,-1,114,-1,-1,-1,-1,-1,-1,-1,-1,-1,-1,-1,-1,-1,-1,-1,-1,-1,-1,-1,-1,-1,-1,-1,-1,-1,-1,-1,-1,-1,-1,-1,-1,-1,-1,-1,-1,-1,-1,-1,-1,-1,-1,-1,-1,-1,-1,-1,-1,-1,-1,-1,-1,-1,-1,-1],"split_conditions":[9E7,2.007E1,5.2734E1,2.6E7,4E7,1.1E8,2E8,1.1997E1,5.1E7,3.8323E1,4.2954E1,2.2546E1,1.36E2,3.8325715E8,1.37E2,8.5E6,6.9E6,1.5773E1,7.762E0,1.3E7,4.8138336E7,2.9061E1,7.1E7,1.457933E8,3.7406E1,3.2669E1,1E0,4E0,4.115556E7,5.5481E1,7.528329E7,2.2E6,1.914E0,3.3E6,1E0,1.2434E1,3.205622E8,1.54E7,1.4972E1,4.3E6,1.16E2,1E0,1.993E3,2.8457885E8,7.1E7,1E0,1.5236883E8,1E0,9.269915E7,2.74E7,1.52E2,1.27E2,3E0,5E5,2.5405E1,9.6E1,1E0,1.1447551E7,3.2343664E7,1.62E2,4.3299324E7,-2.8136905E6,-2.5405772E6,-4.3444715E4,-2.1745188E6,-2.4085175E6,-1.856382E6,-1.616364E6,-7.666635E5,-1.5330824E6,-7.279527E5,3.7009434E5,6.5660975E6,-1.6179124E6,1.0028367E7,-8.401241E4,2.0933152E6,-1.5324016E6,-4.963735E5,8.85273E5,2.7472078E6,1.7520499E6,7.7297375E6,1.0687511E7,5.00398E6,3.580496E6,9.017695E6,5.541557E6,1.0641647E7,8.185392E6,1.749295E7,1.1443412E7,2.5082978E7,1.0674621E6,5.174489E6,3.412132E6,9.196891E6,3.9240472E6,9.264288E6,1.4007698E7,1.9686149E6,8.837217E6,1.4199491E7,4.8334755E6,1.7056068E7,2.7020898E6,2.6911526E7,5.2438585E6,1.2837358E7,2.6119412E6,1.1117891E7,2.4927668E7,5.3075244E5,2.1023056E7,8.254854E7],"split_indices":[1,2,2,1,1,1,1,2,1,2,2,2,0,6,0,1,1,2,2,1,5,2,1,6,2,2,9,4,0,2,6,1,2,1,10,2,5,5,2,1,0,13,3,5,1,13,6,15,5,5,0,0,4,6,2,0,16,0,0,0,0,0,0,0,0,0,0,0,0,0,0,0,0,0,0,0,0,0,0,0,0,0,0,0,0,0,0,0,0,0,0,0,0,0,0,0,0,0,0,0,0,0,0,0,0,0,0,0,0,0,0,0,0,0,0],"split_type":[0,0,0,0,0,0,0,0,0,0,0,0,0,0,0,0,0,0,0,0,0,0,0,0,0,0,0,0,0,0,0,0,0,0,0,0,0,0,0,0,0,0,0,0,0,0,0,0,0,0,0,0,0,0,0,0,0,0,0,0,0,0,0,0,0,0,0,0,0,0,0,0,0,0,0,0,0,0,0,0,0,0,0,0,0,0,0,0,0,0,0,0,0,0,0,0,0,0,0,0,0,0,0,0,0,0,0,0,0,0,0,0,0,0,0],"sum_hessian":[7.643E3,7.266E3,3.77E2,5.649E3,1.617E3,2.78E2,9.9E1,4.757E3,8.92E2,1.111E3,5.06E2,1.01E2,1.77E2,7.3E1,2.6E1,3.1E3,1.657E3,6.46E2,2.46E2,9.35E2,1.76E2,4.28E2,7.8E1,4E1,6.1E1,1.38E2,3.9E1,6.3E1,1E1,1E1,1.6E1,2.377E3,7.23E2,6.48E2,1.009E3,4.14E2,2.32E2,1.1E1,2.35E2,4.17E2,5.18E2,1.26E2,5E1,2.88E2,1.4E2,5.8E1,2E1,2.9E1,1.1E1,4.7E1,1.4E1,7.9E1,5.9E1,2.7E1,1.2E1,7E0,5.6E1,2E0,8E0,3E0,1.3E1,1.369E3,1.008E3,1.1E1,7.12E2,3.7E2,2.78E2,6.18E2,3.91E2,1.86E2,2.28E2,2.28E2,4E0,2E0,9E0,9.3E1,1.42E2,1.78E2,2.39E2,3.55E2,1.63E2,1.09E2,1.7E1,2E1,3E1,2.71E2,1.7E1,1.08E2,3.2E1,5.2E1,6E0,1.4E1,6E0,2.4E1,5E0,8E0,3E0,7E0,4E1,1.3E1,1E0,6.3E1,1.6E1,2E0,5.7E1,1E0,2.6E1,4E0,8E0,1E0,6E0,5.5E1,1E0,1E0,2E0],"tree_param":{"num_deleted":"0","num_feature":"21","num_nodes":"115","size_leaf_vector":"1"}},{"base_weights":[1.26726195E5,-1.7114302E7,3.3158288E8,-3.574887E7,4.7967548E7,2.334754E8,6.0198694E8,-4.265796E7,1.1035285E6,1.4410526E7,1.04578056E8,1.3766256E8,2.870677E8,4.817781E8,8.31448E8,-4.788038E7,-2.8976696E7,-8.330349E6,3.4694052E7,8.5492644E5,5.6217136E7,8.589801E7,2.1128554E8,5.8493304E7,1.8779606E8,2.4783245E8,4.1623354E8,3.935616E8,7.049595E8,5.2509296E8,5.021621E7,-5.0850136E7,-3.9461276E7,-3.5763556E7,-1.6381138E7,-2.021846E7,1.2274196E7,1.691168E8,2.6557794E7,-1.9667198E7,2.0641938E7,4.862565E7,2.5325397E8,6.8659176E7,1.2501878E8,1.890917E8,3.8755395E8,3.67726E7,1.07920616E8,1.6305259E8,2.5445544E8,1.7269394E8,2.9950333E8,1.6703544E8,4.8319312E8,3.3180262E8,5.079217E8,3.647932E7,7.157561E6,1.1065966E7,5.5727866E8,-2.6797292E6,-2.3977375E6,-2.2918498E6,-1.7851422E6,-2.3405372E6,-1.5508404E6,-1.1950498E6,-9.955145E4,-1.2542144E6,-4.2190697E5,4.9838272E5,6.3034535E6,-1.5639819E6,1.0856243E7,8.310126E4,2.0118309E6,-1.1186324E6,5.669028E5,4.589861E5,2.6787925E6,2.7694397E5,3.3474682E6,1.8810278E7,6.4538615E6,2.1157122E6,4.716684E6,5.3595755E6,9.969686E6,7.9565545E6,1.3355791E7,3.6850432E6,2.3334878E7,1.0162237E6,4.958885E6,3.2604818E6,8.852008E6,6.7626375E6,1.1045277E7,1.3357342E7,1.9193992E6,6.290415E6,1.2291426E7,5.5748075E6,1.5265247E7,8.739471E6,2.4312468E6,1.3505343E7,2.7278314E7,1.7034566E7,5.174836E5,4.011082E6,2.816458E7,7.382869E6,2.9054678E7],"categories":[],"categories_nodes":[],"categories_segments":[],"categories_sizes":[],"default_left":[0,0,0,0,0,0,0,0,0,0,0,0,0,0,0,0,0,0,0,0,0,0,0,0,0,0,0,0,0,0,0,0,0,0,0,0,0,0,0,0,0,0,0,0,0,0,0,0,0,0,0,0,0,0,0,0,0,0,0,0,0,0,0,0,0,0,0,0,0,0,0,0,0,0,0,0,0,0,0,0,0,0,0,0,0,0,0,0,0,0,0,0,0,0,0,0,0,0,0,0,0,0,0,0,0,0,0,0,0,0,0,0,0,0,0],"id":2,"left_children":[1,3,5,7,9,11,13,15,17,19,21,23,25,27,29,31,33,35,37,39,41,43,45,47,49,51,53,55,57,59,-1,61,63,65,67,69,71,73,75,77,79,81,83,85,87,89,91,93,95,97,99,101,103,105,107,109,111,-1,-1,-1,113,-1,-1,-1,-1,-1,-1,-1,-1,-1,-1,-1,-1,-1,-1,-1,-1,-1,-1,-1,-1,-1,-1,-1,-1,-1,-1,-1,-1,-1,-1,-1,-1,-1,-1,-1,-1,-1,-1,-1,-1,-1,-1,-1,-1,-1,-1,-1,-1,-1,-1,-1,-1,-1,-1],"loss_changes":[4.368842E19,8.814931E18,9.887288E18,1.4386313E18,3.0721749E18,1.3930988E18,2.3577488E18,3.3856767E17,2.8327079E17,5.762997E17,1.1818183E18,3.9385647E17,7.9892274E17,1.0613586E18,1.2203677E18,8.405272E16,1.1199694E17,1.7122267E17,2.0987353E17,3.1267496E17,3.601403E17,3.3805585E17,2.748911E17,4.0048912E16,6.0772344E16,4.8794072E17,5.8673734E17,1.9167127E17,1.4459897E17,1.3543509E16,0E0,1.7621323E16,1.9977714E16,4.3382743E16,5.0054356E16,2.518153E16,6.5936394E16,1.1261865E17,6.3274463E16,3.196148E16,1.4748646E17,1.8990098E17,8.884995E16,2.3883358E17,1.8546782E17,1.4684335E17,1.891593E17,2.8777672E16,2.3881247E16,4.732037E16,3.0877585E16,1.7138156E17,5.4309827E16,6.823844E14,2.646563E17,9.93362E16,3.337191E17,0E0,0E0,0E0,3.1258566E16,0E0,0E0,0E0,0E0,0E0,0E0,0E0,0E0,0E0,0E0,0E0,0E0,0E0,0E0,0E0,0E0,0E0,0E0,0E0,0E0,0E0,0E0,0E0,0E0,0E0,0E0,0E0,0E0,0E0,0E0,0E0,0E0,0E0,0E0,0E0,0E0,0E0,0E0,0E0,0E0,0E0,0E0,0E0,0E0,0E0,0E0,0E0,0E0,0E0,0E0,0E0,0E0,0E0,0E0],"parents":[2147483647,0,0,1,1,2,2,3,3,4,4,5,5,6,6,7,7,8,8,9,9,10,10,11,11,12,12,13,13,14,14,15,15,16,16,17,17,18,18,19,19,20,20,21,21,22,22,23,23,24,24,25,25,26,26,27,27,28,28,29,29,31,31,32,32,33,33,34,34,35,35,36,36,37,37,38,38,39,39,40,40,41,41,42,42,43,43,44,44,45,45,46,46,47,47,48,48,49,49,50,50,51,51,52,52,53,53,54,54,55,55,56,56,60,60],"right_children":[2,4,6,8,10,12,14,16,18,20,22,24,26,28,30,32,34,36,38,40,42,44,46,48,50,52,54,56,58,60,-1,62,64,66,68,70,72,74,76,78,80,82,84,86,88,90,92,94,96,98,100,102,104,106,108,110,112,-1,-1,-1,114,-1,-1,-1,-1,-1,-1,-1,-1,-1,-1,-1,-1,-1,-1,-1,-1,-1,-1,-1,-1,-1,-1,-1,-1,-1,-1,-1,-1,-1,-1,-1,-1,-1,-1,-1,-1,-1,-1,-1,-1,-1,-1,-1,-1,-1,-1,-1,-1,-1,-1,-1,-1,-1,-1],"split_conditions":[9E7,2.007E1,5.2734E1,2.6E7,3.235E7,1.1E8,1.8E8,1.3218E1,6E7,3.3856E1,4.2954E1,2.2546E1,1.36E2,2.6696226E8,1.37E2,8.5E6,1.4E7,1.5773E1,7.762E0,1.2716953E7,1.9636077E8,2.9496E1,2.1081962E8,1.457933E8,3.7406E1,2.9496E1,1.2683676E8,1E0,1E0,5.5481E1,5.021621E7,5.427E0,8.733E0,3E6,1.6931E1,8.5826136E7,3.205622E8,1.54E7,1.4879E1,6.59458E7,1.19E2,6.5E6,5.2734E1,5.1E7,7.1E7,1E0,1.5562975E7,1E0,9.269915E7,1.532959E8,1.52E2,1.7288661E8,3E0,1.71E2,1E0,1E0,3E0,3.647932E7,7.157561E6,1.1065966E7,6.35096E5,-2.6797292E6,-2.3977375E6,-2.2918498E6,-1.7851422E6,-2.3405372E6,-1.5508404E6,-1.1950498E6,-9.955145E4,-1.2542144E6,-4.2190697E5,4.9838272E5,6.3034535E6,-1.5639819E6,1.0856243E7,8.310126E4,2.0118309E6,-1.1186324E6,5.669028E5,4.589861E5,2.6787925E6,2.7694397E5,3.3474682E6,1.8810278E7,6.4538615E6,2.1157122E6,4.716684E6,5.3595755E6,9.969686E6,7.9565545E6,1.3355791E7,3.6850432E6,2.3334878E7,1.0162237E6,4.958885E6,3.2604818E6,8.852008E6,6.7626375E6,1.1045277E7,1.3357342E7,1.9193992E6,6.290415E6,1.2291426E7,5.5748075E6,1.5265247E7,8.739471E6,2.4312468E6,1.3505343E7,2.7278314E7,1.7034566E7,5.174836E5,4.011082E6,2.816458E7,7.382869E6,2.9054678E7],"split_indices":[1,2,2,1,1,1,1,2,1,2,2,2,0,6,0,1,1,2,2,1,5,2,5,6,2,2,5,19,15,2,0,2,2,1,2,6,5,5,2,6,0,1,2,1,1,14,6,15,5,5,0,6,4,0,14,16,4,0,0,0,6,0,0,0,0,0,0,0,0,0,0,0,0,0,0,0,0,0,0,0,0,0,0,0,0,0,0,0,0,0,0,0,0,0,0,0,0,0,0,0,0,0,0,0,0,0,0,0,0,0,0,0,0,0,0],"split_type":[0,0,0,0,0,0,0,0,0,0,0,0,0,0,0,0,0,0,0,0,0,0,0,0,0,0,0,0,0,0,0,0,0,0,0,0,0,0,0,0,0,0,0,0,0,0,0,0,0,0,0,0,0,0,0,0,0,0,0,0,0,0,0,0,0,0,0,0,0,0,0,0,0,0,0,0,0,0,0,0,0,0,0,0,0,0,0,0,0,0,0,0,0,0,0,0,0,0,0,0,0,0,0,0,0,0,0,0,0,0,0,0,0,0,0],"sum_hessian":[7.643E3,7.266E3,3.77E2,5.649E3,1.617E3,2.78E2,9.9E1,4.757E3,8.92E2,1.016E3,6.01E2,1.01E2,1.77E2,6.7E1,3.2E1,3.441E3,1.316E3,6.97E2,1.95E2,7.68E2,2.48E2,5.13E2,8.8E1,4E1,6.1E1,1.38E2,3.9E1,5E1,1.7E1,1.3E1,1.9E1,2.54E3,9.01E2,8.54E2,4.62E2,4.42E2,2.55E2,1E1,1.85E2,3.77E2,3.91E2,2.4E2,8E0,3.58E2,1.55E2,8E1,8E0,2.9E1,1.1E1,4.7E1,1.4E1,5.8E1,8E1,9E0,3E1,3.5E1,1.5E1,1.6E1,1E0,2E0,1.1E1,1.295E3,1.245E3,3.3E2,5.71E2,2.54E2,6E2,3.03E2,1.59E2,3.12E2,1.3E2,2.51E2,4E0,2E0,8E0,6.6E1,1.19E2,3.47E2,3E1,2.91E2,1E2,7.2E1,1.68E2,3E0,5E0,1.78E2,1.8E2,1.27E2,2.8E1,6E1,2E1,2E0,6E0,2.4E1,5E0,8E0,3E0,3.4E1,1.3E1,1.3E1,1E0,3.7E1,2.1E1,3E0,7.7E1,8E0,1E0,8E0,2.2E1,3.4E1,1E0,2E0,1.3E1,1E0,1E1],"tree_param":{"num_deleted":"0","num_feature":"21","num_nodes":"115","size_leaf_vector":"1"}},{"base_weights":[1.7765953E5,-1.6244257E7,3.1588637E8,-3.3961044E7,4.563219E7,2.2231254E8,5.7379846E8,-4.0528076E7,1.0668446E6,8.2007135E6,9.161109E7,1.9671587E8,4.1373955E8,4.7354288E8,8.273213E8,-4.4725468E7,-2.5044144E7,-9.416706E6,2.8523486E7,-2.1778575E5,7.004331E7,7.513849E7,1.905168E8,1.1830021E8,2.6473038E8,8.441086E7,4.448973E8,4.1819216E8,3.76267E7,5.7624685E8,9.897643E8,-4.901885E7,-3.823969E7,-3.2547574E7,-1.0899167E7,-1.9746406E7,9.022104E6,1.4485659E8,2.248738E7,-1.717402E7,2.0570982E7,4.4231056E7,1.5746774E8,6.0096572E7,1.1696279E8,1.6702995E8,3.7176768E8,3.1721987E8,9.878635E7,1.8767166E8,2.8751245E8,-1.9974432E6,6.95902E6,3.4895408E8,5.701722E8,1.8452602E8,4.436507E8,1.06971E7,3.1133562E7,5.5169052E7,2.7092736E7,-2.5605758E6,-2.3247648E6,-2.2147115E6,-1.7399812E6,-2.1124768E6,-1.3822569E6,-1.0319981E6,1.6416784E5,2.9156988E6,-1.0228173E6,3.2685997E5,6.0513155E6,-1.5118492E6,9.144951E6,-7.310556E4,1.9036574E6,-1.3887999E6,-4.4793925E5,9.149765E5,1.07374E7,1.3917621E6,7.014317E6,4.9827705E6,1.7861178E7,2.1547275E6,4.7704455E6,3.1814895E6,7.057821E6,6.696149E6,1.283162E7,3.5622088E6,2.1531734E7,-1.3752274E6,1.7928932E7,1.2115855E6,6.2923895E6,1.0956883E7,5.240905E6,1.1849821E7,1.6148578E7,8.22936E6,1.9357304E7,2.9992816E7,6.8332815E6,2.1207785E6,9.938407E6,1.5748975E7,2.4748052E7],"categories":[],"categories_nodes":[],"categories_segments":[],"categories_sizes":[],"default_left":[0,0,0,0,0,0,0,0,0,0,0,0,0,0,0,0,0,0,0,0,0,0,0,0,0,0,0,0,0,0,0,0,0,0,0,0,0,0,0,0,0,0,0,0,0,0,0,0,0,0,0,0,0,0,0,0,0,0,0,0,0,0,0,0,0,0,0,0,0,0,0,0,0,0,0,0,0,0,0,0,0,0,0,0,0,0,0,0,0,0,0,0,0,0,0,0,0,0,0,0,0,0,0,0,0,0,0,0,0],"id":3,"left_children":[1,3,5,7,9,11,13,15,17,19,21,23,25,27,29,31,33,35,37,39,41,43,45,47,49,51,53,55,-1,57,59,61,63,65,67,69,71,73,75,77,79,81,83,85,87,89,91,93,95,97,99,-1,-1,101,103,105,107,-1,-1,-1,-1,-1,-1,-1,-1,-1,-1,-1,-1,-1,-1,-1,-1,-1,-1,-1,-1,-1,-1,-1,-1,-1,-1,-1,-1,-1,-1,-1,-1,-1,-1,-1,-1,-1,-1,-1,-1,-1,-1,-1,-1,-1,-1,-1,-1,-1,-1,-1,-1],"loss_changes":[3.963577E19,7.968012E18,8.995021E18,1.299709E18,2.7839208E18,1.285681E18,2.1499367E18,3.081123E17,2.5731247E17,4.6493055E17,1.1685087E18,1.2913665E18,2.908027E17,8.280301E17,5.30853E17,1.0232495E17,1.0758536E17,1.2341054E17,1.7018564E17,2.7777016E17,2.3449364E17,3.8554045E17,3.7637575E17,4.2282063E17,1.7777564E17,3.2804597E16,1.495957E17,2.9885826E17,0E0,8.54414E16,1.654765E17,1.0058332E16,2.9596242E16,3.0414072E16,4.897253E16,2.4191438E16,6.4057324E16,8.54621E16,8.814768E16,3.7551578E16,1.5220665E17,1.2838709E17,2.4156112E17,2.7266404E17,2.0263065E17,2.4151268E17,1.6391973E17,1.5243643E17,2.148465E17,6.3063726E16,1.0258169E17,0E0,0E0,7.0066104E16,5.9571265E16,7.7607826E15,2.204191E17,0E0,0E0,0E0,0E0,0E0,0E0,0E0,0E0,0E0,0E0,0E0,0E0,0E0,0E0,0E0,0E0,0E0,0E0,0E0,0E0,0E0,0E0,0E0,0E0,0E0,0E0,0E0,0E0,0E0,0E0,0E0,0E0,0E0,0E0,0E0,0E0,0E0,0E0,0E0,0E0,0E0,0E0,0E0,0E0,0E0,0E0,0E0,0E0,0E0,0E0,0E0,0E0],"parents":[2147483647,0,0,1,1,2,2,3,3,4,4,5,5,6,6,7,7,8,8,9,9,10,10,11,11,12,12,13,13,14,14,15,15,16,16,17,17,18,18,19,19,20,20,21,21,22,22,23,23,24,24,25,25,26,26,27,27,29,29,30,30,31,31,32,32,33,33,34,34,35,35,36,36,37,37,38,38,39,39,40,40,41,41,42,42,43,43,44,44,45,45,46,46,47,47,48,48,49,49,50,50,53,53,54,54,55,55,56,56],"right_children":[2,4,6,8,10,12,14,16,18,20,22,24,26,28,30,32,34,36,38,40,42,44,46,48,50,52,54,56,-1,58,60,62,64,66,68,70,72,74,76,78,80,82,84,86,88,90,92,94,96,98,100,-1,-1,102,104,106,108,-1,-1,-1,-1,-1,-1,-1,-1,-1,-1,-1,-1,-1,-1,-1,-1,-1,-1,-1,-1,-1,-1,-1,-1,-1,-1,-1,-1,-1,-1,-1,-1,-1,-1,-1,-1,-1,-1,-1,-1,-1,-1,-1,-1,-1,-1,-1,-1,-1,-1,-1,-1],"split_conditions":[9E7,2.007E1,5.2734E1,2.6E7,2.75E7,1.8E8,2E8,1.4247E1,5.1E7,4.1522E1,4.2954E1,2.9061E1,1.5562975E7,3.8325715E8,1.4E2,5.5E6,1.4E7,1.5773E1,7.762E0,1.3E7,4.8138336E7,6.1E7,2.1081962E8,1.0222E1,1.02E8,9.7E1,1.41E2,4E0,3.76267E7,5.5481E1,3.8325715E8,5.427E0,8.733E0,3.3E6,1E0,6.3E1,3.205622E8,1.54E7,1.4972E1,4.3E6,2.2326189E8,1E0,1E0,2.9496E1,2.3655E1,1E0,1.5562975E7,1.54E7,1.8737E1,1E0,1.0448394E8,-1.9974432E6,6.95902E6,6.3864024E7,4.9405504E8,9.6E1,1.2E8,1.06971E7,3.1133562E7,5.5169052E7,2.7092736E7,-2.5605758E6,-2.3247648E6,-2.2147115E6,-1.7399812E6,-2.1124768E6,-1.3822569E6,-1.0319981E6,1.6416784E5,2.9156988E6,-1.0228173E6,3.2685997E5,6.0513155E6,-1.5118492E6,9.144951E6,-7.310556E4,1.9036574E6,-1.3887999E6,-4.4793925E5,9.149765E5,1.07374E7,1.3917621E6,7.014317E6,4.9827705E6,1.7861178E7,2.1547275E6,4.7704455E6,3.1814895E6,7.057821E6,6.696149E6,1.283162E7,3.5622088E6,2.1531734E7,-1.3752274E6,1.7928932E7,1.2115855E6,6.2923895E6,1.0956883E7,5.240905E6,1.1849821E7,1.6148578E7,8.22936E6,1.9357304E7,2.9992816E7,6.8332815E6,2.1207785E6,9.938407E6,1.5748975E7,2.4748052E7],"split_indices":[1,2,2,1,1,1,1,2,1,2,2,2,6,6,0,1,1,2,2,1,5,1,5,2,1,0,0,4,0,2,6,2,2,1,10,0,5,5,2,1,5,13,18,2,2,14,6,5,2,19,6,0,0,6,6,0,1,0,0,0,0,0,0,0,0,0,0,0,0,0,0,0,0,0,0,0,0,0,0,0,0,0,0,0,0,0,0,0,0,0,0,0,0,0,0,0,0,0,0,0,0,0,0,0,0,0,0,0,0],"split_type":[0,0,0,0,0,0,0,0,0,0,0,0,0,0,0,0,0,0,0,0,0,0,0,0,0,0,0,0,0,0,0,0,0,0,0,0,0,0,0,0,0,0,0,0,0,0,0,0,0,0,0,0,0,0,0,0,0,0,0,0,0,0,0,0,0,0,0,0,0,0,0,0,0,0,0,0,0,0,0,0,0,0,0,0,0,0,0,0,0,0,0,0,0,0,0,0,0,0,0,0,0,0,0,0,0,0,0,0,0],"sum_hessian":[7.643E3,7.266E3,3.77E2,5.649E3,1.617E3,2.78E2,9.9E1,4.757E3,8.92E2,8.92E2,7.25E2,2.47E2,3.1E1,7.3E1,2.6E1,3.741E3,1.016E3,6.46E2,2.46E2,7.86E2,1.06E2,6.23E2,1.02E2,1.16E2,1.31E2,3E0,2.8E1,6.3E1,1E1,1.2E1,1.4E1,2.247E3,1.494E3,6.63E2,3.53E2,4.14E2,2.32E2,1.1E1,2.35E2,4.33E2,3.53E2,8.3E1,2.3E1,4.6E2,1.63E2,9.2E1,1E1,9E0,1.07E2,3.2E1,9.9E1,1E0,2E0,1.8E1,1E1,7E0,5.6E1,2E0,1E1,1E1,4E0,1.192E3,1.055E3,5.37E2,9.57E2,2.2E2,4.43E2,2.09E2,1.44E2,3E0,4.11E2,2.28E2,4E0,2E0,9E0,9.3E1,1.42E2,1.88E2,2.45E2,3.5E2,3E0,7.2E1,1.1E1,1.9E1,4E0,3.12E2,1.48E2,5.2E1,1.11E2,6.9E1,2.3E1,2E0,8E0,1E0,8E0,2.9E1,7.8E1,2.2E1,1E1,4.4E1,5.5E1,4E0,1.4E1,9E0,1E0,1E0,6E0,1.8E1,3.8E1],"tree_param":{"num_deleted":"0","num_feature":"21","num_nodes":"109","size_leaf_vector":"1"}},{"base_weights":[2.2886088E5,-1.5417268E7,3.01023E8,-3.111576E7,4.779991E7,2.116902E8,5.4725126E8,-3.6176256E7,1.6311978E7,1.5814079E7,1.0065022E8,1.871553E8,3.952205E8,4.368058E8,7.582526E8,-4.1778356E7,-2.0124346E7,-3.6029275E6,3.171499E7,2.3523178E6,5.1107964E7,8.2574536E7,1.9233493E8,1.12590824E8,2.5182867E8,8.143072E7,4.2487357E8,3.55605E8,6.4260774E8,4.776095E8,9.167901E8,-4.5093524E7,-3.2004784E7,-3.046182E7,-7.723594E6,9.894033E7,-1.021735E7,1.8026604E7,5.126654E7,-1.6256552E7,1.9798056E7,4.4094984E7,2.3322138E8,6.4940124E7,1.1969346E8,1.5829317E8,2.9502765E8,3.0301424E8,9.391651E7,2.111978E8,2.970658E8,-1.9475072E6,6.727053E6,3.329583E8,5.4501146E8,2.9659037E8,4.661626E8,3.468319E7,1.4524771E7,6.579596E6,4.941038E8,9.8343123E8,2.6009028E7,-2.3570295E6,-2.0068519E6,-1.811091E6,-1.3174959E6,-2.0720316E6,-1.302923E6,-8.427668E5,2.7246203E5,1.4012908E6,1.0032057E7,-6.911906E5,1.8103476E6,3.2664188E5,1.8877254E6,1.8548996E6,3.696546E6,-9.73672E5,6.5012056E5,3.1053466E5,2.6504928E6,-5.3040644E5,2.8183392E6,1.7478266E7,5.8394275E6,2.348949E6,5.0205345E6,1.0897975E7,5.3810045E6,6.7097045E6,1.5202162E7,1.0019584E7,2.278361E7,-1.3408468E6,1.713209E7,1.1530256E6,5.981752E6,7.3898225E6,1.2368158E7,1.2339639E7,2.15716E7,8.814785E6,1.8815834E7,2.864314E7,6.6624495E6,1.5246887E7,1.108222E5,3.5460992E6,2.5877984E7,1.034053E7,2.6376898E7,5.0601796E7,1.3859018E7],"categories":[],"categories_nodes":[],"categories_segments":[],"categories_sizes":[],"default_left":[0,0,0,0,0,0,0,0,0,0,0,0,0,0,0,0,0,0,0,0,0,0,0,0,0,0,0,0,0,0,0,0,0,0,0,0,0,0,0,0,0,0,0,0,0,0,0,0,0,0,0,0,0,0,0,0,0,0,0,0,0,0,0,0,0,0,0,0,0,0,0,0,0,0,0,0,0,0,0,0,0,0,0,0,0,0,0,0,0,0,0,0,0,0,0,0,0,0,0,0,0,0,0,0,0,0,0,0,0,0,0,0,0,0,0],"id":4,"left_children":[1,3,5,7,9,11,13,15,17,19,21,23,25,27,29,31,33,35,37,39,41,43,45,47,49,51,53,55,57,59,61,63,65,67,69,71,73,75,77,79,81,83,85,87,89,91,93,95,97,99,101,-1,-1,103,105,107,109,-1,-1,-1,111,113,-1,-1,-1,-1,-1,-1,-1,-1,-1,-1,-1,-1,-1,-1,-1,-1,-1,-1,-1,-1,-1,-1,-1,-1,-1,-1,-1,-1,-1,-1,-1,-1,-1,-1,-1,-1,-1,-1,-1,-1,-1,-1,-1,-1,-1,-1,-1,-1,-1,-1,-1,-1,-1],"loss_changes":[3.5979321E19,7.2133625E18,8.198737E18,1.3979163E18,2.4428152E18,1.1823422E18,1.9992068E18,4.7225124E17,1.7250753E17,4.2843604E17,8.873273E17,1.1675857E18,2.6315711E17,9.0785356E17,1.0303809E18,1.2488803E17,1.7449105E17,1.6786395E17,8.391428E16,2.1263998E17,3.0772857E17,2.9136563E17,2.6442897E17,3.875968E17,1.798801E17,3.0814264E16,1.3876661E17,1.9449096E17,1.2208867E17,1.488244E16,1.7049027E16,2.762358E16,2.2677633E16,3.483947E16,7.479251E16,1.0255782E17,3.934369E16,4.238196E16,3.900308E16,3.0090146E16,1.521969E17,1.6238265E17,8.109104E16,1.9405556E17,1.4975774E17,2.0155766E17,2.279447E17,1.3989265E17,1.9405088E17,1.3082457E17,2.9882527E17,0E0,0E0,6.271697E16,4.98164E16,8.778473E16,2.883211E17,0E0,0E0,0E0,1.5769746E16,4.2717126E16,0E0,0E0,0E0,0E0,0E0,0E0,0E0,0E0,0E0,0E0,0E0,0E0,0E0,0E0,0E0,0E0,0E0,0E0,0E0,0E0,0E0,0E0,0E0,0E0,0E0,0E0,0E0,0E0,0E0,0E0,0E0,0E0,0E0,0E0,0E0,0E0,0E0,0E0,0E0,0E0,0E0,0E0,0E0,0E0,0E0,0E0,0E0,0E0,0E0,0E0,0E0,0E0,0E0],"parents":[2147483647,0,0,1,1,2,2,3,3,4,4,5,5,6,6,7,7,8,8,9,9,10,10,11,11,12,12,13,13,14,14,15,15,16,16,17,17,18,18,19,19,20,20,21,21,22,22,23,23,24,24,25,25,26,26,27,27,28,28,29,29,30,30,31,31,32,32,33,33,34,34,35,35,36,36,37,37,38,38,39,39,40,40,41,41,42,42,43,43,44,44,45,45,46,46,47,47,48,48,49,49,50,50,53,53,54,54,55,55,56,56,60,60,61,61],"right_children":[2,4,6,8,10,12,14,16,18,20,22,24,26,28,30,32,34,36,38,40,42,44,46,48,50,52,54,56,58,60,62,64,66,68,70,72,74,76,78,80,82,84,86,88,90,92,94,96,98,100,102,-1,-1,104,106,108,110,-1,-1,-1,112,114,-1,-1,-1,-1,-1,-1,-1,-1,-1,-1,-1,-1,-1,-1,-1,-1,-1,-1,-1,-1,-1,-1,-1,-1,-1,-1,-1,-1,-1,-1,-1,-1,-1,-1,-1,-1,-1,-1,-1,-1,-1,-1,-1,-1,-1,-1,-1,-1,-1,-1,-1,-1,-1],"split_conditions":[9E7,2.1011E1,5.2734E1,3.7E7,3.235E7,1.8E8,1.8E8,1.4158E1,1.4972E1,3.3856E1,4.2954E1,2.9061E1,1.5562975E7,2.6696226E8,1.37E2,1.09E7,1.4E7,5.581E0,7.6565304E7,1.2716953E7,1.9636077E8,6.1E7,7.1E7,1.0222E1,3.7406E1,9.7E1,1.41E2,1E0,1E0,6.35096E5,3.8325715E8,9.304E0,1E0,3E6,1E0,1E0,8E7,1E0,1.9043E1,5.801296E7,1.18E2,3.9E6,5.2734E1,2.986E1,1.997E3,1E0,1.5236883E8,1.54E7,1.8737E1,8.16E7,2.8457885E8,-1.9475072E6,6.727053E6,8.793997E7,4.9405504E8,1E0,3E0,3.468319E7,1.4524771E7,6.579596E6,5.5481E1,1E0,2.6009028E7,-2.3570295E6,-2.0068519E6,-1.811091E6,-1.3174959E6,-2.0720316E6,-1.302923E6,-8.427668E5,2.7246203E5,1.4012908E6,1.0032057E7,-6.911906E5,1.8103476E6,3.2664188E5,1.8877254E6,1.8548996E6,3.696546E6,-9.73672E5,6.5012056E5,3.1053466E5,2.6504928E6,-5.3040644E5,2.8183392E6,1.7478266E7,5.8394275E6,2.348949E6,5.0205345E6,1.0897975E7,5.3810045E6,6.7097045E6,1.5202162E7,1.0019584E7,2.278361E7,-1.3408468E6,1.713209E7,1.1530256E6,5.981752E6,7.3898225E6,1.2368158E7,1.2339639E7,2.15716E7,8.814785E6,1.8815834E7,2.864314E7,6.6624495E6,1.5246887E7,1.108222E5,3.5460992E6,2.5877984E7,1.034053E7,2.6376898E7,5.0601796E7,1.3859018E7],"split_indices":[1,2,2,1,1,1,1,2,2,2,2,2,6,6,0,1,1,2,5,1,5,1,1,2,2,0,0,19,9,6,6,2,10,1,10,18,1,10,2,6,0,1,2,2,3,13,6,5,2,6,5,0,0,6,6,16,4,0,0,0,2,17,0,0,0,0,0,0,0,0,0,0,0,0,0,0,0,0,0,0,0,0,0,0,0,0,0,0,0,0,0,0,0,0,0,0,0,0,0,0,0,0,0,0,0,0,0,0,0,0,0,0,0,0,0],"split_type":[0,0,0,0,0,0,0,0,0,0,0,0,0,0,0,0,0,0,0,0,0,0,0,0,0,0,0,0,0,0,0,0,0,0,0,0,0,0,0,0,0,0,0,0,0,0,0,0,0,0,0,0,0,0,0,0,0,0,0,0,0,0,0,0,0,0,0,0,0,0,0,0,0,0,0,0,0,0,0,0,0,0,0,0,0,0,0,0,0,0,0,0,0,0,0,0,0,0,0,0,0,0,0,0,0,0,0,0,0,0,0,0,0,0,0],"sum_hessian":[7.643E3,7.266E3,3.77E2,5.821E3,1.445E3,2.78E2,9.9E1,5.26E3,5.61E2,9.01E2,5.44E2,2.47E2,3.1E1,6.7E1,3.2E1,3.898E3,1.362E3,2.45E2,3.16E2,6.53E2,2.48E2,4.56E2,8.8E1,1.16E2,1.31E2,3E0,2.8E1,5E1,1.7E1,1.3E1,1.9E1,2.908E3,9.9E2,7.42E2,6.2E2,1.4E1,2.31E2,1.87E2,1.29E2,3.16E2,3.37E2,2.4E2,8E0,3.11E2,1.45E2,6.8E1,2E1,9E0,1.07E2,7.2E1,5.9E1,1E0,2E0,1.8E1,1E1,3.5E1,1.5E1,1.4E1,3E0,1E0,1.2E1,1.5E1,4E0,2.052E3,8.56E2,5.64E2,4.26E2,2.1E2,5.32E2,3.66E2,2.54E2,9E0,5E0,2.15E2,1.6E1,1.19E2,6.8E1,8.1E1,4.8E1,2.85E2,3.1E1,2.4E2,9.7E1,4.4E1,1.96E2,3E0,5E0,2.08E2,1.03E2,1.4E1,1.31E2,6E1,8E0,1.4E1,6E0,1E0,8E0,2.9E1,7.8E1,2.8E1,4.4E1,4.5E1,1.4E1,5E0,1.3E1,9E0,1E0,3.4E1,1E0,2E0,1.3E1,2E0,1E1,1.4E1,1E0],"tree_param":{"num_deleted":"0","num_feature":"21","num_nodes":"115","size_leaf_vector":"1"}},{"base_weights":[2.812004E5,-1.4630513E7,2.8695616E8,-2.9558446E7,4.548364E7,2.0162294E8,5.221663E8,-3.436962E7,1.5532534E7,1.8799662E7,1.0300541E8,1.7810638E8,3.775756E8,4.163477E8,7.2439354E8,-4.16088E7,-2.3118528E7,-3.3717535E6,3.015374E7,8.3598285E6,6.6645904E7,8.471907E7,1.8966112E8,1.0715723E8,2.3964382E8,7.855406E7,4.058001E8,3.575295E8,3.4431516E7,4.568217E8,8.754741E8,-4.3528624E7,-3.2197192E7,-3.1130686E7,-1.2861148E7,9.475554E7,-9.701657E6,1.7137054E7,4.874592E7,-1.4060916E7,2.585621E7,4.2232612E7,1.26133E8,6.627867E7,1.1382028E8,1.536377E8,2.8183834E8,2.8944266E8,8.928675E7,2.0090854E8,2.827777E8,-1.8988196E6,6.5028175E6,3.177646E8,5.209705E8,2.9898205E8,4.6196995E8,1.1564547E7,4.973036E8,9.3828845E8,2.4968668E7,-2.3043342E6,-2.0384812E6,7.763379E5,-1.6558266E6,-1.9638779E6,-1.3508464E6,-9.8779444E5,1.1934171E5,1.7234556E6,1.0421728E7,-6.5679094E5,1.7251546E6,-5.7957544E5,1.2126634E6,2.7648068E6,2.4585103E5,-1.2960228E6,-2.4162283E5,6.475074E5,2.690952E6,1.3269761E6,6.789428E6,9.313851E6,4.066074E6,2.4832302E6,4.954154E6,4.86111E6,9.014855E6,6.5594165E6,1.5083162E7,9.552003E6,2.180717E7,-1.3073255E6,1.6370664E7,1.097296E6,5.6864505E6,7.033072E6,1.1763492E7,1.173607E7,2.0564926E7,1.6546562E7,2.0191349E6,2.7354198E7,6.4958885E6,4.5447815E6,1.5669864E7,3.427896E6,2.5211046E7,9.995846E6,2.705883E7,4.824038E7,1.3512543E7],"categories":[],"categories_nodes":[],"categories_segments":[],"categories_sizes":[],"default_left":[0,0,0,0,0,0,0,0,0,0,0,0,0,0,0,0,0,0,0,0,0,0,0,0,0,0,0,0,0,0,0,0,0,0,0,0,0,0,0,0,0,0,0,0,0,0,0,0,0,0,0,0,0,0,0,0,0,0,0,0,0,0,0,0,0,0,0,0,0,0,0,0,0,0,0,0,0,0,0,0,0,0,0,0,0,0,0,0,0,0,0,0,0,0,0,0,0,0,0,0,0,0,0,0,0,0,0,0,0,0,0,0,0],"id":5,"left_children":[1,3,5,7,9,11,13,15,17,19,21,23,25,27,29,31,33,35,37,39,41,43,45,47,49,51,53,55,-1,57,59,61,63,65,67,69,71,73,75,77,79,81,83,85,87,89,91,93,95,97,99,-1,-1,101,103,105,107,-1,109,111,-1,-1,-1,-1,-1,-1,-1,-1,-1,-1,-1,-1,-1,-1,-1,-1,-1,-1,-1,-1,-1,-1,-1,-1,-1,-1,-1,-1,-1,-1,-1,-1,-1,-1,-1,-1,-1,-1,-1,-1,-1,-1,-1,-1,-1,-1,-1,-1,-1,-1,-1,-1,-1],"loss_changes":[3.268088E19,6.5226053E18,7.4816467E18,1.2635615E18,2.2175432E18,1.0871971E18,1.8383395E18,4.275396E17,1.5544042E17,4.93455E17,7.096853E17,1.0570958E18,2.3819408E17,8.4282624E17,9.340857E17,5.641814E16,1.6906242E17,1.537188E17,7.588135E16,3.1928876E17,2.517259E17,1.9637882E17,2.190219E17,3.5528753E17,1.6373322E17,2.894541E16,1.2848783E17,2.1653342E17,0E0,1.2797216E16,3.9340526E15,1.6859362E16,2.4469666E16,3.77149E16,9.529572E16,9.561498E16,3.5672285E16,3.8715595E16,3.704966E16,3.8946695E16,1.6422972E17,1.8285533E17,1.2230411E17,1.231574E17,1.4356571E17,1.5648703E17,2.1090227E17,1.283919E17,1.75268E17,1.18028725E17,2.7403403E17,0E0,0E0,5.602754E16,4.1253127E16,9.149806E16,2.812504E17,0E0,3.5329233E16,2.2713711E16,0E0,0E0,0E0,0E0,0E0,0E0,0E0,0E0,0E0,0E0,0E0,0E0,0E0,0E0,0E0,0E0,0E0,0E0,0E0,0E0,0E0,0E0,0E0,0E0,0E0,0E0,0E0,0E0,0E0,0E0,0E0,0E0,0E0,0E0,0E0,0E0,0E0,0E0,0E0,0E0,0E0,0E0,0E0,0E0,0E0,0E0,0E0,0E0,0E0,0E0,0E0,0E0,0E0],"parents":[2147483647,0,0,1,1,2,2,3,3,4,4,5,5,6,6,7,7,8,8,9,9,10,10,11,11,12,12,13,13,14,14,15,15,16,16,17,17,18,18,19,19,20,20,21,21,22,22,23,23,24,24,25,25,26,26,27,27,29,29,30,30,31,31,32,32,33,33,34,34,35,35,36,36,37,37,38,38,39,39,40,40,41,41,42,42,43,43,44,44,45,45,46,46,47,47,48,48,49,49,50,50,53,53,54,54,55,55,56,56,58,58,59,59],"right_children":[2,4,6,8,10,12,14,16,18,20,22,24,26,28,30,32,34,36,38,40,42,44,46,48,50,52,54,56,-1,58,60,62,64,66,68,70,72,74,76,78,80,82,84,86,88,90,92,94,96,98,100,-1,-1,102,104,106,108,-1,110,112,-1,-1,-1,-1,-1,-1,-1,-1,-1,-1,-1,-1,-1,-1,-1,-1,-1,-1,-1,-1,-1,-1,-1,-1,-1,-1,-1,-1,-1,-1,-1,-1,-1,-1,-1,-1,-1,-1,-1,-1,-1,-1,-1,-1,-1,-1,-1,-1,-1,-1,-1,-1,-1],"split_conditions":[9E7,2.1011E1,5.2734E1,3.7E7,4E7,1.8E8,1.8E8,1.1997E1,1.4972E1,3.8323E1,4.2954E1,2.9061E1,1.5562975E7,3.8325715E8,1.37E2,1.244056E7,1.4E7,5.581E0,7.6565304E7,1.3E7,4.8138336E7,6.1E7,7.1E7,1.0222E1,3.7406E1,9.7E1,1.41E2,1E0,3.4431516E7,2E8,3.8325715E8,2.2E6,1.914E0,3.3E6,1.7079E1,7.1E7,8E7,1.6951702E7,1E0,4.015E6,1.16E2,1E0,1.993E3,3.0218E1,1.7934296E8,1E0,1.5236883E8,1.54E7,1.8737E1,8.16E7,2.8457885E8,-1.8988196E6,6.5028175E6,2.015E3,4.9405504E8,4E0,3E0,1.1564547E7,5.5481E1,1E0,2.4968668E7,-2.3043342E6,-2.0384812E6,7.763379E5,-1.6558266E6,-1.9638779E6,-1.3508464E6,-9.8779444E5,1.1934171E5,1.7234556E6,1.0421728E7,-6.5679094E5,1.7251546E6,-5.7957544E5,1.2126634E6,2.7648068E6,2.4585103E5,-1.2960228E6,-2.4162283E5,6.475074E5,2.690952E6,1.3269761E6,6.789428E6,9.313851E6,4.066074E6,2.4832302E6,4.954154E6,4.86111E6,9.014855E6,6.5594165E6,1.5083162E7,9.552003E6,2.180717E7,-1.3073255E6,1.6370664E7,1.097296E6,5.6864505E6,7.033072E6,1.1763492E7,1.173607E7,2.0564926E7,1.6546562E7,2.0191349E6,2.7354198E7,6.4958885E6,4.5447815E6,1.5669864E7,3.427896E6,2.5211046E7,9.995846E6,2.705883E7,4.824038E7,1.3512543E7],"split_indices":[1,2,2,1,1,1,1,2,2,2,2,2,6,6,0,1,1,2,5,1,5,1,1,2,2,0,0,19,0,1,6,1,2,1,2,1,1,6,18,1,0,13,3,2,5,13,6,5,2,6,5,0,0,3,6,4,4,0,2,17,0,0,0,0,0,0,0,0,0,0,0,0,0,0,0,0,0,0,0,0,0,0,0,0,0,0,0,0,0,0,0,0,0,0,0,0,0,0,0,0,0,0,0,0,0,0,0,0,0,0,0,0,0],"split_type":[0,0,0,0,0,0,0,0,0,0,0,0,0,0,0,0,0,0,0,0,0,0,0,0,0,0,0,0,0,0,0,0,0,0,0,0,0,0,0,0,0,0,0,0,0,0,0,0,0,0,0,0,0,0,0,0,0,0,0,0,0,0,0,0,0,0,0,0,0,0,0,0,0,0,0,0,0,0,0,0,0,0,0,0,0,0,0,0,0,0,0,0,0,0,0,0,0,0,0,0,0,0,0,0,0,0,0,0,0,0,0,0,0],"sum_hessian":[7.643E3,7.266E3,3.77E2,5.821E3,1.445E3,2.78E2,9.9E1,5.26E3,5.61E2,9.88E2,4.57E2,2.47E2,3.1E1,6.7E1,3.2E1,3.199E3,2.061E3,2.45E2,3.16E2,8.12E2,1.76E2,3.79E2,7.8E1,1.16E2,1.31E2,3E0,2.8E1,5.7E1,1E1,1.3E1,1.9E1,2.654E3,5.45E2,1.156E3,9.05E2,1.4E1,2.31E2,1.87E2,1.29E2,3.56E2,4.56E2,1.26E2,5E1,2.34E2,1.45E2,5.8E1,2E1,9E0,1.07E2,7.2E1,5.9E1,1E0,2E0,1.8E1,1E1,3.9E1,1.8E1,3E0,1E1,1.5E1,4E0,1.369E3,1.285E3,1E1,5.35E2,3.85E2,7.71E2,6.23E2,2.82E2,1E1,4E0,2.15E2,1.6E1,3.7E1,1.5E2,1.12E2,1.7E1,1.55E2,2.01E2,3.13E2,1.43E2,1.09E2,1.7E1,2E1,3E1,1.57E2,7.7E1,1.18E2,2.7E1,5.2E1,6E0,1.4E1,6E0,1E0,8E0,2.9E1,7.8E1,2.8E1,4.4E1,4.5E1,1.4E1,1.7E1,1E0,9E0,1E0,3E0,3.6E1,2E0,1.6E1,2E0,8E0,1.4E1,1E0],"tree_param":{"num_deleted":"0","num_feature":"21","num_nodes":"113","size_leaf_vector":"1"}},{"base_weights":[3.2648872E5,-1.3884529E7,2.7353056E8,-2.9136628E7,3.9383852E7,1.9200762E8,4.9824422E8,-3.480334E7,1.0888596E6,1.5043031E7,9.269275E7,1.104662E8,2.376549E8,3.967551E8,6.922751E8,-3.8417548E7,-2.1470832E7,-6.8006665E6,2.9179678E7,2.84045E6,5.217292E7,7.624278E7,1.8084898E8,4.5633252E7,1.5155789E8,2.0342062E8,3.5067763E8,3.2204262E8,5.8639846E8,4.374534E8,4.1801824E7,-4.2126916E7,-3.2814146E7,-2.7846704E7,-9.450918E6,-1.6570519E7,1.0132322E7,1.4676346E8,2.2068918E7,-9.321106E6,2.8741226E7,4.64006E7,2.1762146E8,6.028283E7,1.06137816E8,1.5880131E8,3.3468627E8,2.6236668E7,9.032194E7,1.4261922E7,1.5829731E8,1.5636075E8,2.6277678E8,4.235897E8,1.6666109E8,2.6787995E8,4.23781E8,3.167512E7,1.3157951E7,6.1259925E6,4.5225446E8,-2.2029122E6,-1.9952569E6,-1.9099474E6,-1.487793E6,-2.0291272E6,-1.2452545E6,-9.145938E5,1.7092036E5,-1.0536849E6,-2.8422597E5,4.0186797E5,5.6845985E6,-1.491067E6,9.4659E6,-8.721028E5,1.3875548E6,-9.205683E5,1.5123212E5,9.674577E5,3.7427092E6,2.1589668E6,1.5773952E7,1.6539159E7,5.295504E6,2.6797358E6,7.7698855E6,4.225427E6,8.808699E6,6.364456E6,1.1639646E7,2.8961235E6,2.027435E7,5.842652E5,4.1247288E6,2.720064E6,7.4281475E6,1.287424E6,-5.049438E5,5.374278E6,9.177447E6,6.7038055E6,1.1552911E7,4.2082025E6,1.3535045E7,1.3121656E7,2.4305738E7,4.0291838E6,9.798199E6,1.3792895E7,-2.83695E5,3.3136328E6,2.3505994E7,9.662651E6,2.408886E7],"categories":[],"categories_nodes":[],"categories_segments":[],"categories_sizes":[],"default_left":[0,0,0,0,0,0,0,0,0,0,0,0,0,0,0,0,0,0,0,0,0,0,0,0,0,0,0,0,0,0,0,0,0,0,0,0,0,0,0,0,0,0,0,0,0,0,0,0,0,0,0,0,0,0,0,0,0,0,0,0,0,0,0,0,0,0,0,0,0,0,0,0,0,0,0,0,0,0,0,0,0,0,0,0,0,0,0,0,0,0,0,0,0,0,0,0,0,0,0,0,0,0,0,0,0,0,0,0,0,0,0,0,0,0,0],"id":6,"left_children":[1,3,5,7,9,11,13,15,17,19,21,23,25,27,29,31,33,35,37,39,41,43,45,47,49,51,53,55,57,59,-1,61,63,65,67,69,71,73,75,77,79,81,83,85,87,89,91,93,95,97,99,101,103,105,107,109,111,-1,-1,-1,113,-1,-1,-1,-1,-1,-1,-1,-1,-1,-1,-1,-1,-1,-1,-1,-1,-1,-1,-1,-1,-1,-1,-1,-1,-1,-1,-1,-1,-1,-1,-1,-1,-1,-1,-1,-1,-1,-1,-1,-1,-1,-1,-1,-1,-1,-1,-1,-1,-1,-1,-1,-1,-1,-1],"loss_changes":[2.9681688E19,5.9052554E18,6.829038E18,9.677654E17,2.0980936E18,1.0122247E18,1.6945365E18,2.2844553E17,1.98108E17,5.036773E17,7.214459E17,2.6482177E17,6.173912E17,7.746268E17,8.431792E17,7.639572E16,7.7677095E16,1.15639984E17,1.6063865E17,2.6423264E17,2.5253329E17,1.9828785E17,2.1480004E17,3.316938E16,5.5110684E16,3.4718014E17,4.6608518E17,1.6750895E17,1.0735357E17,9.848875E15,0E0,7.8878964E15,2.348337E16,2.3865347E16,4.0339647E16,2.1596796E16,5.462633E16,8.830506E16,4.2242575E16,6.4136772E16,1.1462146E17,2.1780638E17,7.873977E16,1.7106277E17,2.0930674E17,1.3591434E17,1.5286888E17,2.3594905E16,1.7022648E16,1.3793175E15,5.597284E16,1.0218902E17,6.2137525E16,1.5456385E17,1.6998587E16,8.013131E16,2.3390845E17,0E0,0E0,0E0,6.2985524E15,0E0,0E0,0E0,0E0,0E0,0E0,0E0,0E0,0E0,0E0,0E0,0E0,0E0,0E0,0E0,0E0,0E0,0E0,0E0,0E0,0E0,0E0,0E0,0E0,0E0,0E0,0E0,0E0,0E0,0E0,0E0,0E0,0E0,0E0,0E0,0E0,0E0,0E0,0E0,0E0,0E0,0E0,0E0,0E0,0E0,0E0,0E0,0E0,0E0,0E0,0E0,0E0,0E0,0E0],"parents":[2147483647,0,0,1,1,2,2,3,3,4,4,5,5,6,6,7,7,8,8,9,9,10,10,11,11,12,12,13,13,14,14,15,15,16,16,17,17,18,18,19,19,20,20,21,21,22,22,23,23,24,24,25,25,26,26,27,27,28,28,29,29,31,31,32,32,33,33,34,34,35,35,36,36,37,37,38,38,39,39,40,40,41,41,42,42,43,43,44,44,45,45,46,46,47,47,48,48,49,49,50,50,51,51,52,52,53,53,54,54,55,55,56,56,60,60],"right_children":[2,4,6,8,10,12,14,16,18,20,22,24,26,28,30,32,34,36,38,40,42,44,46,48,50,52,54,56,58,60,-1,62,64,66,68,70,72,74,76,78,80,82,84,86,88,90,92,94,96,98,100,102,104,106,108,110,112,-1,-1,-1,114,-1,-1,-1,-1,-1,-1,-1,-1,-1,-1,-1,-1,-1,-1,-1,-1,-1,-1,-1,-1,-1,-1,-1,-1,-1,-1,-1,-1,-1,-1,-1,-1,-1,-1,-1,-1,-1,-1,-1,-1,-1,-1,-1,-1,-1,-1,-1,-1,-1,-1,-1,-1,-1,-1],"split_conditions":[9E7,2.007E1,5.2734E1,2.6E7,4E7,1.1E8,1.8E8,1.4247E1,6E7,3.3856E1,4.2954E1,2.2546E1,1.36E2,2.6696226E8,1.37E2,5.5E6,1.4E7,1.5773E1,7.762E0,2.1E7,1.9636077E8,2.8691E1,2.1081962E8,1.457933E8,9E1,3.2669E1,1E0,1E0,1E0,6.35096E5,4.1801824E7,5.427E0,8.733E0,1.8E6,1E0,8.5826136E7,3.205622E8,1.54E7,1.2337E1,1.09E7,1E0,4.9405504E8,5.2734E1,2.8457885E8,7.1E7,1E0,1.5562975E7,1E0,9.269915E7,8.9E1,2.9061E1,1.27E2,8.6E1,8.16E7,2.5405E1,1E0,3E0,3.167512E7,1.3157951E7,6.1259925E6,5.5481E1,-2.2029122E6,-1.9952569E6,-1.9099474E6,-1.487793E6,-2.0291272E6,-1.2452545E6,-9.145938E5,1.7092036E5,-1.0536849E6,-2.8422597E5,4.0186797E5,5.6845985E6,-1.491067E6,9.4659E6,-8.721028E5,1.3875548E6,-9.205683E5,1.5123212E5,9.674577E5,3.7427092E6,2.1589668E6,1.5773952E7,1.6539159E7,5.295504E6,2.6797358E6,7.7698855E6,4.225427E6,8.808699E6,6.364456E6,1.1639646E7,2.8961235E6,2.027435E7,5.842652E5,4.1247288E6,2.720064E6,7.4281475E6,1.287424E6,-5.049438E5,5.374278E6,9.177447E6,6.7038055E6,1.1552911E7,4.2082025E6,1.3535045E7,1.3121656E7,2.4305738E7,4.0291838E6,9.798199E6,1.3792895E7,-2.83695E5,3.3136328E6,2.3505994E7,9.662651E6,2.408886E7],"split_indices":[1,2,2,1,1,1,1,2,1,2,2,2,0,6,0,1,1,2,2,1,5,2,5,6,0,2,9,19,9,6,0,2,2,1,10,6,5,5,2,1,13,6,2,5,1,14,6,15,5,0,2,0,0,6,2,16,4,0,0,0,2,0,0,0,0,0,0,0,0,0,0,0,0,0,0,0,0,0,0,0,0,0,0,0,0,0,0,0,0,0,0,0,0,0,0,0,0,0,0,0,0,0,0,0,0,0,0,0,0,0,0,0,0,0,0],"split_type":[0,0,0,0,0,0,0,0,0,0,0,0,0,0,0,0,0,0,0,0,0,0,0,0,0,0,0,0,0,0,0,0,0,0,0,0,0,0,0,0,0,0,0,0,0,0,0,0,0,0,0,0,0,0,0,0,0,0,0,0,0,0,0,0,0,0,0,0,0,0,0,0,0,0,0,0,0,0,0,0,0,0,0,0,0,0,0,0,0,0,0,0,0,0,0,0,0,0,0,0,0,0,0,0,0,0,0,0,0,0,0,0,0,0,0],"sum_hessian":[7.643E3,7.266E3,3.77E2,5.649E3,1.617E3,2.78E2,9.9E1,4.757E3,8.92E2,1.111E3,5.06E2,1.01E2,1.77E2,6.7E1,3.2E1,3.741E3,1.016E3,6.97E2,1.95E2,8.37E2,2.74E2,4.28E2,7.8E1,4E1,6.1E1,1.38E2,3.9E1,5E1,1.7E1,1.3E1,1.9E1,2.247E3,1.494E3,6.63E2,3.53E2,4.42E2,2.55E2,1E1,1.85E2,5.7E2,2.67E2,2.66E2,8E0,2.81E2,1.47E2,7E1,8E0,2.9E1,1.1E1,3E0,5.8E1,7.9E1,5.9E1,2.7E1,1.2E1,3.5E1,1.5E1,1.4E1,3E0,1E0,1.2E1,1.192E3,1.055E3,5.37E2,9.57E2,1.22E2,5.41E2,2.09E2,1.44E2,3.12E2,1.3E2,2.51E2,4E0,2E0,8E0,2.3E1,1.62E2,3.28E2,2.42E2,2.23E2,4.4E1,2.64E2,2E0,3E0,5E0,2.64E2,1.7E1,1.14E2,3.3E1,5.1E1,1.9E1,2E0,6E0,2.4E1,5E0,8E0,3E0,2E0,1E0,2.1E1,3.7E1,6.3E1,1.6E1,3E0,5.6E1,9E0,1.8E1,4E0,8E0,3.4E1,1E0,2E0,1.3E1,2E0,1E1],"tree_param":{"num_deleted":"0","num_feature":"21","num_nodes":"115","size_leaf_vector":"1"}},{"base_weights":[3.6174425E5,-1.3175167E7,2.6060611E8,-2.669045E7,4.1250252E7,1.828282E8,4.7500045E8,-3.1048742E7,1.4155933E7,1.3531092E7,8.705105E7,1.6097538E8,3.464741E8,3.7816973E8,6.6013645E8,-3.5874388E7,-1.7221708E7,-3.0804298E6,2.748713E7,5.8328795E6,6.270136E7,7.1230344E7,1.673096E8,9.650575E7,2.168994E8,6.743723E7,3.7301456E8,3.2384752E8,3.1510838E7,4.1842912E8,7.9632474E8,-3.8721464E7,-2.7480828E7,-2.6061884E7,-6.617084E6,8.7580904E7,-8.928876E6,1.535372E7,4.4822468E7,-5.3177525E6,3.914123E7,3.6960164E7,1.3394348E8,5.5802644E7,1.0371123E8,1.3274291E8,2.504906E8,2.6728312E8,7.9799464E7,1.491737E8,2.3707989E8,-2.0189444E6,5.8417785E6,2.9187434E8,4.7925546E8,1.4299224E8,3.4586704E8,1.0452082E7,4.56531E8,8.5604435E8,2.2297848E7,-2.0250364E6,-1.7206974E6,-1.575238E6,-1.1046032E6,-1.7869532E6,-1.109103E6,-7.5423494E5,2.7977944E5,1.1142539E6,9.090523E6,-1.0399526E6,1.3575923E5,2.254754E5,1.699535E6,2.5534158E6,1.5611448E5,-6.1427194E5,1.2140092E6,1.1751562E6,4.977114E6,1.1193346E6,5.7757605E6,3.67797E6,1.4004253E7,1.993083E6,4.3650665E6,9.881815E6,4.612612E6,8.537198E6,3.4587138E6,7.1801505E6,1.8673726E7,-1.289249E6,1.5135562E7,9.026457E5,5.11187E6,8.909883E6,3.7463008E6,2.1845682E6,1.2130527E7,6.577738E6,1.6292795E7,2.521388E7,5.7258475E6,1.2281449E6,7.8200875E6,1.4381152E7,2.555957E7,9.340563E6,2.4785598E7,4.4038412E7,1.2129683E7],"categories":[],"categories_nodes":[],"categories_segments":[],"categories_sizes":[],"default_left":[0,0,0,0,0,0,0,0,0,0,0,0,0,0,0,0,0,0,0,0,0,0,0,0,0,0,0,0,0,0,0,0,0,0,0,0,0,0,0,0,0,0,0,0,0,0,0,0,0,0,0,0,0,0,0,0,0,0,0,0,0,0,0,0,0,0,0,0,0,0,0,0,0,0,0,0,0,0,0,0,0,0,0,0,0,0,0,0,0,0,0,0,0,0,0,0,0,0,0,0,0,0,0,0,0,0,0,0,0,0,0,0,0],"id":7,"left_children":[1,3,5,7,9,11,13,15,17,19,21,23,25,27,29,31,33,35,37,39,41,43,45,47,49,51,53,55,-1,57,59,61,63,65,67,69,71,73,75,77,79,81,83,85,87,89,91,93,95,97,99,-1,-1,101,103,105,107,-1,109,111,-1,-1,-1,-1,-1,-1,-1,-1,-1,-1,-1,-1,-1,-1,-1,-1,-1,-1,-1,-1,-1,-1,-1,-1,-1,-1,-1,-1,-1,-1,-1,-1,-1,-1,-1,-1,-1,-1,-1,-1,-1,-1,-1,-1,-1,-1,-1,-1,-1,-1,-1,-1,-1],"loss_changes":[2.6932518E19,5.346524E18,6.2163617E18,1.0368752E18,1.8346052E18,9.419637E17,1.5430414E18,3.504193E17,1.2922179E17,3.4106222E17,6.800941E17,8.732074E17,2.1182944E17,7.269443E17,7.530797E17,9.211049E16,1.2760437E17,1.3121806E17,6.5988548E16,2.902787E17,2.1878E17,2.2321763E17,2.2265028E17,3.124786E17,1.4504373E17,2.602144E16,1.1010949E17,1.8152002E17,0E0,1.6259028E16,3.671709E16,2.0901166E16,2.0792864E16,2.7103718E16,6.4303383E16,8.824031E16,3.212283E16,3.7842154E16,3.3699413E16,1.2114856E17,1.8279384E17,1.0159256E17,2.617851E17,1.5318155E17,1.3890543E17,1.4520762E17,2.7500435E17,1.11633965E17,1.4778446E17,5.776202E16,9.635625E16,0E0,0E0,6.0642327E16,4.2643734E16,8.86294E15,3.4405643E17,0E0,2.36417E16,2.9000719E16,0E0,0E0,0E0,0E0,0E0,0E0,0E0,0E0,0E0,0E0,0E0,0E0,0E0,0E0,0E0,0E0,0E0,0E0,0E0,0E0,0E0,0E0,0E0,0E0,0E0,0E0,0E0,0E0,0E0,0E0,0E0,0E0,0E0,0E0,0E0,0E0,0E0,0E0,0E0,0E0,0E0,0E0,0E0,0E0,0E0,0E0,0E0,0E0,0E0,0E0,0E0,0E0,0E0],"parents":[2147483647,0,0,1,1,2,2,3,3,4,4,5,5,6,6,7,7,8,8,9,9,10,10,11,11,12,12,13,13,14,14,15,15,16,16,17,17,18,18,19,19,20,20,21,21,22,22,23,23,24,24,25,25,26,26,27,27,29,29,30,30,31,31,32,32,33,33,34,34,35,35,36,36,37,37,38,38,39,39,40,40,41,41,42,42,43,43,44,44,45,45,46,46,47,47,48,48,49,49,50,50,53,53,54,54,55,55,56,56,58,58,59,59],"right_children":[2,4,6,8,10,12,14,16,18,20,22,24,26,28,30,32,34,36,38,40,42,44,46,48,50,52,54,56,-1,58,60,62,64,66,68,70,72,74,76,78,80,82,84,86,88,90,92,94,96,98,100,-1,-1,102,104,106,108,-1,110,112,-1,-1,-1,-1,-1,-1,-1,-1,-1,-1,-1,-1,-1,-1,-1,-1,-1,-1,-1,-1,-1,-1,-1,-1,-1,-1,-1,-1,-1,-1,-1,-1,-1,-1,-1,-1,-1,-1,-1,-1,-1,-1,-1,-1,-1,-1,-1,-1,-1,-1,-1,-1,-1],"split_conditions":[9E7,2.1011E1,5.2734E1,3.7E7,3.235E7,1.8E8,1.8E8,1.4158E1,1.4972E1,4.1522E1,4.2954E1,2.9061E1,1.5562975E7,3.8325715E8,1.37E2,1.09E7,1.4E7,5.581E0,7.6565304E7,5.0772584E7,4.8138336E7,6.1E7,1.5236883E8,1.0222E1,1.02E8,9.7E1,1.41E2,4E0,3.1510838E7,2E8,3.8325715E8,9.304E0,1E0,3E6,1E0,1E0,6.3864024E7,1E0,1E0,2.2E7,1.24E2,1E0,1E0,2.986E1,1.997E3,8E0,6.6E7,1.54E7,1.8737E1,1E0,1.998E3,-2.0189444E6,5.8417785E6,6.3864024E7,4.9405504E8,9.6E1,2.5011403E8,1.0452082E7,5.5481E1,1E0,2.2297848E7,-2.0250364E6,-1.7206974E6,-1.575238E6,-1.1046032E6,-1.7869532E6,-1.109103E6,-7.5423494E5,2.7977944E5,1.1142539E6,9.090523E6,-1.0399526E6,1.3575923E5,2.254754E5,1.699535E6,2.5534158E6,1.5611448E5,-6.1427194E5,1.2140092E6,1.1751562E6,4.977114E6,1.1193346E6,5.7757605E6,3.67797E6,1.4004253E7,1.993083E6,4.3650665E6,9.881815E6,4.612612E6,8.537198E6,3.4587138E6,7.1801505E6,1.8673726E7,-1.289249E6,1.5135562E7,9.026457E5,5.11187E6,8.909883E6,3.7463008E6,2.1845682E6,1.2130527E7,6.577738E6,1.6292795E7,2.521388E7,5.7258475E6,1.2281449E6,7.8200875E6,1.4381152E7,2.555957E7,9.340563E6,2.4785598E7,4.4038412E7,1.2129683E7],"split_indices":[1,2,2,1,1,1,1,2,2,2,2,2,6,6,0,1,1,2,5,6,5,1,6,2,1,0,0,4,0,1,6,2,10,1,10,18,6,10,18,1,0,13,14,2,3,4,1,5,2,19,3,0,0,6,6,0,5,0,2,17,0,0,0,0,0,0,0,0,0,0,0,0,0,0,0,0,0,0,0,0,0,0,0,0,0,0,0,0,0,0,0,0,0,0,0,0,0,0,0,0,0,0,0,0,0,0,0,0,0,0,0,0,0],"split_type":[0,0,0,0,0,0,0,0,0,0,0,0,0,0,0,0,0,0,0,0,0,0,0,0,0,0,0,0,0,0,0,0,0,0,0,0,0,0,0,0,0,0,0,0,0,0,0,0,0,0,0,0,0,0,0,0,0,0,0,0,0,0,0,0,0,0,0,0,0,0,0,0,0,0,0,0,0,0,0,0,0,0,0,0,0,0,0,0,0,0,0,0,0,0,0,0,0,0,0,0,0,0,0,0,0,0,0,0,0,0,0,0,0],"sum_hessian":[7.643E3,7.266E3,3.77E2,5.821E3,1.445E3,2.78E2,9.9E1,5.26E3,5.61E2,9.01E2,5.44E2,2.47E2,3.1E1,6.7E1,3.2E1,3.898E3,1.362E3,2.45E2,3.16E2,7.8E2,1.21E2,4.56E2,8.8E1,1.16E2,1.31E2,3E0,2.8E1,5.7E1,1E1,1.3E1,1.9E1,2.908E3,9.9E2,7.42E2,6.2E2,1.4E1,2.31E2,1.87E2,1.29E2,5.85E2,1.95E2,9E1,3.1E1,3.11E2,1.45E2,6.4E1,2.4E1,9E0,1.07E2,3.2E1,9.9E1,1E0,2E0,1.8E1,1E1,7E0,5E1,3E0,1E1,1.5E1,4E0,2.052E3,8.56E2,5.64E2,4.26E2,2.1E2,5.32E2,3.66E2,2.54E2,9E0,5E0,1.14E2,1.17E2,1.19E2,6.8E1,1.12E2,1.7E1,4.74E2,1.11E2,1.56E2,3.9E1,7.7E1,1.3E1,2.3E1,8E0,2.08E2,1.03E2,1.4E1,1.31E2,3.9E1,2.5E1,1.4E1,1E1,1E0,8E0,2.9E1,7.8E1,2.2E1,1E1,3E0,9.6E1,4E0,1.4E1,9E0,1E0,1E0,6E0,3.9E1,1.1E1,2E0,8E0,1.4E1,1E0],"tree_param":{"num_deleted":"0","num_feature":"21","num_nodes":"113","size_leaf_vector":"1"}},{"base_weights":[3.9627072E5,-1.250345E7,2.4839064E8,-2.6308806E7,3.5712104E7,1.740612E8,4.5328586E8,-3.0036766E7,1.1322088E7,6.8611935E6,7.27848E7,1.5311544E8,3.3095142E8,3.6044506E8,6.3085824E8,-3.635252E7,-2.150298E7,-2.8886018E6,2.4471174E7,-3.5600566E5,5.8351356E7,4.592481E7,1.1202567E8,9.1850216E7,2.0625875E8,2.613811E8,4.7969994E8,3.0849978E8,3.0078528E7,4.0069184E8,7.604318E8,-3.8613464E7,-3.199752E7,-2.5711672E7,-9.155152E6,8.388218E7,-8.48633E6,1.2474037E7,3.9540424E7,-8.269271E6,2.8800212E7,2.0515628E7,1.10240856E8,4.108214E7,1.4647805E8,9.3984136E7,2.0450451E8,2.5530358E8,7.5865176E7,1.7077482E8,2.4599325E8,2.7616893E8,-1.9684709E6,5.117489E8,5.5827015E6,2.552588E8,4.0434925E8,1.0060128E7,4.3680685E8,6.312053E8,5.1093508E7,-2.0006226E6,-1.8294382E6,-1.6807412E6,-1.2799808E6,-1.7253929E6,-1.1418616E6,-9.068257E5,1.5430023E5,1.0641125E6,8.711751E6,-5.829165E5,1.6157959E6,-5.710217E5,1.2892369E6,-1.9032596E6,2.1312192E6,-9.1016E5,1.6459661E5,5.911858E5,5.9451805E6,-9.44222E5,2.1014628E6,3.5783405E6,1.1515221E7,1.3711211E6,3.0250682E6,5.0010005E6,1.8045712E7,4.0231068E6,9.342876E6,7.682908E6,1.6788218E7,-1.2570179E6,1.4462871E7,1.9863539E6,5.6308705E6,5.780718E6,1.0126383E7,1.0054053E7,1.836622E7,8.63076E5,1.4357642E7,7.2630075E6,2.7167652E7,1.3122818E7,-6.3613144E5,-1.7314904E6,2.1533044E7,9.029211E6,2.3684014E7,4.173495E7,2.4690792E7],"categories":[],"categories_nodes":[],"categories_segments":[],"categories_sizes":[],"default_left":[0,0,0,0,0,0,0,0,0,0,0,0,0,0,0,0,0,0,0,0,0,0,0,0,0,0,0,0,0,0,0,0,0,0,0,0,0,0,0,0,0,0,0,0,0,0,0,0,0,0,0,0,0,0,0,0,0,0,0,0,0,0,0,0,0,0,0,0,0,0,0,0,0,0,0,0,0,0,0,0,0,0,0,0,0,0,0,0,0,0,0,0,0,0,0,0,0,0,0,0,0,0,0,0,0,0,0,0,0,0,0,0,0],"id":8,"left_children":[1,3,5,7,9,11,13,15,17,19,21,23,25,27,29,31,33,35,37,39,41,43,45,47,49,51,53,55,-1,57,59,61,63,65,67,69,71,73,75,77,79,81,83,85,87,89,91,93,95,97,99,101,-1,103,-1,105,107,-1,109,111,-1,-1,-1,-1,-1,-1,-1,-1,-1,-1,-1,-1,-1,-1,-1,-1,-1,-1,-1,-1,-1,-1,-1,-1,-1,-1,-1,-1,-1,-1,-1,-1,-1,-1,-1,-1,-1,-1,-1,-1,-1,-1,-1,-1,-1,-1,-1,-1,-1,-1,-1,-1,-1],"loss_changes":[2.4456703E19,4.8380936E18,5.677946E18,7.92959E17,1.7300826E18,8.661722E17,1.4212067E18,2.7630397E17,9.536805E16,3.3856183E17,7.410939E17,7.885027E17,2.05767E17,6.66138E17,6.794762E17,2.7841009E16,1.1352306E17,1.201988E17,4.7415563E16,1.8481487E17,2.1762537E17,1.9947333E17,4.596283E17,2.8632973E17,1.4410199E17,1.1761146E17,4.9020626E16,1.9276693E17,0E0,1.2977123E16,3.068517E16,4.0283357E15,9.64203E15,4.0475497E16,6.140375E16,8.113309E16,3.0403283E16,4.7684243E16,2.9624434E16,7.2414265E16,2.6016254E17,5.6737824E16,2.017551E17,1.0550639E17,1.5318475E17,2.8887675E17,2.5541504E17,1.0249352E17,1.3896686E17,1.044444E17,2.53093E17,6.045101E16,0E0,1.37329E16,0E0,8.04914E16,2.3436833E17,0E0,1.8386858E16,3.5138742E16,0E0,0E0,0E0,0E0,0E0,0E0,0E0,0E0,0E0,0E0,0E0,0E0,0E0,0E0,0E0,0E0,0E0,0E0,0E0,0E0,0E0,0E0,0E0,0E0,0E0,0E0,0E0,0E0,0E0,0E0,0E0,0E0,0E0,0E0,0E0,0E0,0E0,0E0,0E0,0E0,0E0,0E0,0E0,0E0,0E0,0E0,0E0,0E0,0E0,0E0,0E0,0E0,0E0],"parents":[2147483647,0,0,1,1,2,2,3,3,4,4,5,5,6,6,7,7,8,8,9,9,10,10,11,11,12,12,13,13,14,14,15,15,16,16,17,17,18,18,19,19,20,20,21,21,22,22,23,23,24,24,25,25,26,26,27,27,29,29,30,30,31,31,32,32,33,33,34,34,35,35,36,36,37,37,38,38,39,39,40,40,41,41,42,42,43,43,44,44,45,45,46,46,47,47,48,48,49,49,50,50,51,51,53,53,55,55,56,56,58,58,59,59],"right_children":[2,4,6,8,10,12,14,16,18,20,22,24,26,28,30,32,34,36,38,40,42,44,46,48,50,52,54,56,-1,58,60,62,64,66,68,70,72,74,76,78,80,82,84,86,88,90,92,94,96,98,100,102,-1,104,-1,106,108,-1,110,112,-1,-1,-1,-1,-1,-1,-1,-1,-1,-1,-1,-1,-1,-1,-1,-1,-1,-1,-1,-1,-1,-1,-1,-1,-1,-1,-1,-1,-1,-1,-1,-1,-1,-1,-1,-1,-1,-1,-1,-1,-1,-1,-1,-1,-1,-1,-1,-1,-1,-1,-1,-1,-1],"split_conditions":[9E7,2.007E1,5.2734E1,3.7E7,2.9E7,1.8E8,1.8E8,1.1255E1,1.4972E1,4.1522E1,2.9496E1,2.9061E1,2.3551317E8,3.8325715E8,1.37E2,5.4E6,2.8356188E7,5.581E0,1E0,5.0772584E7,1.6704697E7,2.8457885E8,7.5E7,1.0222E1,3.7406E1,1E0,3.5998E1,1E0,3.0078528E7,2E8,1E0,1.653E6,2.8356188E7,3.3E6,1E0,1E0,8E7,1.08E2,1.994E3,1.09E7,1.23E2,5.4E6,1E0,5.1E7,1E0,5.8646E1,1.5840312E8,1.54E7,2.2546E1,8.16E7,2.8457885E8,3E0,-1.9684709E6,1.05E2,5.5827015E6,1E0,7.9E1,1.0060128E7,5.5481E1,1E0,5.1093508E7,-2.0006226E6,-1.8294382E6,-1.6807412E6,-1.2799808E6,-1.7253929E6,-1.1418616E6,-9.068257E5,1.5430023E5,1.0641125E6,8.711751E6,-5.829165E5,1.6157959E6,-5.710217E5,1.2892369E6,-1.9032596E6,2.1312192E6,-9.1016E5,1.6459661E5,5.911858E5,5.9451805E6,-9.44222E5,2.1014628E6,3.5783405E6,1.1515221E7,1.3711211E6,3.0250682E6,5.0010005E6,1.8045712E7,4.0231068E6,9.342876E6,7.682908E6,1.6788218E7,-1.2570179E6,1.4462871E7,1.9863539E6,5.6308705E6,5.780718E6,1.0126383E7,1.0054053E7,1.836622E7,8.63076E5,1.4357642E7,7.2630075E6,2.7167652E7,1.3122818E7,-6.3613144E5,-1.7314904E6,2.1533044E7,9.029211E6,2.3684014E7,4.173495E7,2.4690792E7],"split_indices":[1,2,2,1,1,1,1,2,2,2,2,2,6,6,0,1,5,2,10,6,5,5,1,2,2,16,2,19,0,1,18,1,5,1,10,18,1,0,3,1,0,1,14,1,18,2,5,5,2,6,5,4,0,0,0,16,0,0,2,14,0,0,0,0,0,0,0,0,0,0,0,0,0,0,0,0,0,0,0,0,0,0,0,0,0,0,0,0,0,0,0,0,0,0,0,0,0,0,0,0,0,0,0,0,0,0,0,0,0,0,0,0,0],"split_type":[0,0,0,0,0,0,0,0,0,0,0,0,0,0,0,0,0,0,0,0,0,0,0,0,0,0,0,0,0,0,0,0,0,0,0,0,0,0,0,0,0,0,0,0,0,0,0,0,0,0,0,0,0,0,0,0,0,0,0,0,0,0,0,0,0,0,0,0,0,0,0,0,0,0,0,0,0,0,0,0,0,0,0,0,0,0,0,0,0,0,0,0,0,0,0,0,0,0,0,0,0,0,0,0,0,0,0,0,0,0,0,0,0],"sum_hessian":[7.643E3,7.266E3,3.77E2,5.649E3,1.617E3,2.78E2,9.9E1,5.14E3,5.09E2,9.1E2,7.07E2,2.47E2,3.1E1,6.7E1,3.2E1,2.952E3,2.188E3,2.45E2,2.64E2,7.99E2,1.11E2,4.21E2,2.86E2,1.16E2,1.31E2,2.3E1,8E0,5.7E1,1E1,1.3E1,1.9E1,1.938E3,1.014E3,1.631E3,5.57E2,1.4E1,2.31E2,1.48E2,1.16E2,6.29E2,1.7E2,6.5E1,4.6E1,4.03E2,1.8E1,2.41E2,4.5E1,9E0,1.07E2,7.2E1,5.9E1,2.2E1,1E0,7E0,1E0,3.9E1,1.8E1,3E0,1E1,1.5E1,4E0,1.135E3,8.03E2,8.06E2,2.08E2,3.99E2,1.232E3,3.21E2,2.36E2,9E0,5E0,2.15E2,1.6E1,5.3E1,9.5E1,4E0,1.12E2,3.38E2,2.91E2,1.44E2,2.6E1,2.3E1,4.2E1,3.6E1,1E1,2.38E2,1.65E2,1.6E1,2E0,2.12E2,2.9E1,3.4E1,1.1E1,1E0,8E0,5.5E1,5.2E1,2.8E1,4.4E1,4.5E1,1.4E1,1E0,2.1E1,1E0,6E0,3.8E1,1E0,1E0,1.7E1,2E0,8E0,4E0,1.1E1],"tree_param":{"num_deleted":"0","num_feature":"21","num_nodes":"113","size_leaf_vector":"1"}},{"base_weights":[4.3267656E5,-1.1866076E7,2.3687342E8,-2.2137458E7,4.6932172E7,1.6578258E8,4.3284816E8,-2.874971E7,7.7375955E6,2.2667668E7,9.819291E7,1.4572238E8,3.160684E8,3.4333997E8,6.041727E8,-3.3023918E7,-1.6657007E7,-7.6951015E6,2.3574178E7,8.590283E6,5.353936E7,8.061026E7,1.5682002E8,8.743568E7,1.9628163E8,2.4886422E8,4.6016086E8,2.7707606E8,5.1201322E8,3.8371248E8,7.282862E8,-3.6204916E7,-2.821863E7,-2.3945654E7,-7.8099845E6,-1.1676359E7,3.8923904E7,1.0840079E7,3.9128636E7,-3.5103918E6,3.6531776E7,4.5487444E7,1.8444542E8,6.0814276E7,1.0781699E8,1.3615914E8,3.0238704E8,2.4385899E8,7.214245E7,1.6245398E8,2.3416725E8,2.6302224E8,-1.919259E6,4.904653E8,5.443134E6,2.4220845E8,4.342135E8,2.7732244E7,1.1207061E7,9.682873E6,4.1794045E8,6.037967E8,4.904977E7,-1.8997056E6,-1.7178012E6,-1.4960546E6,-1.0278543E6,-1.6226745E6,-1.00051594E6,-7.1546325E5,1.20835375E5,-9.3429994E5,-7.412621E4,9.245275E6,5.862015E5,1.03442695E5,1.333684E6,2.9462188E5,2.4260448E6,-4.9515597E5,1.3087556E6,1.3187559E6,6.774449E6,2.0881212E6,1.4926312E7,1.1823167E7,4.144648E5,1.9956122E6,4.0870285E6,1.0659785E7,4.6519795E6,5.3251025E6,1.0322979E7,2.2527988E6,1.8473682E7,-1.2255924E6,1.3820075E7,1.8888099E6,5.3546395E6,5.5016485E6,9.631316E6,9.562279E6,1.750913E7,8.414992E5,1.3672391E7,7.081432E6,2.6003324E7,1.3673747E7,6.1773815E6,1.982854E6,2.424567E7,8.728237E6,2.2631394E7,4.0065556E7,2.3559132E7],"categories":[],"categories_nodes":[],"categories_segments":[],"categories_sizes":[],"default_left":[0,0,0,0,0,0,0,0,0,0,0,0,0,0,0,0,0,0,0,0,0,0,0,0,0,0,0,0,0,0,0,0,0,0,0,0,0,0,0,0,0,0,0,0,0,0,0,0,0,0,0,0,0,0,0,0,0,0,0,0,0,0,0,0,0,0,0,0,0,0,0,0,0,0,0,0,0,0,0,0,0,0,0,0,0,0,0,0,0,0,0,0,0,0,0,0,0,0,0,0,0,0,0,0,0,0,0,0,0,0,0,0,0,0,0],"id":9,"left_children":[1,3,5,7,9,11,13,15,17,19,21,23,25,27,29,31,33,35,37,39,41,43,45,47,49,51,53,55,57,59,61,63,65,67,69,71,73,75,77,79,81,83,85,87,89,91,93,95,97,99,101,103,-1,105,-1,107,109,-1,-1,-1,111,113,-1,-1,-1,-1,-1,-1,-1,-1,-1,-1,-1,-1,-1,-1,-1,-1,-1,-1,-1,-1,-1,-1,-1,-1,-1,-1,-1,-1,-1,-1,-1,-1,-1,-1,-1,-1,-1,-1,-1,-1,-1,-1,-1,-1,-1,-1,-1,-1,-1,-1,-1,-1,-1],"loss_changes":[2.2231E19,4.3898656E18,5.1945415E18,1.2224112E18,1.3423396E18,7.950607E17,1.3260594E18,2.6129509E17,2.7439953E17,3.1896578E17,3.450534E17,7.1367705E17,1.953582E17,6.181663E17,6.2349676E17,5.6176798E16,8.5252696E16,1.06062164E17,1.0930771E17,1.7121238E17,2.340404E17,1.3832227E17,1.9642308E17,2.6229688E17,1.3112776E17,1.07701425E17,4.241971E16,1.7425912E17,9.65855E16,1.0135436E16,3.6871023E16,6.130877E15,1.8884937E16,2.3657986E16,3.991426E16,3.7486225E16,1.765128E17,4.2442132E16,7.744269E16,6.7438262E16,1.502029E17,1.9301397E17,1.1716241E17,6.584714E16,1.5457333E17,1.260399E17,1.38724145E17,9.410967E16,1.2567456E17,9.426608E16,2.3180344E17,5.4431735E16,0E0,8.951399E15,0E0,1.294576E17,1.4080167E17,0E0,0E0,0E0,1.3849861E16,4.1527455E16,0E0,0E0,0E0,0E0,0E0,0E0,0E0,0E0,0E0,0E0,0E0,0E0,0E0,0E0,0E0,0E0,0E0,0E0,0E0,0E0,0E0,0E0,0E0,0E0,0E0,0E0,0E0,0E0,0E0,0E0,0E0,0E0,0E0,0E0,0E0,0E0,0E0,0E0,0E0,0E0,0E0,0E0,0E0,0E0,0E0,0E0,0E0,0E0,0E0,0E0,0E0,0E0,0E0],"parents":[2147483647,0,0,1,1,2,2,3,3,4,4,5,5,6,6,7,7,8,8,9,9,10,10,11,11,12,12,13,13,14,14,15,15,16,16,17,17,18,18,19,19,20,20,21,21,22,22,23,23,24,24,25,25,26,26,27,27,28,28,29,29,30,30,31,31,32,32,33,33,34,34,35,35,36,36,37,37,38,38,39,39,40,40,41,41,42,42,43,43,44,44,45,45,46,46,47,47,48,48,49,49,50,50,51,51,53,53,55,55,56,56,60,60,61,61],"right_children":[2,4,6,8,10,12,14,16,18,20,22,24,26,28,30,32,34,36,38,40,42,44,46,48,50,52,54,56,58,60,62,64,66,68,70,72,74,76,78,80,82,84,86,88,90,92,94,96,98,100,102,104,-1,106,-1,108,110,-1,-1,-1,112,114,-1,-1,-1,-1,-1,-1,-1,-1,-1,-1,-1,-1,-1,-1,-1,-1,-1,-1,-1,-1,-1,-1,-1,-1,-1,-1,-1,-1,-1,-1,-1,-1,-1,-1,-1,-1,-1,-1,-1,-1,-1,-1,-1,-1,-1,-1,-1,-1,-1,-1,-1,-1,-1],"split_conditions":[9E7,2.3655E1,5.2734E1,2.6E7,4E7,1.8E8,1.8E8,1.4247E1,1.6268E1,1.15E2,4.2954E1,2.9061E1,2.3551317E8,2.6696226E8,1.37E2,5.5E6,1.1E7,7.1E7,5.927445E7,2.3E7,1.9636077E8,6.1E7,2.1081962E8,1.0222E1,3.7406E1,1E0,3.5998E1,3.5056595E8,1E0,2E8,1E0,4.962E0,3.2696254E7,2.595182E6,1E0,6.59458E7,7.762E0,1E0,3.2E7,4.1522E1,4.6433E1,4.9405504E8,2.005E3,3.0218E1,1.997E3,1E0,1.5562975E7,1.54E7,2.2546E1,8.16E7,2.8457885E8,3E0,-1.919259E6,1.05E2,5.443134E6,1E0,1.4E8,2.7732244E7,1.1207061E7,9.682873E6,5.5481E1,1E0,4.904977E7,-1.8997056E6,-1.7178012E6,-1.4960546E6,-1.0278543E6,-1.6226745E6,-1.00051594E6,-7.1546325E5,1.20835375E5,-9.3429994E5,-7.412621E4,9.245275E6,5.862015E5,1.03442695E5,1.333684E6,2.9462188E5,2.4260448E6,-4.9515597E5,1.3087556E6,1.3187559E6,6.774449E6,2.0881212E6,1.4926312E7,1.1823167E7,4.144648E5,1.9956122E6,4.0870285E6,1.0659785E7,4.6519795E6,5.3251025E6,1.0322979E7,2.2527988E6,1.8473682E7,-1.2255924E6,1.3820075E7,1.8888099E6,5.3546395E6,5.5016485E6,9.631316E6,9.562279E6,1.750913E7,8.414992E5,1.3672391E7,7.081432E6,2.6003324E7,1.3673747E7,6.1773815E6,1.982854E6,2.424567E7,8.728237E6,2.2631394E7,4.0065556E7,2.3559132E7],"split_indices":[1,2,2,1,1,1,1,2,2,0,2,2,6,6,0,1,1,1,5,1,5,1,5,2,2,16,2,5,9,1,18,2,5,1,10,6,2,10,6,2,2,6,3,2,3,14,6,5,2,6,5,4,0,0,0,18,1,0,0,0,2,14,0,0,0,0,0,0,0,0,0,0,0,0,0,0,0,0,0,0,0,0,0,0,0,0,0,0,0,0,0,0,0,0,0,0,0,0,0,0,0,0,0,0,0,0,0,0,0,0,0,0,0,0,0],"split_type":[0,0,0,0,0,0,0,0,0,0,0,0,0,0,0,0,0,0,0,0,0,0,0,0,0,0,0,0,0,0,0,0,0,0,0,0,0,0,0,0,0,0,0,0,0,0,0,0,0,0,0,0,0,0,0,0,0,0,0,0,0,0,0,0,0,0,0,0,0,0,0,0,0,0,0,0,0,0,0,0,0,0,0,0,0,0,0,0,0,0,0,0,0,0,0,0,0,0,0,0,0,0,0,0,0,0,0,0,0,0,0,0,0,0,0],"sum_hessian":[7.643E3,7.266E3,3.77E2,6.186E3,1.08E3,2.78E2,9.9E1,5.065E3,1.121E3,7.34E2,3.46E2,2.47E2,3.1E1,6.7E1,3.2E1,3.741E3,1.324E3,5.68E2,5.53E2,5.05E2,2.29E2,2.68E2,7.8E1,1.16E2,1.31E2,2.3E1,8E0,5E1,1.7E1,1.3E1,1.9E1,2.247E3,1.494E3,7.25E2,5.99E2,5.24E2,4.4E1,3.05E2,2.48E2,3.53E2,1.52E2,2.17E2,1.2E1,1.57E2,1.11E2,7E1,8E0,9E0,1.07E2,7.2E1,5.9E1,2.2E1,1E0,7E0,1E0,4.3E1,7E0,1.4E1,3E0,3E0,1E1,1.5E1,4E0,1.132E3,1.115E3,1.22E3,2.74E2,2.27E2,4.98E2,3.66E2,2.33E2,3.1E2,2.14E2,6E0,3.8E1,1.97E2,1.08E2,5.5E1,1.93E2,2.91E2,6.2E1,1.39E2,1.3E1,2.15E2,2E0,9E0,3E0,8E1,7.7E1,1.2E1,9.9E1,5.1E1,1.9E1,2E0,6E0,1E0,8E0,5.5E1,5.2E1,2.8E1,4.4E1,4.5E1,1.4E1,1E0,2.1E1,1E0,6E0,3.3E1,1E1,1E0,6E0,2E0,8E0,4E0,1.1E1],"tree_param":{"num_deleted":"0","num_feature":"21","num_nodes":"115","size_leaf_vector":"1"}},{"base_weights":[4.701021E5,-9.451074E6,2.6736251E8,-2.124352E7,4.7704424E7,2.1135914E8,5.080957E8,-2.6646928E7,1.1824404E7,2.5036958E7,1.1867184E8,1.8296544E8,3.300422E8,4.42627E8,8.5638106E8,-3.1097232E7,-1.477328E7,-4.340713E6,2.5921108E7,-2.7119948E6,4.0542828E7,9.346576E7,2.0514794E8,1.0847379E8,2.2505566E8,2.6803899E8,4.4773866E8,4.7893347E8,1.771157E8,6.7095612E7,1.968931E7,-3.4392296E7,-2.640398E7,-1.9671552E7,-6.85582E5,1.0539566E8,-6.8427145E6,2.175679E7,7.5747224E7,-7.3653675E6,1.1633659E8,1.8072274E7,6.020942E7,1.5420853E8,8.362405E7,1.6102117E8,3.794519E8,2.702508E8,8.239934E7,5.432812E8,2.1179941E8,1.9508762E8,3.94433E8,4.6736003E8,5.3070555E6,1.9332829E6,4.8950192E8,1.1327398E7,1.7845019E6,-1.8048042E6,-1.6310314E6,-1.5969595E6,-1.1935785E6,-1.1535834E6,-4.3970225E5,-4.5185066E5,6.0509425E5,8.855521E6,-1.4262694E6,-8.58346E5,2.4887678E5,5.8926444E5,1.8395909E6,2.9565158E6,6.6883835E6,-4.4824675E5,8.552111E6,1.7657282E6,1.4490376E7,2.2911748E5,1.9614906E6,1.6506321E6,4.1677725E6,5.4337995E6,1.5064983E7,3.2926815E6,5.8014475E6,8.711695E6,-4.2978106E5,1.0188283E7,2.3189256E7,8.2317995E6,1.8055518E7,2.861307E6,7.4024505E6,8.413097E6,3.0610016E7,8.2218715E6,1.2405312E7,1.0429227E7,-1.8712776E6,5.2179655E6,2.0753396E7,6.904396E6,2.4237022E7,1.736666E7,2.6727918E7],"categories":[],"categories_nodes":[],"categories_segments":[],"categories_sizes":[],"default_left":[0,0,0,0,0,0,0,0,0,0,0,0,0,0,0,0,0,0,0,0,0,0,0,0,0,0,0,0,0,0,0,0,0,0,0,0,0,0,0,0,0,0,0,0,0,0,0,0,0,0,0,0,0,0,0,0,0,0,0,0,0,0,0,0,0,0,0,0,0,0,0,0,0,0,0,0,0,0,0,0,0,0,0,0,0,0,0,0,0,0,0,0,0,0,0,0,0,0,0,0,0,0,0,0,0,0,0],"id":10,"left_children":[1,3,5,7,9,11,13,15,17,19,21,23,25,27,29,31,33,35,37,39,41,43,45,47,49,51,53,55,57,-1,-1,59,61,63,65,67,69,71,73,75,77,79,81,83,85,87,89,91,93,95,97,99,101,103,-1,-1,105,-1,-1,-1,-1,-1,-1,-1,-1,-1,-1,-1,-1,-1,-1,-1,-1,-1,-1,-1,-1,-1,-1,-1,-1,-1,-1,-1,-1,-1,-1,-1,-1,-1,-1,-1,-1,-1,-1,-1,-1,-1,-1,-1,-1,-1,-1,-1,-1,-1,-1],"loss_changes":[2.0242974E19,4.96909E18,3.586642E18,1.09222516E18,2.0255379E18,6.9446034E17,7.8383304E17,2.7711651E17,1.9585704E17,4.1187987E17,6.456415E17,5.4936054E17,1.8648624E17,3.489641E17,1.0438032E18,5.816664E16,9.894024E16,1.1082E17,9.3590705E16,1.914251E17,2.7025027E17,1.2938393E17,4.6192023E17,2.6457232E17,3.742765E17,1.9966952E17,3.7527706E16,1.625386E17,4.085141E16,0E0,0E0,5.5871683E15,2.1385089E16,3.91489E16,3.972981E16,9.148919E16,4.8045085E16,6.328318E16,2.5834486E16,9.62779E16,1.7248011E17,8.2019376E16,2.0309395E17,1.8157376E17,1.1155961E17,1.269995E17,9.810695E16,2.6913296E16,9.068449E16,3.739714E14,1.5351271E17,7.370892E16,1.6540366E16,1.7375032E15,0E0,0E0,5.7743052E16,0E0,0E0,0E0,0E0,0E0,0E0,0E0,0E0,0E0,0E0,0E0,0E0,0E0,0E0,0E0,0E0,0E0,0E0,0E0,0E0,0E0,0E0,0E0,0E0,0E0,0E0,0E0,0E0,0E0,0E0,0E0,0E0,0E0,0E0,0E0,0E0,0E0,0E0,0E0,0E0,0E0,0E0,0E0,0E0,0E0,0E0,0E0,0E0,0E0,0E0],"parents":[2147483647,0,0,1,1,2,2,3,3,4,4,5,5,6,6,7,7,8,8,9,9,10,10,11,11,12,12,13,13,14,14,15,15,16,16,17,17,18,18,19,19,20,20,21,21,22,22,23,23,24,24,25,25,26,26,27,27,28,28,31,31,32,32,33,33,34,34,35,35,36,36,37,37,38,38,39,39,40,40,41,41,42,42,43,43,44,44,45,45,46,46,47,47,48,48,49,49,50,50,51,51,52,52,53,53,56,56],"right_children":[2,4,6,8,10,12,14,16,18,20,22,24,26,28,30,32,34,36,38,40,42,44,46,48,50,52,54,56,58,-1,-1,60,62,64,66,68,70,72,74,76,78,80,82,84,86,88,90,92,94,96,98,100,102,104,-1,-1,106,-1,-1,-1,-1,-1,-1,-1,-1,-1,-1,-1,-1,-1,-1,-1,-1,-1,-1,-1,-1,-1,-1,-1,-1,-1,-1,-1,-1,-1,-1,-1,-1,-1,-1,-1,-1,-1,-1,-1,-1,-1,-1,-1,-1,-1,-1,-1,-1,-1,-1],"split_conditions":[1.02E8,2.2704E1,6.2104E1,3.1E7,5.1E7,1.8E8,1.62E2,1.4158E1,1.5851E1,1.3E7,4.4769E1,2.9496E1,2.3551317E8,1E0,7.528329E7,5.5E6,2.8356188E7,2.351E0,2.1081962E8,8.3952E1,2.9496E1,1.997E3,1.9379229E8,1.1507E1,6.892E6,4.6433E1,4.9405504E8,4E0,8E0,6.7095612E7,1.968931E7,4.962E0,8.318E0,1.8E7,1E0,2.013E3,6.3864024E7,1E0,1E0,2.2326189E8,1.1E2,1.12E2,3.2E7,1.6418622E8,1E0,9.841E1,1E0,1.13166E8,2.7093E1,6E0,1.0448394E8,1E0,6.35096E5,1.05E2,5.3070555E6,1.9332829E6,1.5562975E7,1.1327398E7,1.7845019E6,-1.8048042E6,-1.6310314E6,-1.5969595E6,-1.1935785E6,-1.1535834E6,-4.3970225E5,-4.5185066E5,6.0509425E5,8.855521E6,-1.4262694E6,-8.58346E5,2.4887678E5,5.8926444E5,1.8395909E6,2.9565158E6,6.6883835E6,-4.4824675E5,8.552111E6,1.7657282E6,1.4490376E7,2.2911748E5,1.9614906E6,1.6506321E6,4.1677725E6,5.4337995E6,1.5064983E7,3.2926815E6,5.8014475E6,8.711695E6,-4.2978106E5,1.0188283E7,2.3189256E7,8.2317995E6,1.8055518E7,2.861307E6,7.4024505E6,8.413097E6,3.0610016E7,8.2218715E6,1.2405312E7,1.0429227E7,-1.8712776E6,5.2179655E6,2.0753396E7,6.904396E6,2.4237022E7,1.736666E7,2.6727918E7],"split_indices":[1,2,2,1,1,1,0,2,2,1,2,2,6,9,6,1,5,2,5,2,2,3,6,2,5,2,6,4,4,0,0,2,2,1,10,3,6,10,20,5,0,0,6,5,10,2,14,5,2,4,6,16,6,0,0,0,6,0,0,0,0,0,0,0,0,0,0,0,0,0,0,0,0,0,0,0,0,0,0,0,0,0,0,0,0,0,0,0,0,0,0,0,0,0,0,0,0,0,0,0,0,0,0,0,0,0,0],"split_type":[0,0,0,0,0,0,0,0,0,0,0,0,0,0,0,0,0,0,0,0,0,0,0,0,0,0,0,0,0,0,0,0,0,0,0,0,0,0,0,0,0,0,0,0,0,0,0,0,0,0,0,0,0,0,0,0,0,0,0,0,0,0,0,0,0,0,0,0,0,0,0,0,0,0,0,0,0,0,0,0,0,0,0,0,0,0,0,0,0,0,0,0,0,0,0,0,0,0,0,0,0,0,0,0,0,0,0],"sum_hessian":[7.643E3,7.37E3,2.73E2,6.11E3,1.26E3,2.23E2,5E1,5.252E3,8.58E2,9.56E2,3.04E2,1.82E2,4.1E1,4.4E1,6E0,3.819E3,1.433E3,4E2,4.58E2,3.43E2,6.13E2,2.37E2,6.7E1,6.7E1,1.15E2,2.9E1,1.2E1,3.8E1,6E0,2E0,4E0,2.24E3,1.579E3,1.063E3,3.7E2,8E0,3.92E2,4.24E2,3.4E1,3.31E2,1.2E1,2.87E2,3.26E2,3.1E1,2.06E2,5.5E1,1.2E1,8E0,5.9E1,3E0,1.12E2,2E1,9E0,1.1E1,1E0,1E0,3.7E1,4E0,2E0,1.132E3,1.108E3,4.92E2,1.087E3,8.09E2,2.54E2,2.24E2,1.46E2,5E0,3E0,2.09E2,1.83E2,2.56E2,1.68E2,2.8E1,6E0,3.29E2,2E0,9E0,3E0,1.76E2,1.11E2,1.51E2,1.75E2,2.5E1,6E0,1.35E2,7.1E1,5.1E1,4E0,5E0,7E0,5E0,3E0,4.4E1,1.5E1,1E0,2E0,5.1E1,6.1E1,1.9E1,1E0,1E0,8E0,1E0,1E1,1.1E1,2.6E1],"tree_param":{"num_deleted":"0","num_feature":"21","num_nodes":"107","size_leaf_vector":"1"}},{"base_weights":[5.0258288E5,-1.0695906E7,2.1579072E8,-2.2621874E7,3.0955776E7,1.505555E8,3.9563904E8,-2.5838874E7,9.851103E6,5.9317545E6,6.311104E7,1.3210307E8,2.8885702E8,3.1279552E8,5.543578E8,-3.0745184E7,-1.774102E7,7.761928E6,8.331316E7,-4.708538E5,5.1611708E7,3.9721624E7,9.728255E7,7.960149E7,1.7763778E8,2.2617312E8,4.2391885E8,2.6650147E8,2.642277E7,3.477542E8,6.712625E8,-3.2172916E7,-2.3746334E7,-2.1638446E7,-6.985091E6,-5.0005285E6,1.9603896E7,1.1252733E7,5.509807E7,-7.6340175E6,2.5922502E7,1.6451897E7,9.9886936E7,3.5239692E7,1.32931E8,8.0900984E7,1.8134901E8,2.234164E8,6.5548244E7,1.4571843E8,2.1351237E8,2.3917976E8,-1.8244956E6,4.510368E8,5.1743795E6,2.18314E8,3.5392243E8,8.735706E6,3.7906387E8,8.832162E8,2.708651E7,-1.7063069E6,-1.5033549E6,1.0892479E6,-1.2318221E6,-1.4621488E6,-9.58174E5,-7.702017E5,2.1547762E5,2.0072496E6,-4.985269E5,5.945727E5,2.1896682E6,3.7745428E6,-4.8292066E5,-6.124393E5,6.9093256E5,5.16541E5,5.434776E6,-9.681437E5,1.8029469E6,3.2042868E6,1.0561427E7,1.1182406E6,2.5979798E6,4.4525795E6,1.6863534E7,3.4252512E6,8.3107775E6,7.2013865E6,1.7031082E7,-1.1734939E6,1.2672799E7,5.9232356E5,4.25558E6,4.9238805E6,8.646217E6,8.647965E6,1.6182048E7,9.933839E6,1.9094986E7,1.1703475E7,2.6720164E7,2.5516942E6,1.1524898E7,1.5419384E6,1.950591E7,7.6874555E6,2.0602528E7,1.7596896E7,6.4859092E7],"categories":[],"categories_nodes":[],"categories_segments":[],"categories_sizes":[],"default_left":[0,0,0,0,0,0,0,0,0,0,0,0,0,0,0,0,0,0,0,0,0,0,0,0,0,0,0,0,0,0,0,0,0,0,0,0,0,0,0,0,0,0,0,0,0,0,0,0,0,0,0,0,0,0,0,0,0,0,0,0,0,0,0,0,0,0,0,0,0,0,0,0,0,0,0,0,0,0,0,0,0,0,0,0,0,0,0,0,0,0,0,0,0,0,0,0,0,0,0,0,0,0,0,0,0,0,0,0,0,0,0],"id":11,"left_children":[1,3,5,7,9,11,13,15,17,19,21,23,25,27,29,31,33,35,37,39,41,43,45,47,49,51,53,55,-1,57,59,61,63,65,67,69,71,-1,73,75,77,79,81,83,85,87,89,91,93,95,97,99,-1,101,-1,103,105,-1,107,109,-1,-1,-1,-1,-1,-1,-1,-1,-1,-1,-1,-1,-1,-1,-1,-1,-1,-1,-1,-1,-1,-1,-1,-1,-1,-1,-1,-1,-1,-1,-1,-1,-1,-1,-1,-1,-1,-1,-1,-1,-1,-1,-1,-1,-1,-1,-1,-1,-1,-1,-1],"loss_changes":[1.8431239E19,3.6104856E18,4.3752987E18,5.90485E17,1.3015557E18,6.738489E17,1.1414811E18,2.0370954E17,7.762562E16,2.6646525E17,5.6200602E17,5.787395E17,1.7503923E17,5.3806196E17,5.6361296E17,3.1211837E16,8.125838E16,7.521093E16,4.35894E16,1.5144584E17,1.8845963E17,1.7160944E17,3.805682E17,2.2182015E17,1.2003946E17,9.072029E16,3.152822E16,1.670642E17,0E0,9.621826E15,7.0632077E16,9.89423E15,2.2664852E16,2.625943E16,4.9322455E16,5.4249942E16,4.761168E16,0E0,1.7896467E16,6.25387E16,2.1956466E17,4.704483E16,1.738129E17,8.580568E16,1.4032531E17,2.445417E17,2.2437693E17,8.0112135E16,1.12455094E17,7.679264E16,2.119864E17,5.7078947E16,0E0,1.9615013E16,0E0,6.9762226E16,2.101601E17,0E0,1.8403763E16,8.6305835E17,0E0,0E0,0E0,0E0,0E0,0E0,0E0,0E0,0E0,0E0,0E0,0E0,0E0,0E0,0E0,0E0,0E0,0E0,0E0,0E0,0E0,0E0,0E0,0E0,0E0,0E0,0E0,0E0,0E0,0E0,0E0,0E0,0E0,0E0,0E0,0E0,0E0,0E0,0E0,0E0,0E0,0E0,0E0,0E0,0E0,0E0,0E0,0E0,0E0,0E0,0E0],"parents":[2147483647,0,0,1,1,2,2,3,3,4,4,5,5,6,6,7,7,8,8,9,9,10,10,11,11,12,12,13,13,14,14,15,15,16,16,17,17,18,18,19,19,20,20,21,21,22,22,23,23,24,24,25,25,26,26,27,27,29,29,30,30,31,31,32,32,33,33,34,34,35,35,36,36,38,38,39,39,40,40,41,41,42,42,43,43,44,44,45,45,46,46,47,47,48,48,49,49,50,50,51,51,53,53,55,55,56,56,58,58,59,59],"right_children":[2,4,6,8,10,12,14,16,18,20,22,24,26,28,30,32,34,36,38,40,42,44,46,48,50,52,54,56,-1,58,60,62,64,66,68,70,72,-1,74,76,78,80,82,84,86,88,90,92,94,96,98,100,-1,102,-1,104,106,-1,108,110,-1,-1,-1,-1,-1,-1,-1,-1,-1,-1,-1,-1,-1,-1,-1,-1,-1,-1,-1,-1,-1,-1,-1,-1,-1,-1,-1,-1,-1,-1,-1,-1,-1,-1,-1,-1,-1,-1,-1,-1,-1,-1,-1,-1,-1,-1,-1,-1,-1,-1,-1],"split_conditions":[9E7,2.007E1,5.2734E1,3.7E7,2.9E7,1.8E8,1.8E8,1.1997E1,3.205622E8,4.1522E1,2.9496E1,2.9061E1,2.3551317E8,3.8325715E8,1.37E2,1.244056E7,2.8356188E7,1.4972E1,2.351E0,5.0772584E7,1.6704697E7,2.8457885E8,7.5E7,1.0222E1,3.7406E1,1E0,3.5998E1,1E0,2.642277E7,2E8,7.528329E7,2.2E6,1.914E0,3.3E6,1E0,7.762E0,1E0,1.1252733E7,1.35E2,1E0,1.23E2,5.4E6,1E0,7.6565304E7,1E0,5.8646E1,1.7284235E8,1.54E7,1.8737E1,8.16E7,2.8457885E8,4.6433E1,-1.8244956E6,1.07E2,5.1743795E6,4E0,3E0,8.735706E6,5.5481E1,1.62E2,2.708651E7,-1.7063069E6,-1.5033549E6,1.0892479E6,-1.2318221E6,-1.4621488E6,-9.58174E5,-7.702017E5,2.1547762E5,2.0072496E6,-4.985269E5,5.945727E5,2.1896682E6,3.7745428E6,-4.8292066E5,-6.124393E5,6.9093256E5,5.16541E5,5.434776E6,-9.681437E5,1.8029469E6,3.2042868E6,1.0561427E7,1.1182406E6,2.5979798E6,4.4525795E6,1.6863534E7,3.4252512E6,8.3107775E6,7.2013865E6,1.7031082E7,-1.1734939E6,1.2672799E7,5.9232356E5,4.25558E6,4.9238805E6,8.646217E6,8.647965E6,1.6182048E7,9.933839E6,1.9094986E7,1.1703475E7,2.6720164E7,2.5516942E6,1.1524898E7,1.5419384E6,1.950591E7,7.6874555E6,2.0602528E7,1.7596896E7,6.4859092E7],"split_indices":[1,2,2,1,1,1,1,2,5,2,2,2,6,6,0,1,5,2,2,6,5,5,1,2,2,16,2,19,0,1,6,1,2,1,10,2,13,0,0,13,0,1,14,5,18,2,5,5,2,6,5,2,0,0,0,4,4,0,2,0,0,0,0,0,0,0,0,0,0,0,0,0,0,0,0,0,0,0,0,0,0,0,0,0,0,0,0,0,0,0,0,0,0,0,0,0,0,0,0,0,0,0,0,0,0,0,0,0,0,0,0],"split_type":[0,0,0,0,0,0,0,0,0,0,0,0,0,0,0,0,0,0,0,0,0,0,0,0,0,0,0,0,0,0,0,0,0,0,0,0,0,0,0,0,0,0,0,0,0,0,0,0,0,0,0,0,0,0,0,0,0,0,0,0,0,0,0,0,0,0,0,0,0,0,0,0,0,0,0,0,0,0,0,0,0,0,0,0,0,0,0,0,0,0,0,0,0,0,0,0,0,0,0,0,0,0,0,0,0,0,0,0,0,0,0],"sum_hessian":[7.643E3,7.266E3,3.77E2,5.649E3,1.617E3,2.78E2,9.9E1,5.14E3,5.09E2,9.1E2,7.07E2,2.47E2,3.1E1,6.7E1,3.2E1,3.199E3,1.941E3,4.96E2,1.3E1,7.99E2,1.11E2,4.21E2,2.86E2,1.16E2,1.31E2,2.3E1,8E0,5.7E1,1E1,1.3E1,1.9E1,2.654E3,5.45E2,1.424E3,5.17E2,2.39E2,2.57E2,1E0,1.2E1,6.29E2,1.7E2,6.5E1,4.6E1,4.03E2,1.8E1,2.41E2,4.5E1,9E0,1.07E2,7.2E1,5.9E1,2.2E1,1E0,7E0,1E0,3.9E1,1.8E1,3E0,1E1,5E0,1.4E1,1.369E3,1.285E3,1E1,5.35E2,3.47E2,1.077E3,2.96E2,2.21E2,2.3E1,2.16E2,1.96E2,6.1E1,9E0,3E0,5.18E2,1.11E2,1.44E2,2.6E1,2.3E1,4.2E1,3.6E1,1E1,2.29E2,1.74E2,1.6E1,2E0,2.12E2,2.9E1,3.8E1,7E0,1E0,8E0,2.9E1,7.8E1,2.8E1,4.4E1,4.5E1,1.4E1,1.9E1,3E0,3E0,4E0,3E0,3.6E1,2E0,1.6E1,2E0,8E0,3E0,2E0],"tree_param":{"num_deleted":"0","num_feature":"21","num_nodes":"111","size_leaf_vector":"1"}},{"base_weights":[5.334205E5,-8.516983E6,2.4400054E8,-1.9197104E7,4.324728E7,1.9259246E8,4.650086E8,-2.4079162E7,1.068025E7,2.263961E7,1.0776627E8,1.6639333E8,3.0216022E8,4.034716E8,7.9417376E8,-2.806403E7,-1.3187822E7,-3.9309662E6,2.34219E7,1.8245064E7,1.1129695E8,8.492315E7,1.861324E8,2.5747182E7,1.5772336E8,2.4492845E8,4.109905E8,4.3693626E8,1.5938714E8,6.269712E7,1.7973894E7,-3.0436532E7,-2.2566622E7,-1.844508E7,-1.5679865E6,9.731469E7,-6.2395665E6,1.9600916E7,6.9150376E7,3.763065E6,4.8119784E7,1.8207635E8,6.596776E7,1.4261002E8,7.559512E7,1.4496851E8,3.4913587E8,8.584828E7,1.8625192E8,1.7683989E8,3.634216E8,2.142115E7,5.0450195E6,1.8211584E6,4.4651757E8,1.0352587E7,2.681711E7,-1.6074954E6,-1.4141314E6,-1.3004499E6,-9.03064E5,-1.049076E6,-2.5377808E5,-4.7751556E5,5.173356E5,8.23698E6,-1.4075676E6,-7.992635E5,2.4585786E5,5.133743E5,1.6839186E6,4.1701712E6,9.35393E5,-1.2025035E5,1.9687262E6,1.7082979E6,4.7407055E6,1.3695814E6,1.137823E7,-2.2610768E6,4.0268292E6,4.831669E6,1.3423039E7,2.9453682E6,5.303325E6,8.737775E6,3.317694E6,9.367993E6,2.1341296E7,1.2486833E7,2.5581438E6,7.166385E6,1.0934677E7,9.461983E6,-1.7788832E6,4.8691235E6,1.9108062E7,1.5849707E7,2.4377292E7,1.7271756E6,2.841076E5],"categories":[],"categories_nodes":[],"categories_segments":[],"categories_sizes":[],"default_left":[0,0,0,0,0,0,0,0,0,0,0,0,0,0,0,0,0,0,0,0,0,0,0,0,0,0,0,0,0,0,0,0,0,0,0,0,0,0,0,0,0,0,0,0,0,0,0,0,0,0,0,0,0,0,0,0,0,0,0,0,0,0,0,0,0,0,0,0,0,0,0,0,0,0,0,0,0,0,0,0,0,0,0,0,0,0,0,0,0,0,0,0,0,0,0,0,0,0,0,0,0],"id":12,"left_children":[1,3,5,7,9,11,13,15,17,19,21,23,25,27,29,31,33,35,37,39,41,43,45,-1,47,49,51,53,55,-1,-1,57,59,61,63,65,67,69,71,73,75,77,79,81,83,85,87,89,91,93,95,-1,-1,-1,97,-1,99,-1,-1,-1,-1,-1,-1,-1,-1,-1,-1,-1,-1,-1,-1,-1,-1,-1,-1,-1,-1,-1,-1,-1,-1,-1,-1,-1,-1,-1,-1,-1,-1,-1,-1,-1,-1,-1,-1,-1,-1,-1,-1,-1,-1],"loss_changes":[1.6845447E19,4.0758772E18,3.0235228E18,8.916257E17,1.6741681E18,5.92733E17,7.12621E17,2.276132E17,1.6001296E17,3.70825E17,5.301815E17,4.717933E17,1.6093552E17,2.9792697E17,9.482521E17,4.9461805E16,8.604474E16,9.433524E16,7.884464E16,3.9482442E17,1.323656E17,1.1728834E17,4.0565657E17,0E0,3.530988E17,1.7777358E17,2.7045237E16,1.3339605E17,3.8679737E16,0E0,0E0,8.992081E15,1.756731E16,3.2787196E16,4.1945888E16,8.077347E16,4.2809537E16,5.549536E16,2.3603285E16,1.3540158E17,1.9092683E17,1.1338435E17,5.0619024E16,1.5921595E17,9.901116E16,1.1953932E17,8.3418985E16,2.8850316E17,1.4689915E17,6.2045166E16,1.2639024E16,0E0,0E0,0E0,4.738785E16,0E0,2.9361014E14,0E0,0E0,0E0,0E0,0E0,0E0,0E0,0E0,0E0,0E0,0E0,0E0,0E0,0E0,0E0,0E0,0E0,0E0,0E0,0E0,0E0,0E0,0E0,0E0,0E0,0E0,0E0,0E0,0E0,0E0,0E0,0E0,0E0,0E0,0E0,0E0,0E0,0E0,0E0,0E0,0E0,0E0,0E0,0E0],"parents":[2147483647,0,0,1,1,2,2,3,3,4,4,5,5,6,6,7,7,8,8,9,9,10,10,11,11,12,12,13,13,14,14,15,15,16,16,17,17,18,18,19,19,20,20,21,21,22,22,24,24,25,25,26,26,27,27,28,28,31,31,32,32,33,33,34,34,35,35,36,36,37,37,38,38,39,39,40,40,41,41,42,42,43,43,44,44,45,45,46,46,47,47,48,48,49,49,50,50,54,54,56,56],"right_children":[2,4,6,8,10,12,14,16,18,20,22,24,26,28,30,32,34,36,38,40,42,44,46,-1,48,50,52,54,56,-1,-1,58,60,62,64,66,68,70,72,74,76,78,80,82,84,86,88,90,92,94,96,-1,-1,-1,98,-1,100,-1,-1,-1,-1,-1,-1,-1,-1,-1,-1,-1,-1,-1,-1,-1,-1,-1,-1,-1,-1,-1,-1,-1,-1,-1,-1,-1,-1,-1,-1,-1,-1,-1,-1,-1,-1,-1,-1,-1,-1,-1,-1,-1,-1],"split_conditions":[1.02E8,2.2704E1,6.2104E1,3.1E7,5.1E7,1.8E8,1.62E2,1.4247E1,1.5851E1,6.2104E1,4.4769E1,6.892E6,2.3551317E8,1E0,7.528329E7,8.5E6,1.8E7,2.351E0,2.1081962E8,5.0772584E7,8E0,1.997E3,1.9379229E8,2.5747182E7,2.7093E1,4.6433E1,4.9405504E8,4E0,8E0,6.269712E7,1.7973894E7,2.2E6,1E0,1.1E1,1E0,2.013E3,6.3864024E7,1E0,1E0,1E0,1.24E2,5.8E6,9E0,1.4666674E8,1E0,1E0,1E0,1.1507E1,1.0448394E8,1E0,6.35096E5,2.142115E7,5.0450195E6,1.8211584E6,1.5562975E7,1.0352587E7,1.28E2,-1.6074954E6,-1.4141314E6,-1.3004499E6,-9.03064E5,-1.049076E6,-2.5377808E5,-4.7751556E5,5.173356E5,8.23698E6,-1.4075676E6,-7.992635E5,2.4585786E5,5.133743E5,1.6839186E6,4.1701712E6,9.35393E5,-1.2025035E5,1.9687262E6,1.7082979E6,4.7407055E6,1.3695814E6,1.137823E7,-2.2610768E6,4.0268292E6,4.831669E6,1.3423039E7,2.9453682E6,5.303325E6,8.737775E6,3.317694E6,9.367993E6,2.1341296E7,1.2486833E7,2.5581438E6,7.166385E6,1.0934677E7,9.461983E6,-1.7788832E6,4.8691235E6,1.9108062E7,1.5849707E7,2.4377292E7,1.7271756E6,2.841076E5],"split_indices":[1,2,2,1,1,1,0,2,2,2,2,5,6,9,6,1,1,2,5,6,4,3,6,0,2,2,6,4,4,0,0,1,10,4,10,3,6,10,11,13,0,1,4,5,10,12,14,2,6,16,6,0,0,0,6,0,0,0,0,0,0,0,0,0,0,0,0,0,0,0,0,0,0,0,0,0,0,0,0,0,0,0,0,0,0,0,0,0,0,0,0,0,0,0,0,0,0,0,0,0,0],"split_type":[0,0,0,0,0,0,0,0,0,0,0,0,0,0,0,0,0,0,0,0,0,0,0,0,0,0,0,0,0,0,0,0,0,0,0,0,0,0,0,0,0,0,0,0,0,0,0,0,0,0,0,0,0,0,0,0,0,0,0,0,0,0,0,0,0,0,0,0,0,0,0,0,0,0,0,0,0,0,0,0,0,0,0,0,0,0,0,0,0,0,0,0,0,0,0,0,0,0,0,0,0],"sum_hessian":[7.643E3,7.37E3,2.73E2,6.11E3,1.26E3,2.23E2,5E1,5.252E3,8.58E2,9.56E2,3.04E2,1.82E2,4.1E1,4.4E1,6E0,3.844E3,1.408E3,4E2,4.58E2,9.12E2,4.4E1,2.37E2,6.7E1,3E0,1.79E2,2.9E1,1.2E1,3.8E1,6E0,2E0,4E0,2.682E3,1.162E3,9.69E2,4.39E2,8E0,3.92E2,4.24E2,3.4E1,6.15E2,2.97E2,1.6E1,2.8E1,3.1E1,2.06E2,5.5E1,1.2E1,5.2E1,1.27E2,2E1,9E0,1.1E1,1E0,1E0,3.7E1,4E0,2E0,1.486E3,1.196E3,6.56E2,5.06E2,8.14E2,1.55E2,2.63E2,1.76E2,5E0,3E0,2.09E2,1.83E2,2.56E2,1.68E2,2.6E1,8E0,5.25E2,9E1,2.3E2,6.7E1,4E0,1.2E1,3E0,2.5E1,2.4E1,7E0,1.35E2,7.1E1,3.9E1,1.6E1,5E0,7E0,8E0,4.4E1,5.7E1,7E1,1.9E1,1E0,1E0,8E0,1.1E1,2.6E1,1E0,1E0],"tree_param":{"num_deleted":"0","num_feature":"21","num_nodes":"101","size_leaf_vector":"1"}},{"base_weights":[5.5270356E5,-8.07768E6,2.327206E8,-1.7813972E7,4.3382984E7,1.6561867E8,3.878176E8,-2.2125438E7,1.5708935E7,2.3438618E7,1.0430818E8,1.4507818E8,2.6442936E8,3.001409E8,5.0890902E8,-2.5392014E7,-7.671416E6,1.2808895E7,9.7705544E7,1.8990152E7,1.0605462E8,8.143309E7,1.7745467E8,8.1839736E7,1.742287E8,1.9306203E8,3.672864E8,2.6258384E8,5.3179517E8,3.1512576E8,6.191119E8,-2.803369E7,-1.8302154E7,-1.6814788E7,2.4953858E6,-4.3604735E6,2.2523298E7,1.047158E8,-1.5882586E6,5.0554355E6,4.734439E7,1.737224E8,6.2730256E7,1.3605226E8,7.284861E7,1.3793536E8,3.3404134E8,2.3863725E8,4.8661576E7,4.2543916E7,1.8276512E8,5.8005652E7,2.4321755E8,7.4467655E6,2.1176086E7,2.0767293E8,3.5856083E8,7.5402945E6,2.8891594E7,3.3652438E8,6.2244655E6,5.057152E8,8.581589E8,-1.4948986E6,-1.2242525E6,-1.1039339E6,-6.683727E5,-1.4353044E6,-6.7412775E5,-2.958867E5,8.42492E5,2.1030702E6,-4.76101E5,-5.0348824E4,1.5514794E6,3.4228618E6,7.6755835E6,-2.125768E4,1.8004822E6,1.6584769E6,4.902865E6,1.3147979E6,1.0853081E7,4.4050115E6,-1.718194E5,4.830133E6,1.2311818E7,2.4837678E6,4.580907E6,7.5251995E6,-1.0182718E6,1.8484866E7,4.5977855E6,6.941161E6,1.6434951E7,-1.3816008E6,3.0553782E6,3.586268E6,-1.5000136E6,4.1411772E5,9.395839E6,6.454437E6,1.8773344E5,7.48352E4,1.3018821E7,6.9421515E6,1.2809457E7,1.9157086E7,3.607044E5,1.8292214E7,6.330834E6,3.469423E7,1.9258418E7,4.755846E7,1.2152949E7],"categories":[],"categories_nodes":[],"categories_segments":[],"categories_sizes":[],"default_left":[0,0,0,0,0,0,0,0,0,0,0,0,0,0,0,0,0,0,0,0,0,0,0,0,0,0,0,0,0,0,0,0,0,0,0,0,0,0,0,0,0,0,0,0,0,0,0,0,0,0,0,0,0,0,0,0,0,0,0,0,0,0,0,0,0,0,0,0,0,0,0,0,0,0,0,0,0,0,0,0,0,0,0,0,0,0,0,0,0,0,0,0,0,0,0,0,0,0,0,0,0,0,0,0,0,0,0,0,0,0,0,0,0,0,0],"id":13,"left_children":[1,3,5,7,9,11,13,15,17,19,21,23,25,27,29,31,33,35,37,39,41,43,45,47,49,51,53,55,57,59,61,63,65,67,69,71,73,75,-1,77,79,81,83,85,87,89,91,93,95,97,99,101,103,-1,-1,105,107,-1,-1,109,-1,111,113,-1,-1,-1,-1,-1,-1,-1,-1,-1,-1,-1,-1,-1,-1,-1,-1,-1,-1,-1,-1,-1,-1,-1,-1,-1,-1,-1,-1,-1,-1,-1,-1,-1,-1,-1,-1,-1,-1,-1,-1,-1,-1,-1,-1,-1,-1,-1,-1,-1,-1,-1,-1],"loss_changes":[1.5318148E19,3.6939096E18,2.787373E18,8.963072E17,1.4228843E18,3.533539E17,7.1784036E17,2.5915791E17,1.668685E17,3.2323625E17,4.691135E17,2.8437741E17,1.6399133E17,2.953717E17,5.096319E17,8.339328E16,9.430223E16,1.1418271E17,2.5109255E16,3.3204677E17,1.2102723E17,9.417963E16,3.7472126E17,2.6410695E17,1.1587698E17,1.2814231E17,8.427111E16,1.6269501E17,1.809645E16,1.5217103E16,1.0815896E17,2.084839E16,2.2422134E16,2.077249E16,5.818803E16,5.982346E16,8.749912E16,3.0184171E16,0E0,9.586604E16,1.9586844E17,1.0291102E17,4.8983475E16,1.02267776E17,7.982929E16,1.1448404E17,7.821761E16,3.5273776E16,4.4418225E16,1.9087333E16,9.102802E16,2.6509608E16,6.1825127E16,0E0,0E0,6.7950093E16,1.2678235E17,0E0,0E0,2.7531771E16,0E0,9.566933E16,5.486288E16,0E0,0E0,0E0,0E0,0E0,0E0,0E0,0E0,0E0,0E0,0E0,0E0,0E0,0E0,0E0,0E0,0E0,0E0,0E0,0E0,0E0,0E0,0E0,0E0,0E0,0E0,0E0,0E0,0E0,0E0,0E0,0E0,0E0,0E0,0E0,0E0,0E0,0E0,0E0,0E0,0E0,0E0,0E0,0E0,0E0,0E0,0E0,0E0,0E0,0E0,0E0,0E0],"parents":[2147483647,0,0,1,1,2,2,3,3,4,4,5,5,6,6,7,7,8,8,9,9,10,10,11,11,12,12,13,13,14,14,15,15,16,16,17,17,18,18,19,19,20,20,21,21,22,22,23,23,24,24,25,25,26,26,27,27,28,28,29,29,30,30,31,31,32,32,33,33,34,34,35,35,36,36,37,37,39,39,40,40,41,41,42,42,43,43,44,44,45,45,46,46,47,47,48,48,49,49,50,50,51,51,52,52,55,55,56,56,59,59,61,61,62,62],"right_children":[2,4,6,8,10,12,14,16,18,20,22,24,26,28,30,32,34,36,38,40,42,44,46,48,50,52,54,56,58,60,62,64,66,68,70,72,74,76,-1,78,80,82,84,86,88,90,92,94,96,98,100,102,104,-1,-1,106,108,-1,-1,110,-1,112,114,-1,-1,-1,-1,-1,-1,-1,-1,-1,-1,-1,-1,-1,-1,-1,-1,-1,-1,-1,-1,-1,-1,-1,-1,-1,-1,-1,-1,-1,-1,-1,-1,-1,-1,-1,-1,-1,-1,-1,-1,-1,-1,-1,-1,-1,-1,-1,-1,-1,-1,-1,-1],"split_conditions":[1.02E8,2.342E1,5.2734E1,3.7E7,5.1E7,1.8E8,1.8E8,1.6268E1,3.205622E8,6.2104E1,4.4769E1,2.7093E1,1.41E2,4.9405504E8,1.37E2,1.2E7,1.4E7,1.4972E1,1.65E2,5.0772584E7,8E0,1.997E3,1.9379229E8,1.1507E1,8.6E1,6.3864024E7,2.009E3,1E0,2.005E3,7E0,1E0,9.646E0,1E0,2.1E6,1E0,7.762E0,3.3570076E7,7.1E7,-1.5882586E6,1E0,1.24E2,5.8E6,9.841E1,1.4666674E8,7.1E7,9.841E1,1E0,1.13166E8,1.6268E1,1.1525447E8,1.998E3,1E0,3E0,7.4467655E6,2.1176086E7,6.996567E7,2.014E3,7.5402945E6,2.8891594E7,2.2326189E8,6.2244655E6,1E0,1.63E2,-1.4948986E6,-1.2242525E6,-1.1039339E6,-6.683727E5,-1.4353044E6,-6.7412775E5,-2.958867E5,8.42492E5,2.1030702E6,-4.76101E5,-5.0348824E4,1.5514794E6,3.4228618E6,7.6755835E6,-2.125768E4,1.8004822E6,1.6584769E6,4.902865E6,1.3147979E6,1.0853081E7,4.4050115E6,-1.718194E5,4.830133E6,1.2311818E7,2.4837678E6,4.580907E6,7.5251995E6,-1.0182718E6,1.8484866E7,4.5977855E6,6.941161E6,1.6434951E7,-1.3816008E6,3.0553782E6,3.586268E6,-1.5000136E6,4.1411772E5,9.395839E6,6.454437E6,1.8773344E5,7.48352E4,1.3018821E7,6.9421515E6,1.2809457E7,1.9157086E7,3.607044E5,1.8292214E7,6.330834E6,3.469423E7,1.9258418E7,4.755846E7,1.2152949E7],"split_indices":[1,2,2,1,1,1,1,2,5,2,2,2,0,6,0,1,1,2,0,6,4,3,6,2,0,6,3,19,3,4,18,2,10,1,10,2,6,1,0,13,0,1,2,5,1,2,15,5,2,6,3,18,4,0,0,6,3,0,0,5,0,14,0,0,0,0,0,0,0,0,0,0,0,0,0,0,0,0,0,0,0,0,0,0,0,0,0,0,0,0,0,0,0,0,0,0,0,0,0,0,0,0,0,0,0,0,0,0,0,0,0,0,0,0,0],"split_type":[0,0,0,0,0,0,0,0,0,0,0,0,0,0,0,0,0,0,0,0,0,0,0,0,0,0,0,0,0,0,0,0,0,0,0,0,0,0,0,0,0,0,0,0,0,0,0,0,0,0,0,0,0,0,0,0,0,0,0,0,0,0,0,0,0,0,0,0,0,0,0,0,0,0,0,0,0,0,0,0,0,0,0,0,0,0,0,0,0,0,0,0,0,0,0,0,0,0,0,0,0,0,0,0,0,0,0,0,0,0,0,0,0,0,0],"sum_hessian":[7.643E3,7.37E3,2.73E2,6.198E3,1.172E3,1.92E2,8.1E1,5.492E3,7.06E2,8.84E2,2.88E2,1.61E2,3.1E1,4.9E1,3.2E1,4.479E3,1.013E3,6.83E2,2.3E1,8.4E2,4.4E1,2.21E2,6.7E1,5.2E1,1.09E2,2E1,1.1E1,4.4E1,5E0,1.3E1,1.9E1,3.261E3,1.218E3,5.33E2,4.8E2,2.47E2,4.36E2,2.2E1,1E0,5.64E2,2.76E2,1.6E1,2.8E1,2.8E1,1.93E2,5.5E1,1.2E1,8E0,4.4E1,7E0,1.02E2,6E0,1.4E1,3E0,8E0,3E1,1.4E1,1E0,4E0,1.1E1,2E0,1.5E1,4E0,2.133E3,1.128E3,6.88E2,5.3E2,1.15E2,4.18E2,3.03E2,1.77E2,2.4E1,2.23E2,1.16E2,3.2E2,1.4E1,8E0,4.8E2,8.4E1,2.17E2,5.9E1,4E0,1.2E1,2E1,8E0,2.2E1,6E0,8.8E1,1.05E2,5.1E1,4E0,1E1,2E0,5E0,3E0,6E0,3.8E1,5E0,2E0,3E0,9.9E1,2E0,4E0,1E0,1.3E1,1.4E1,1.6E1,1.3E1,1E0,9E0,2E0,4E0,1.1E1,3E0,1E0],"tree_param":{"num_deleted":"0","num_feature":"21","num_nodes":"115","size_leaf_vector":"1"}},{"base_weights":[5.76172E5,-7.6622485E6,2.221996E8,-1.8122228E7,3.569398E7,1.498622E8,3.5476413E8,-2.1649656E7,1.2449607E7,1.852198E7,9.041951E7,1.27060536E8,2.3393726E8,2.720126E8,4.851274E8,-2.6449006E7,-1.4415614E7,9.803911E6,8.681815E7,-9.762627E6,2.9848338E7,7.065568E7,1.6901707E8,9.4832104E7,1.5752424E8,3.102625E8,1.0130945E8,2.4151973E8,5.112774E8,4.0571968E8,7.561422E8,-2.7647948E7,-2.057054E7,-1.815604E7,-3.9740098E6,-4.257972E6,2.0508532E7,1.0573601E7,7.001186E7,-1.0739576E7,7.3761305E6,1.2116983E7,5.028919E7,6.1187216E7,1.1307784E8,1.3115478E8,3.1911488E8,2.2462208E7,1.20352216E8,1.6997253E8,3.669136E7,1.7627597E8,3.6997024E8,3.87651E7,1.3869843E8,4.105759E7,2.6036784E8,3.2893798E7,1.3675456E7,2.7958115E8,4.548099E8,5.923634E7,1.738815E7,-1.4742051E6,-1.2868686E6,1.1376684E6,-1.0710638E6,-1.031096E6,-5.4854325E5,-5.844987E5,3.328139E5,-6.513023E5,3.1276088E5,2.0750375E5,1.4923895E6,1.4709898E6,5.383097E6,-6.7672694E5,1.3359161E6,3.7551277E4,1.6682311E6,2.1542312E6,5.716688E6,1.5436206E6,3.7115285E6,1.1525106E7,4.400949E6,1.3293053E7,5.6367665E6,8.438908E6,1.9598902E7,6.0831375E6,2.3404416E5,6.4520995E6,5.561051E5,2.6930968E6,8.937535E6,-2.0736294E5,5.3069075E6,5.903632E5,9.767932E6,1.931879E7,3.5073172E6,-2.3925788E5,2.8571118E6,-2.8931122E5,7.8741155E6,-1.5079361E5,4.3068175E6,9.953181E6,1.9711352E7,7.549136E6,1.6574851E7,3.0697248E7,1.8041758E7],"categories":[],"categories_nodes":[],"categories_segments":[],"categories_sizes":[],"default_left":[0,0,0,0,0,0,0,0,0,0,0,0,0,0,0,0,0,0,0,0,0,0,0,0,0,0,0,0,0,0,0,0,0,0,0,0,0,0,0,0,0,0,0,0,0,0,0,0,0,0,0,0,0,0,0,0,0,0,0,0,0,0,0,0,0,0,0,0,0,0,0,0,0,0,0,0,0,0,0,0,0,0,0,0,0,0,0,0,0,0,0,0,0,0,0,0,0,0,0,0,0,0,0,0,0,0,0,0,0,0,0,0,0,0,0],"id":14,"left_children":[1,3,5,7,9,11,13,15,17,19,21,23,25,27,29,31,33,35,37,39,41,43,45,47,49,51,53,55,57,59,61,63,65,67,69,71,73,-1,75,77,-1,79,81,83,85,87,89,91,93,95,97,99,101,103,105,107,109,-1,-1,111,113,-1,-1,-1,-1,-1,-1,-1,-1,-1,-1,-1,-1,-1,-1,-1,-1,-1,-1,-1,-1,-1,-1,-1,-1,-1,-1,-1,-1,-1,-1,-1,-1,-1,-1,-1,-1,-1,-1,-1,-1,-1,-1,-1,-1,-1,-1,-1,-1,-1,-1,-1,-1,-1,-1],"loss_changes":[1.3958323E19,3.343434E18,2.5743218E18,6.407309E17,1.3449824E18,3.134279E17,9.036633E17,1.8449585E17,1.2015414E17,3.5012625E17,5.193172E17,1.254584E17,3.431129E17,3.215651E17,4.6796204E17,2.1984598E16,8.296104E16,8.965097E16,2.9188804E16,4.967976E16,2.8209696E17,1.0354115E17,3.4459368E17,1.3027261E17,1.0206313E17,1.1878395E17,2.9700386E16,2.0089644E17,2.9203853E16,5.8608918E16,8.131713E17,8.5551625E15,2.061136E16,2.750205E16,4.6174687E16,2.386403E16,5.151437E16,0E0,2.739849E16,3.3025975E16,0E0,1.0116335E17,1.621056E17,8.74656E16,1.23894826E17,1.0897617E17,7.624467E16,3.4708853E16,4.8871505E16,5.662265E16,2.312907E16,2.5939867E16,4.6678804E16,5.8757375E15,2.5337043E16,1.2180438E16,3.4003634E17,0E0,0E0,2.3388949E16,7.7560375E16,0E0,0E0,0E0,0E0,0E0,0E0,0E0,0E0,0E0,0E0,0E0,0E0,0E0,0E0,0E0,0E0,0E0,0E0,0E0,0E0,0E0,0E0,0E0,0E0,0E0,0E0,0E0,0E0,0E0,0E0,0E0,0E0,0E0,0E0,0E0,0E0,0E0,0E0,0E0,0E0,0E0,0E0,0E0,0E0,0E0,0E0,0E0,0E0,0E0,0E0,0E0,0E0,0E0,0E0],"parents":[2147483647,0,0,1,1,2,2,3,3,4,4,5,5,6,6,7,7,8,8,9,9,10,10,11,11,12,12,13,13,14,14,15,15,16,16,17,17,18,18,19,19,20,20,21,21,22,22,23,23,24,24,25,25,26,26,27,27,28,28,29,29,30,30,31,31,32,32,33,33,34,34,35,35,36,36,38,38,39,39,41,41,42,42,43,43,44,44,45,45,46,46,47,47,48,48,49,49,50,50,51,51,52,52,53,53,54,54,55,55,56,56,59,59,60,60],"right_children":[2,4,6,8,10,12,14,16,18,20,22,24,26,28,30,32,34,36,38,40,42,44,46,48,50,52,54,56,58,60,62,64,66,68,70,72,74,-1,76,78,-1,80,82,84,86,88,90,92,94,96,98,100,102,104,106,108,110,-1,-1,112,114,-1,-1,-1,-1,-1,-1,-1,-1,-1,-1,-1,-1,-1,-1,-1,-1,-1,-1,-1,-1,-1,-1,-1,-1,-1,-1,-1,-1,-1,-1,-1,-1,-1,-1,-1,-1,-1,-1,-1,-1,-1,-1,-1,-1,-1,-1,-1,-1,-1,-1,-1,-1,-1,-1],"split_conditions":[1.02E8,2.162E1,4.6433E1,3.7E7,5.1E7,1.38E2,1.8E8,1.1997E1,3.205622E8,1E7,4.4769E1,1.2063903E8,1E0,4.9405504E8,1.62E2,1.244056E7,2.8356188E7,6.3864024E7,2.351E0,2.08E2,2.9496E1,1.7934296E8,1.9379229E8,2.4476E1,1E0,2.004E3,2.5405E1,4E0,1.31E2,4.3418876E7,7.528329E7,5.427E0,1.914E0,1.8E7,1E0,1.5851E1,1.4972E1,1.0573601E7,1.8862E1,6.59458E7,7.3761305E6,1.14E2,6.2104E1,2.472E1,1.997E3,4.6433E1,1E0,9.629381E6,1.31E2,1.998E3,1.2E2,6.10788E7,1E0,1.1E8,2.001E3,1E0,2.5011403E8,3.2893798E7,1.3675456E7,1.07E2,1.2283822E8,5.923634E7,1.738815E7,-1.4742051E6,-1.2868686E6,1.1376684E6,-1.0710638E6,-1.031096E6,-5.4854325E5,-5.844987E5,3.328139E5,-6.513023E5,3.1276088E5,2.0750375E5,1.4923895E6,1.4709898E6,5.383097E6,-6.7672694E5,1.3359161E6,3.7551277E4,1.6682311E6,2.1542312E6,5.716688E6,1.5436206E6,3.7115285E6,1.1525106E7,4.400949E6,1.3293053E7,5.6367665E6,8.438908E6,1.9598902E7,6.0831375E6,2.3404416E5,6.4520995E6,5.561051E5,2.6930968E6,8.937535E6,-2.0736294E5,5.3069075E6,5.903632E5,9.767932E6,1.931879E7,3.5073172E6,-2.3925788E5,2.8571118E6,-2.8931122E5,7.8741155E6,-1.5079361E5,4.3068175E6,9.953181E6,1.9711352E7,7.549136E6,1.6574851E7,3.0697248E7,1.8041758E7],"split_indices":[1,2,2,1,1,0,1,2,5,1,2,6,9,6,0,1,5,6,2,0,2,5,6,2,7,3,2,4,0,6,6,2,2,1,10,2,2,0,2,6,0,0,2,2,3,2,14,6,0,3,0,5,8,1,3,14,5,0,0,0,5,0,0,0,0,0,0,0,0,0,0,0,0,0,0,0,0,0,0,0,0,0,0,0,0,0,0,0,0,0,0,0,0,0,0,0,0,0,0,0,0,0,0,0,0,0,0,0,0,0,0,0,0,0,0],"split_type":[0,0,0,0,0,0,0,0,0,0,0,0,0,0,0,0,0,0,0,0,0,0,0,0,0,0,0,0,0,0,0,0,0,0,0,0,0,0,0,0,0,0,0,0,0,0,0,0,0,0,0,0,0,0,0,0,0,0,0,0,0,0,0,0,0,0,0,0,0,0,0,0,0,0,0,0,0,0,0,0,0,0,0,0,0,0,0,0,0,0,0,0,0,0,0,0,0,0,0,0,0,0,0,0,0,0,0,0,0,0,0,0,0,0,0],"sum_hessian":[7.643E3,7.37E3,2.73E2,5.938E3,1.432E3,1.78E2,9.5E1,5.324E3,6.14E2,1.091E3,3.41E2,1.42E2,3.6E1,6E1,3.5E1,3.199E3,2.125E3,5.94E2,2E1,3.12E2,7.79E2,2.74E2,6.7E1,7.1E1,7.1E1,2.2E1,1.4E1,5.5E1,5E0,2.9E1,6E0,2.654E3,5.45E2,1.564E3,5.61E2,2.57E2,3.37E2,1E0,1.9E1,3.11E2,1E0,4.18E2,3.61E2,2.26E2,4.8E1,5.5E1,1.2E1,1.9E1,5.2E1,6.4E1,7E0,8E0,1.4E1,6E0,8E0,5E0,5E1,2E0,3E0,1E1,1.9E1,2E0,4E0,1.346E3,1.308E3,1E1,5.35E2,1.163E3,4.01E2,3.25E2,2.36E2,1.4E2,1.17E2,1.23E2,2.14E2,1E1,9E0,2.9E2,2.1E1,2.73E2,1.45E2,3.26E2,3.5E1,6.9E1,1.57E2,7E0,4.1E1,5E0,5E1,5E0,7E0,2E0,1.7E1,4.8E1,4E0,5E0,5.9E1,5E0,2E0,1E0,7E0,1.3E1,1E0,2E0,4E0,1E0,7E0,3E0,2E0,3.6E1,1.4E1,4E0,6E0,5E0,1.4E1],"tree_param":{"num_deleted":"0","num_feature":"21","num_nodes":"115","size_leaf_vector":"1"}},{"base_weights":[6.001295E5,-6.9939255E6,2.1978714E8,-1.6034258E7,4.030221E7,1.4681312E8,3.4827546E8,-2.1281126E7,6.9449185E6,2.1236488E7,9.604015E7,1.2423053E8,2.5763414E8,2.6842978E8,4.6502346E8,-2.4408652E7,-1.2331139E7,-5.2504785E6,1.927694E7,1.717011E7,9.676067E7,7.573867E7,1.598402E8,7.986628E7,1.4393747E8,3.26997E8,1.070176E8,2.3730091E8,4.9347507E8,3.8786246E8,7.292814E8,-2.675507E7,-2.0891522E7,-1.708256E7,-3.3951832E6,-1.0370485E7,2.279723E7,1.6808814E7,9.458083E7,4.1725085E6,4.3619476E7,1.6225203E8,5.5032604E7,6.3074548E7,1.2397534E8,1.2566278E8,2.9245642E8,1.7499461E8,5.456841E7,1.06399416E8,1.6406136E8,3.4477786E8,6.180516E5,-2.820784E5,1.2016213E8,3.9697388E7,2.5747794E8,3.1797338E7,1.3162627E7,2.677952E8,4.3450634E8,5.726179E7,1.6692623E7,-1.4233384E6,-1.2772924E6,-1.1150536E6,-7.260634E5,-1.00034294E6,-3.2647078E5,-1.2861211E6,6.0441344E4,-7.512653E5,-1.74966E5,6.9006785E6,5.7086875E5,1.103631E6,-5.940778E5,5.3932895E6,-3.899608E5,-5.128558E4,1.6769615E6,1.5144186E6,4.5664415E6,1.2892751E6,1.0112912E7,-2.4414292E6,3.4447305E6,2.1657365E6,4.027722E6,1.0049115E7,4.5915305E6,3.7056785E6,8.201573E6,7.826841E6,1.874145E7,-1.7449559E6,1.0279686E7,2.022474E6,1.005499E7,5.7114875E6,-8.9053894E5,6.07132E5,8.454529E6,1.7785104E7,4.2497555E6,2.6335348E6,8.181057E6,-1.4513861E5,4.1632568E6,9.793964E6,1.879149E7,7.2471705E6,1.5864501E7,2.9418196E7,1.7199812E7],"categories":[],"categories_nodes":[],"categories_segments":[],"categories_sizes":[],"default_left":[0,0,0,0,0,0,0,0,0,0,0,0,0,0,0,0,0,0,0,0,0,0,0,0,0,0,0,0,0,0,0,0,0,0,0,0,0,0,0,0,0,0,0,0,0,0,0,0,0,0,0,0,0,0,0,0,0,0,0,0,0,0,0,0,0,0,0,0,0,0,0,0,0,0,0,0,0,0,0,0,0,0,0,0,0,0,0,0,0,0,0,0,0,0,0,0,0,0,0,0,0,0,0,0,0,0,0,0,0,0,0,0,0,0,0],"id":15,"left_children":[1,3,5,7,9,11,13,15,17,19,21,23,25,27,29,31,33,35,37,39,41,43,45,47,49,51,53,55,57,59,61,63,65,67,69,71,73,75,77,79,81,83,85,87,89,91,93,95,97,99,101,103,-1,-1,105,107,109,-1,-1,111,113,-1,-1,-1,-1,-1,-1,-1,-1,-1,-1,-1,-1,-1,-1,-1,-1,-1,-1,-1,-1,-1,-1,-1,-1,-1,-1,-1,-1,-1,-1,-1,-1,-1,-1,-1,-1,-1,-1,-1,-1,-1,-1,-1,-1,-1,-1,-1,-1,-1,-1,-1,-1,-1,-1],"loss_changes":[1.2725113E19,3.1599813E18,2.3492044E18,7.481562E17,1.2583036E18,3.809269E17,7.327816E17,1.4108301E17,1.736558E17,2.7013087E17,3.790547E17,1.1002964E17,2.4707978E17,2.8220615E17,4.511934E17,3.032247E16,5.5562618E16,8.367061E16,1.0509362E17,2.8893558E17,1.14048115E17,1.3329256E17,2.8958772E17,9.874532E16,5.430804E16,9.643899E16,1.5486407E16,1.9710533E17,2.938651E16,5.1653407E16,7.6902345E17,3.9112377E15,1.3162872E16,2.6255135E16,4.690554E16,1.5683576E16,1.164273E17,8.438071E16,2.5323333E16,8.6284295E16,1.7341092E17,8.7596305E16,4.511603E16,6.040971E16,9.788595E16,1.0453758E17,9.8070115E16,6.497808E16,6.841366E16,3.7048354E16,4.3788738E16,1.8011925E16,0E0,0E0,1.7779962E16,1.1377658E16,2.6902768E17,0E0,0E0,2.08967E16,7.6118365E16,0E0,0E0,0E0,0E0,0E0,0E0,0E0,0E0,0E0,0E0,0E0,0E0,0E0,0E0,0E0,0E0,0E0,0E0,0E0,0E0,0E0,0E0,0E0,0E0,0E0,0E0,0E0,0E0,0E0,0E0,0E0,0E0,0E0,0E0,0E0,0E0,0E0,0E0,0E0,0E0,0E0,0E0,0E0,0E0,0E0,0E0,0E0,0E0,0E0,0E0,0E0,0E0,0E0,0E0],"parents":[2147483647,0,0,1,1,2,2,3,3,4,4,5,5,6,6,7,7,8,8,9,9,10,10,11,11,12,12,13,13,14,14,15,15,16,16,17,17,18,18,19,19,20,20,21,21,22,22,23,23,24,24,25,25,26,26,27,27,28,28,29,29,30,30,31,31,32,32,33,33,34,34,35,35,36,36,37,37,38,38,39,39,40,40,41,41,42,42,43,43,44,44,45,45,46,46,47,47,48,48,49,49,50,50,51,51,54,54,55,55,56,56,59,59,60,60],"right_children":[2,4,6,8,10,12,14,16,18,20,22,24,26,28,30,32,34,36,38,40,42,44,46,48,50,52,54,56,58,60,62,64,66,68,70,72,74,76,78,80,82,84,86,88,90,92,94,96,98,100,102,104,-1,-1,106,108,110,-1,-1,112,114,-1,-1,-1,-1,-1,-1,-1,-1,-1,-1,-1,-1,-1,-1,-1,-1,-1,-1,-1,-1,-1,-1,-1,-1,-1,-1,-1,-1,-1,-1,-1,-1,-1,-1,-1,-1,-1,-1,-1,-1,-1,-1,-1,-1,-1,-1,-1,-1,-1,-1,-1,-1,-1,-1],"split_conditions":[1.1E8,2.342E1,4.6433E1,2.6E7,5.1E7,1.39E2,1.8E8,1.4247E1,1.6268E1,6.2104E1,4.4769E1,2.7093E1,1E0,4.9405504E8,1.62E2,5.4E6,1E0,6.1E7,3.205622E8,5.0772584E7,8E0,1.7934296E8,1.9379229E8,8.624E0,8.793997E7,1E0,2.001E3,4E0,1.31E2,4.3418876E7,7.528329E7,1E6,3.2696254E7,2.9115762E7,3.3E6,6.59458E7,1.998E3,1E0,1.5E2,1E0,1.24E2,5.8E6,9E0,7.1E7,2.1081962E8,7.1E7,1E0,9.7E1,1.8E8,1.36E2,8.5E1,4.9405504E8,6.180516E5,-2.820784E5,2.986E1,1E0,2.5011403E8,3.1797338E7,1.3162627E7,1.07E2,1.2283822E8,5.726179E7,1.6692623E7,-1.4233384E6,-1.2772924E6,-1.1150536E6,-7.260634E5,-1.00034294E6,-3.2647078E5,-1.2861211E6,6.0441344E4,-7.512653E5,-1.74966E5,6.9006785E6,5.7086875E5,1.103631E6,-5.940778E5,5.3932895E6,-3.899608E5,-5.128558E4,1.6769615E6,1.5144186E6,4.5664415E6,1.2892751E6,1.0112912E7,-2.4414292E6,3.4447305E6,2.1657365E6,4.027722E6,1.0049115E7,4.5915305E6,3.7056785E6,8.201573E6,7.826841E6,1.874145E7,-1.7449559E6,1.0279686E7,2.022474E6,1.005499E7,5.7114875E6,-8.9053894E5,6.07132E5,8.454529E6,1.7785104E7,4.2497555E6,2.6335348E6,8.181057E6,-1.4513861E5,4.1632568E6,9.793964E6,1.879149E7,7.2471705E6,1.5864501E7,2.9418196E7,1.7199812E7],"split_indices":[1,2,2,1,1,0,1,2,2,2,2,2,9,6,0,1,10,1,5,6,4,5,6,2,6,10,3,4,0,6,6,1,5,5,1,6,3,18,0,13,0,1,4,1,5,1,14,0,1,0,0,6,0,0,2,14,5,0,0,0,5,0,0,0,0,0,0,0,0,0,0,0,0,0,0,0,0,0,0,0,0,0,0,0,0,0,0,0,0,0,0,0,0,0,0,0,0,0,0,0,0,0,0,0,0,0,0,0,0,0,0,0,0,0,0],"split_type":[0,0,0,0,0,0,0,0,0,0,0,0,0,0,0,0,0,0,0,0,0,0,0,0,0,0,0,0,0,0,0,0,0,0,0,0,0,0,0,0,0,0,0,0,0,0,0,0,0,0,0,0,0,0,0,0,0,0,0,0,0,0,0,0,0,0,0,0,0,0,0,0,0,0,0,0,0,0,0,0,0,0,0,0,0,0,0,0,0,0,0,0,0,0,0,0,0,0,0,0,0,0,0,0,0,0,0,0,0,0,0,0,0,0,0],"sum_hessian":[7.643E3,7.388E3,2.55E2,6.203E3,1.185E3,1.64E2,9.1E1,5.05E3,1.153E3,8.84E2,3.01E2,1.38E2,2.6E1,5.6E1,3.5E1,3.741E3,1.309E3,5.8E2,5.73E2,8.4E2,4.4E1,2.3E2,7.1E1,4.4E1,9.4E1,1.7E1,9E0,5.1E1,5E0,2.9E1,6E0,2.24E3,1.501E3,8.54E2,4.55E2,4.91E2,8.9E1,5.56E2,1.7E1,5.64E2,2.76E2,1.6E1,2.8E1,1.84E2,4.6E1,5.8E1,1.3E1,8E0,3.6E1,3.5E1,5.9E1,1.6E1,1E0,1E0,8E0,5E0,4.6E1,2E0,3E0,1E1,1.9E1,2E0,4E0,9.18E2,1.322E3,1.227E3,2.74E2,6.68E2,1.86E2,7.7E1,3.78E2,2.92E2,1.99E2,7E0,8.2E1,4.7E2,8.6E1,1.5E1,2E0,4.8E2,8.4E1,2.17E2,5.9E1,4E0,1.2E1,3E0,2.5E1,8.8E1,9.6E1,1.2E1,3.4E1,2.6E1,3.2E1,6E0,7E0,1E0,7E0,3.4E1,2E0,3.3E1,2E0,2E0,5.7E1,1.5E1,1E0,4E0,4E0,3E0,2E0,3.2E1,1.4E1,4E0,6E0,5E0,1.4E1],"tree_param":{"num_deleted":"0","num_feature":"21","num_nodes":"115","size_leaf_vector":"1"}},{"base_weights":[6.189605E5,-6.632809E6,2.099264E8,-1.5109233E7,3.9037188E7,1.4714216E8,3.4873232E8,-1.8948244E7,1.4828212E7,2.0684824E7,9.2109064E7,1.2069562E8,2.3536534E8,3.1131587E8,6.051585E8,-2.1834826E7,-6.449282E6,1.2327671E7,8.568418E7,-1.0276669E7,3.0129576E7,7.249933E7,1.5238256E8,9.054073E7,1.5889054E8,2.906713E8,9.81398E7,2.487436E8,3.9336045E8,5.5353068E7,1.5180303E7,-2.3980496E7,-1.5384105E7,-1.4330966E7,2.2591525E6,-2.7316238E6,2.0594352E7,1.0136744E7,7.178045E7,-1.1750644E7,7.1498035E6,2.5251498E7,9.784878E7,6.025494E7,1.19102264E8,1.1958146E8,2.7973133E8,6.6530816E7,1.352072E8,1.6869224E8,4.255986E7,1.6417726E8,3.4194864E8,-2.750264E5,1.0723487E8,1.690004E8,3.405771E8,4.3449024E8,1.0903947E8,-1.2853929E6,-1.0420591E6,-9.561803E5,-5.3091994E5,-8.351418E5,-4.6363473E4,-2.5933386E5,7.4159725E5,2.3484838E6,-3.9342766E5,-1.9888602E4,1.4108666E6,1.367882E6,5.1923705E6,-6.874322E5,2.2793292E6,3.3382847E5,2.0905852E6,6.5064805E6,4.6122266E4,5.296233E5,3.31792E6,1.0086439E7,4.3685135E6,6.5408415E6,-1.3961978E6,7.491404E6,1.7921512E7,2.1546955E6,5.550527E6,7.999169E6,-2.9023472E5,4.158892E6,9.292353E6,-6.8994456E5,3.709448E6,2.248581E6,1.3719429E7,6.375528E6,1.8709318E7,5.8763245E6,-1.493212E5,