{"learner":{"attributes":{"scikit_learn":"{\"_estimator_type\": \"regressor\"}"},"feature_names":["runtime","budget","popularity","release_year","release_month","director_hist_rev","actor_hist_rev","is_debut_director","is_debut_actor","genre_Drama","genre_Comedy","genre_Action","genre_Thriller","genre_Romance","genre_Adventure","genre_Crime","genre_Horror","genre_Family","genre_Science Fiction","genre_Fantasy","genre_Mystery"],"feature_types":["int","int","float","int","int","float","float","int","int","int","int","int","int","int","int","int","int","int","int","int","int"],"gradient_booster":{"model":{"cats":{"enc":[],"feature_segments":[],"sorted_idx":[]},"gbtree_model_param":{"num_parallel_tree":"1","num_trees":"100"},"iteration_indptr":[0,1,2,3,4,5,6,7,8,9,10,11,12,13,14,15,16,17,18,19,20,21,22,23,24,25,26,27,28,29,30,31,32,33,34,35,36,37,38,39,40,41,42,43,44,45,46,47,48,49,50,51,52,53,54,55,56,57,58,59,60,61,62,63,64,65,66,67,68,69,70,71,72,73,74,75,76,77,78,79,80,81,82,83,84,85,86,87,88,89,90,91,92,93,94,95,96,97,98,99,100],"tree_info":[0,0,0,0,0,0,0,0,0,0,0,0,0,0,0,0,0,0,0,0,0,0,0,0,0,0,0,0,0,0,0,0,0,0,0,0,0,0,0,0,0,0,0,0,0,0,0,0,0,0,0,0,0,0,0,0,0,0,0,0,0,0,0,0,0,0,0,0,0,0,0,0,0,0,0,0,0,0,0,0,0,0,0,0,0,0,0,0,0,0,0,0,0,0,0,0,0,0,0,0],"trees":[{"base_weights":[1.0795395E0,-1.8996152E7,3.6519853E8,-3.961085E7,5.3001396E7,2.5756115E8,6.618547E8,-2.362966E6,5.9270215E4,8.01562E5,5.768479E6,7.574752E6,1.5844682E7,2.74188E7,4.7417868E7],"categories":[],"categories_nodes":[],"categories_segments":[],"categories_sizes":[],"default_left":[0,0,0,0,0,0,0,0,0,0,0,0,0,0,0],"id":0,"left_children":[1,3,5,7,9,11,13,-1,-1,-1,-1,-1,-1,-1,-1],"loss_changes":[5.3036166E19,1.0787836E19,1.1899561E19,1.7630196E18,3.7288727E18,1.7077856E18,2.7311385E18,0E0,0E0,0E0,0E0,0E0,0E0,0E0,0E0],"parents":[2147483647,0,0,1,1,2,2,3,3,4,4,5,5,6,6],"right_children":[2,4,6,8,10,12,14,-1,-1,-1,-1,-1,-1,-1,-1],"split_conditions":[9E7,2.007E1,5.2734E1,2.6E7,3.235E7,1.1E8,2E8,-2.362966E6,5.9270215E4,8.01562E5,5.768479E6,7.574752E6,1.5844682E7,2.74188E7,4.7417868E7],"split_indices":[1,2,2,1,1,1,1,0,0,0,0,0,0,0,0],"split_type":[0,0,0,0,0,0,0,0,0,0,0,0,0,0,0],"sum_hessian":[7.643E3,7.266E3,3.77E2,5.649E3,1.617E3,2.78E2,9.9E1,4.757E3,8.92E2,1.016E3,6.01E2,1.01E2,1.77E2,7.3E1,2.6E1],"tree_param":{"num_deleted":"0","num_feature":"21","num_nodes":"15","size_leaf_vector":"1"}},{"base_weights":[1.3414328E4,-1.8045756E7,3.4719853E8,-3.763071E7,5.0355384E7,2.4476704E8,6.295104E8,-2.2448428E6,5.6309934E4,9.693078E5,5.9090345E6,8.1044505E6,1.5895295E7,2.5279128E7,4.3290036E7],"categories":[],"categories_nodes":[],"categories_segments":[],"categories_sizes":[],"default_left":[0,0,0,0,0,0,0,0,0,0,0,0,0,0,0],"id":1,"left_children":[1,3,5,7,9,11,13,-1,-1,-1,-1,-1,-1,-1,-1],"loss_changes":[4.7933187E19,9.73701E18,1.0776775E19,1.5911648E18,3.3963136E18,1.6355774E18,2.4905654E18,0E0,0E0,0E0,0E0,0E0,0E0,0E0,0E0],"parents":[2147483647,0,0,1,1,2,2,3,3,4,4,5,5,6,6],"right_children":[2,4,6,8,10,12,14,-1,-1,-1,-1,-1,-1,-1,-1],"split_conditions":[9E7,2.007E1,5.2734E1,2.6E7,4E7,2.9496E1,1.8E8,-2.2448428E6,5.6309934E4,9.693078E5,5.9090345E6,8.1044505E6,1.5895295E7,2.5279128E7,4.3290036E7],"split_indices":[1,2,2,1,1,2,1,0,0,0,0,0,0,0,0],"split_type":[0,0,0,0,0,0,0,0,0,0,0,0,0,0,0],"sum_hessian":[7.643E3,7.266E3,3.77E2,5.649E3,1.617E3,2.78E2,9.9E1,4.757E3,8.92E2,1.111E3,5.06E2,1.32E2,1.46E2,6.7E1,3.2E1],"tree_param":{"num_deleted":"0","num_feature":"21","num_nodes":"15","size_leaf_vector":"1"}},{"base_weights":[2.5468508E4,-1.714282E7,3.300835E8,-3.4510316E7,5.2795428E7,2.326147E8,5.987205E8,-2.0069492E6,9.121102E5,5.688083E5,5.1190275E6,6.6495355E6,1.4419791E7,2.225203E7,3.883309E7],"categories":[],"categories_nodes":[],"categories_segments":[],"categories_sizes":[],"default_left":[0,0,0,0,0,0,0,0,0,0,0,0,0,0,0],"id":2,"left_children":[1,3,5,7,9,11,13,-1,-1,-1,-1,-1,-1,-1,-1],"loss_changes":[4.3320626E19,8.8287E18,9.758179E18,1.7294378E18,2.968599E18,1.5120858E18,2.388953E18,0E0,0E0,0E0,0E0,0E0,0E0,0E0,0E0],"parents":[2147483647,0,0,1,1,2,2,3,3,4,4,5,5,6,6],"right_children":[2,4,6,8,10,12,14,-1,-1,-1,-1,-1,-1,-1,-1],"split_conditions":[9E7,2.1011E1,5.2734E1,3.7E7,2.75E7,1.1E8,1.28E2,-2.0069492E6,9.121102E5,5.688083E5,5.1190275E6,6.6495355E6,1.4419791E7,2.225203E7,3.883309E7],"split_indices":[1,2,2,1,1,1,0,0,0,0,0,0,0,0,0],"split_type":[0,0,0,0,0,0,0,0,0,0,0,0,0,0,0],"sum_hessian":[7.643E3,7.266E3,3.77E2,5.821E3,1.445E3,2.78E2,9.9E1,5.26E3,5.61E2,7.88E2,6.57E2,1.01E2,1.77E2,5.5E1,4.4E1],"tree_param":{"num_deleted":"0","num_feature":"21","num_nodes":"15","size_leaf_vector":"1"}},{"base_weights":[3.5542637E4,-1.6285048E7,3.1379664E8,-3.0153638E7,6.3105556E7,2.2105949E8,5.693954E8,-2.112108E6,-1.7093275E4,1.5076929E6,6.6360265E6,9.688707E6,2.128064E7,2.3380046E7,4.1364944E7],"categories":[],"categories_nodes":[],"categories_segments":[],"categories_sizes":[],"default_left":[0,0,0,0,0,0,0,0,0,0,0,0,0,0,0],"id":3,"left_children":[1,3,5,7,9,11,13,-1,-1,-1,-1,-1,-1,-1,-1],"loss_changes":[3.9148252E19,8.003129E18,8.8340526E18,2.229659E18,2.4757382E18,1.4747123E18,2.2384693E18,0E0,0E0,0E0,0E0,0E0,0E0,0E0,0E0],"parents":[2147483647,0,0,1,1,2,2,3,3,4,4,5,5,6,6],"right_children":[2,4,6,8,10,12,14,-1,-1,-1,-1,-1,-1,-1,-1],"split_conditions":[9E7,2.3655E1,5.2734E1,1.8E7,4E7,1.8E8,2E8,-2.112108E6,-1.7093275E4,1.5076929E6,6.6360265E6,9.688707E6,2.128064E7,2.3380046E7,4.1364944E7],"split_indices":[1,2,2,1,1,1,1,0,0,0,0,0,0,0,0],"split_type":[0,0,0,0,0,0,0,0,0,0,0,0,0,0,0],"sum_hessian":[7.643E3,7.266E3,3.77E2,6.186E3,1.08E3,2.78E2,9.9E1,4.401E3,1.785E3,7.34E2,3.46E2,2.47E2,3.1E1,7.3E1,2.6E1],"tree_param":{"num_deleted":"0","num_feature":"21","num_nodes":"15","size_leaf_vector":"1"}},{"base_weights":[4.707397E4,-1.5469968E7,2.9836003E8,-3.2444104E7,4.3812684E7,2.0015013E8,5.1845354E8,-1.8553414E6,7.310802E5,3.7674975E5,4.418745E6,6.643446E6,1.3346533E7,2.0575742E7,3.7233204E7],"categories":[],"categories_nodes":[],"categories_segments":[],"categories_sizes":[],"default_left":[0,0,0,0,0,0,0,0,0,0,0,0,0,0,0],"id":4,"left_children":[1,3,5,7,9,11,13,-1,-1,-1,-1,-1,-1,-1,-1],"loss_changes":[3.538819E19,7.313999E18,8.06684E18,1.2404602E18,2.6150155E18,1.1462123E18,2.499676E18,0E0,0E0,0E0,0E0,0E0,0E0,0E0,0E0],"parents":[2147483647,0,0,1,1,2,2,3,3,4,4,5,5,6,6],"right_children":[2,4,6,8,10,12,14,-1,-1,-1,-1,-1,-1,-1,-1],"split_conditions":[9E7,2.007E1,4.6433E1,3.7E7,2.75E7,2.9496E1,1.8E8,-1.8553414E6,7.310802E5,3.7674975E5,4.418745E6,6.643446E6,1.3346533E7,2.0575742E7,3.7233204E7],"split_indices":[1,2,2,1,1,2,1,0,0,0,0,0,0,0,0],"split_type":[0,0,0,0,0,0,0,0,0,0,0,0,0,0,0],"sum_hessian":[7.643E3,7.266E3,3.77E2,5.649E3,1.617E3,2.62E2,1.15E2,5.14E3,5.09E2,8.92E2,7.25E2,1.32E2,1.3E2,8E1,3.5E1],"tree_param":{"num_deleted":"0","num_feature":"21","num_nodes":"15","size_leaf_vector":"1"}},{"base_weights":[5.5377785E4,-1.2459632E7,3.367272E8,-2.3343058E7,9.1786184E7,2.659574E8,6.409568E8,-1.5756291E6,1.5710305E6,3.2832972E6,1.2089191E7,1.1546903E7,2.0610468E7,2.3777842E7,4.1081844E7],"categories":[],"categories_nodes":[],"categories_segments":[],"categories_sizes":[],"default_left":[0,0,0,0,0,0,0,0,0,0,0,0,0,0,0],"id":5,"left_children":[1,3,5,7,9,11,13,-1,-1,-1,-1,-1,-1,-1,-1],"loss_changes":[3.2211816E19,8.3649234E18,5.728827E18,2.9873387E18,2.714951E18,1.0520534E18,1.1333722E18,0E0,0E0,0E0,0E0,0E0,0E0,0E0,0E0],"parents":[2147483647,0,0,1,1,2,2,3,3,4,4,5,5,6,6],"right_children":[2,4,6,8,10,12,14,-1,-1,-1,-1,-1,-1,-1,-1],"split_conditions":[1.02E8,2.9061E1,6.2104E1,3.7E7,7.1E7,1.8E8,1.8E8,-1.5756291E6,1.5710305E6,3.2832972E6,1.2089191E7,1.1546903E7,2.0610468E7,2.3777842E7,4.1081844E7],"split_indices":[1,2,2,1,1,1,1,0,0,0,0,0,0,0,0],"split_type":[0,0,0,0,0,0,0,0,0,0,0,0,0,0,0],"sum_hessian":[7.643E3,7.37E3,2.73E2,6.674E3,6.96E2,2.23E2,5E1,5.808E3,8.66E2,5.94E2,1.02E2,1.82E2,4.1E1,2.8E1,2.2E1],"tree_param":{"num_deleted":"0","num_feature":"21","num_nodes":"15","size_leaf_vector":"1"}},{"base_weights":[6.731035E4,-1.1424084E7,3.317464E8,-2.643555E7,6.0649348E7,2.436345E8,5.623918E8,-1.8515594E6,-1.3692487E4,1.5261244E6,7.5561715E6,1.0276278E7,1.8716338E7,1.9345316E7,3.5869036E7],"categories":[],"categories_nodes":[],"categories_segments":[],"categories_sizes":[],"default_left":[0,0,0,0,0,0,0,0,0,0,0,0,0,0,0],"id":6,"left_children":[1,3,5,7,9,11,13,-1,-1,-1,-1,-1,-1,-1,-1],"loss_changes":[2.9138553E19,7.9959685E18,5.0655666E18,1.6953441E18,3.4679295E18,8.544283E17,1.6263228E18,0E0,0E0,0E0,0E0,0E0,0E0,0E0,0E0],"parents":[2147483647,0,0,1,1,2,2,3,3,4,4,5,5,6,6],"right_children":[2,4,6,8,10,12,14,-1,-1,-1,-1,-1,-1,-1,-1],"split_conditions":[1.1E8,2.2704E1,5.5481E1,1.8E7,5.1E7,1.36E2,1.28E2,-1.8515594E6,-1.3692487E4,1.5261244E6,7.5561715E6,1.0276278E7,1.8716338E7,1.9345316E7,3.5869036E7],"split_indices":[1,2,2,1,1,0,0,0,0,0,0,0,0,0,0],"split_type":[0,0,0,0,0,0,0,0,0,0,0,0,0,0,0],"sum_hessian":[7.643E3,7.388E3,2.55E2,6.115E3,1.273E3,1.86E2,6.9E1,4.352E3,1.763E3,9.56E2,3.17E2,1.46E2,4E1,3.4E1,3.5E1],"tree_param":{"num_deleted":"0","num_feature":"21","num_nodes":"15","size_leaf_vector":"1"}},{"base_weights":[7.590517E4,-1.1247671E7,3.0469635E8,-2.120337E7,8.411178E7,2.4011485E8,5.82374E8,-1.6727746E6,4.916796E5,3.0021852E6,1.1116459E7,8.483968E6,1.5153999E7,2.5268862E7,4.970786E7],"categories":[],"categories_nodes":[],"categories_segments":[],"categories_sizes":[],"default_left":[0,0,0,0,0,0,0,0,0,0,0,0,0,0,0],"id":7,"left_children":[1,3,5,7,9,11,13,-1,-1,-1,-1,-1,-1,-1,-1],"loss_changes":[2.6370588E19,6.9995894E18,4.773763E18,2.5386217E18,2.3053092E18,9.420077E17,1.11458043E18,0E0,0E0,0E0,0E0,0E0,0E0,0E0,0E0],"parents":[2147483647,0,0,1,1,2,2,3,3,4,4,5,5,6,6],"right_children":[2,4,6,8,10,12,14,-1,-1,-1,-1,-1,-1,-1,-1],"split_conditions":[1.02E8,2.9061E1,6.2104E1,1.6268E1,7.1E7,3.2669E1,1.62E2,-1.6727746E6,4.916796E5,3.0021852E6,1.1116459E7,8.483968E6,1.5153999E7,2.5268862E7,4.970786E7],"split_indices":[1,2,2,2,1,2,0,0,0,0,0,0,0,0,0],"split_type":[0,0,0,0,0,0,0,0,0,0,0,0,0,0,0],"sum_hessian":[7.643E3,7.37E3,2.73E2,6.674E3,6.96E2,2.23E2,5E1,4.785E3,1.889E3,5.94E2,1.02E2,1.07E2,1.16E2,4.4E1,6E0],"tree_param":{"num_deleted":"0","num_feature":"21","num_nodes":"15","size_leaf_vector":"1"}},{"base_weights":[8.6704266E4,-1.5792852E7,1.9718806E8,-3.126258E7,2.1296034E7,1.279272E8,4.0701062E8,-1.9009256E6,-9.1579194E5,-7.9562244E5,2.0419026E6,4.0243285E6,1.0219141E7,1.5800272E7,2.940432E7],"categories":[],"categories_nodes":[],"categories_segments":[],"categories_sizes":[],"default_left":[0,0,0,0,0,0,0,0,0,0,0,0,0,0,0],"id":8,"left_children":[1,3,5,7,9,11,13,-1,-1,-1,-1,-1,-1,-1,-1],"loss_changes":[2.3927933E19,4.0599824E18,8.231452E18,4.3602838E17,1.5152591E18,1.5432042E18,2.1376771E18,0E0,0E0,0E0,0E0,0E0,0E0,0E0,0E0],"parents":[2147483647,0,0,1,1,2,2,3,3,4,4,5,5,6,6],"right_children":[2,4,6,8,10,12,14,-1,-1,-1,-1,-1,-1,-1,-1],"split_conditions":[7.1E7,1.737E1,4.4769E1,1.1997E1,1.3E7,2.9061E1,1.34E2,-1.9009256E6,-9.1579194E5,-7.9562244E5,2.0419026E6,4.0243285E6,1.0219141E7,1.5800272E7,2.940432E7],"split_indices":[1,2,2,2,1,2,0,0,0,0,0,0,0,0,0],"split_type":[0,0,0,0,0,0,0,0,0,0,0,0,0,0,0],"sum_hessian":[7.643E3,7.074E3,5.69E2,4.992E3,2.082E3,4.29E2,1.4E2,3.279E3,1.713E3,7.17E2,1.365E3,2.66E2,1.63E2,9.5E1,4.5E1],"tree_param":{"num_deleted":"0","num_feature":"21","num_nodes":"15","size_leaf_vector":"1"}},{"base_weights":[8.994014E4,-9.877473E6,2.8778182E8,-1.926558E7,7.8740056E7,2.106444E8,4.897378E8,-1.5080072E6,5.6213606E5,2.050131E6,7.6782115E6,8.755073E6,1.6647061E7,2.1479776E7,4.5107052E7],"categories":[],"categories_nodes":[],"categories_segments":[],"categories_sizes":[],"default_left":[0,0,0,0,0,0,0,0,0,0,0,0,0,0,0],"id":9,"left_children":[1,3,5,7,9,11,13,-1,-1,-1,-1,-1,-1,-1,-1],"loss_changes":[2.1922349E19,6.148802E18,3.8848978E18,2.2212667E18,1.9928635E18,7.545514E17,1.3486456E18,0E0,0E0,0E0,0E0,0E0,0E0,0E0,0E0],"parents":[2147483647,0,0,1,1,2,2,3,3,4,4,5,5,6,6],"right_children":[2,4,6,8,10,12,14,-1,-1,-1,-1,-1,-1,-1,-1],"split_conditions":[1.1E8,2.9061E1,5.5481E1,2.1E7,4.5E7,1.36E2,1.62E2,-1.5080072E6,5.6213606E5,2.050131E6,7.6782115E6,8.755073E6,1.6647061E7,2.1479776E7,4.5107052E7],"split_indices":[1,2,2,1,1,0,0,0,0,0,0,0,0,0,0],"split_type":[0,0,0,0,0,0,0,0,0,0,0,0,0,0,0],"sum_hessian":[7.643E3,7.388E3,2.55E2,6.681E3,7.07E2,1.86E2,6.9E1,4.923E3,1.758E3,4.71E2,2.36E2,1.46E2,4E1,6.2E1,7E0],"tree_param":{"num_deleted":"0","num_feature":"21","num_nodes":"15","size_leaf_vector":"1"}},{"base_weights":[9.862695E4,-9.38241E6,2.7375206E8,-2.1267064E7,5.4000268E7,2.1444957E8,5.1378938E8,-1.5190818E6,2.7909166E5,1.3846998E6,6.8617935E6,9.09737E6,1.6890232E7,2.213146E7,4.4384176E7],"categories":[],"categories_nodes":[],"categories_segments":[],"categories_sizes":[],"default_left":[0,0,0,0,0,0,0,0,0,0,0,0,0,0,0],"id":10,"left_children":[1,3,5,7,9,11,13,-1,-1,-1,-1,-1,-1,-1,-1],"loss_changes":[1.9835067E19,5.5671435E18,3.5339293E18,1.523038E18,2.551484E18,7.684641E17,9.374051E17,0E0,0E0,0E0,0E0,0E0,0E0,0E0,0E0],"parents":[2147483647,0,0,1,1,2,2,3,3,4,4,5,5,6,6],"right_children":[2,4,6,8,10,12,14,-1,-1,-1,-1,-1,-1,-1,-1],"split_conditions":[1.1E8,3.7E7,6.2104E1,1.7079E1,2.9496E1,1.8E8,1.62E2,-1.5190818E6,2.7909166E5,1.3846998E6,6.8617935E6,9.09737E6,1.6890232E7,2.213146E7,4.4384176E7],"split_indices":[1,1,2,2,2,1,0,0,0,0,0,0,0,0,0],"split_type":[0,0,0,0,0,0,0,0,0,0,0,0,0,0,0],"sum_hessian":[7.643E3,7.388E3,2.55E2,6.222E3,1.166E3,2.06E2,4.9E1,4.645E3,1.577E3,8.87E2,2.79E2,1.65E2,4.1E1,4.3E1,6E0],"tree_param":{"num_deleted":"0","num_feature":"21","num_nodes":"15","size_leaf_vector":"1"}},{"base_weights":[1.0671311E5,-1.3711799E7,1.7162578E8,-2.8447092E7,1.6060227E7,1.1072175E8,3.5614426E8,-1.7952214E6,-1.0360577E6,4.3811475E5,4.7538455E6,3.5009528E6,8.81563E6,1.4781891E7,2.8981492E7],"categories":[],"categories_nodes":[],"categories_segments":[],"categories_sizes":[],"default_left":[0,0,0,0,0,0,0,0,0,0,0,0,0,0,0],"id":11,"left_children":[1,3,5,7,9,11,13,-1,-1,-1,-1,-1,-1,-1,-1],"loss_changes":[1.8119689E19,3.104256E18,6.36618E18,2.7194743E17,1.3502772E18,1.1356355E18,1.7352855E18,0E0,0E0,0E0,0E0,0E0,0E0,0E0,0E0],"parents":[2147483647,0,0,1,1,2,2,3,3,4,4,5,5,6,6],"right_children":[2,4,6,8,10,12,14,-1,-1,-1,-1,-1,-1,-1,-1],"split_conditions":[7.1E7,1.6268E1,4.4769E1,5.5E6,4.1522E1,2.9061E1,2E8,-1.7952214E6,-1.0360577E6,4.3811475E5,4.7538455E6,3.5009528E6,8.81563E6,1.4781891E7,2.8981492E7],"split_indices":[1,2,2,1,2,2,1,0,0,0,0,0,0,0,0],"split_type":[0,0,0,0,0,0,0,0,0,0,0,0,0,0,0],"sum_hessian":[7.643E3,7.074E3,5.69E2,4.732E3,2.342E3,4.29E2,1.4E2,2.406E3,2.326E3,2.145E3,1.97E2,2.66E2,1.63E2,1.12E2,2.8E1],"tree_param":{"num_deleted":"0","num_feature":"21","num_nodes":"15","size_leaf_vector":"1"}},{"base_weights":[1.0902173E5,-8.519533E6,2.49157E8,-1.9357016E7,4.9871604E7,1.9471877E8,4.6954813E8,-1.5018564E6,-8.665918E4,1.2837988E6,5.992329E6,7.5369105E6,1.4120173E7,1.4515832E7,2.9466276E7],"categories":[],"categories_nodes":[],"categories_segments":[],"categories_sizes":[],"default_left":[0,0,0,0,0,0,0,0,0,0,0,0,0,0,0],"id":12,"left_children":[1,3,5,7,9,11,13,-1,-1,-1,-1,-1,-1,-1,-1],"loss_changes":[1.6428498E19,4.67682E18,2.9799822E18,1.1731511E18,1.9558264E18,7.5571083E17,9.023043E17,0E0,0E0,0E0,0E0,0E0,0E0,0E0,0E0],"parents":[2147483647,0,0,1,1,2,2,3,3,4,4,5,5,6,6],"right_children":[2,4,6,8,10,12,14,-1,-1,-1,-1,-1,-1,-1,-1],"split_conditions":[1.1E8,2.3655E1,6.2104E1,1.244056E7,5.1E7,1.884004E8,1.28E2,-1.5018564E6,-8.665918E4,1.2837988E6,5.992329E6,7.5369105E6,1.4120173E7,1.4515832E7,2.9466276E7],"split_indices":[1,2,2,1,1,6,0,0,0,0,0,0,0,0,0],"split_type":[0,0,0,0,0,0,0,0,0,0,0,0,0,0,0],"sum_hessian":[7.643E3,7.388E3,2.55E2,6.232E3,1.156E3,2.06E2,4.9E1,3.88E3,2.352E3,8.6E2,2.96E2,1.39E2,6.7E1,2.1E1,2.8E1],"tree_param":{"num_deleted":"0","num_feature":"21","num_nodes":"15","size_leaf_vector":"1"}},{"base_weights":[1.1290124E5,-1.2444842E7,1.5598294E8,-2.436963E7,1.8403932E7,9.201556E7,3.0470205E8,-1.5302089E6,-6.5725094E5,-2.4092753E5,2.1407138E6,3.9605705E6,1.4465674E7,1.1727776E7,2.2617132E7],"categories":[],"categories_nodes":[],"categories_segments":[],"categories_sizes":[],"default_left":[0,0,0,0,0,0,0,0,0,0,0,0,0,0,0],"id":13,"left_children":[1,3,5,7,9,11,13,-1,-1,-1,-1,-1,-1,-1,-1],"loss_changes":[1.4964123E19,2.603094E18,5.394471E18,3.567074E17,1.1186385E18,9.875756E17,1.6648574E18,0E0,0E0,0E0,0E0,0E0,0E0,0E0,0E0],"parents":[2147483647,0,0,1,1,2,2,3,3,4,4,5,5,6,6],"right_children":[2,4,6,8,10,12,14,-1,-1,-1,-1,-1,-1,-1,-1],"split_conditions":[7.1E7,1.7847E1,4.0216E1,1.1997E1,2.1E7,1.8E8,1.33E2,-1.5302089E6,-6.5725094E5,-2.4092753E5,2.1407138E6,3.9605705E6,1.4465674E7,1.1727776E7,2.2617132E7],"split_indices":[1,2,2,2,1,1,0,0,0,0,0,0,0,0,0],"split_type":[0,0,0,0,0,0,0,0,0,0,0,0,0,0,0],"sum_hessian":[7.643E3,7.074E3,5.69E2,5.102E3,1.972E3,3.99E2,1.7E2,3.279E3,1.823E3,1.011E3,9.61E2,3.76E2,2.3E1,1.17E2,5.3E1],"tree_param":{"num_deleted":"0","num_feature":"21","num_nodes":"15","size_leaf_vector":"1"}},{"base_weights":[1.1412212E5,-7.738308E6,2.2676058E8,-1.5172559E7,6.5276708E7,1.6425306E8,3.9050554E8,-9.718425E5,1.9545419E6,9.566055E5,5.368038E6,6.605934E6,1.3773018E7,1.6863914E7,3.804286E7],"categories":[],"categories_nodes":[],"categories_segments":[],"categories_sizes":[],"default_left":[0,0,0,0,0,0,0,0,0,0,0,0,0,0,0],"id":14,"left_children":[1,3,5,7,9,11,13,-1,-1,-1,-1,-1,-1,-1,-1],"loss_changes":[1.3605975E19,4.0118277E18,2.556094E18,1.5527254E18,1.3242988E18,6.3186514E17,1.1232754E18,0E0,0E0,0E0,0E0,0E0,0E0,0E0,0E0],"parents":[2147483647,0,0,1,1,2,2,3,3,4,4,5,5,6,6],"right_children":[2,4,6,8,10,12,14,-1,-1,-1,-1,-1,-1,-1,-1],"split_conditions":[1.1E8,2.9496E1,5.5481E1,5.1E7,2.75E7,1.36E2,1.62E2,-9.718425E5,1.9545419E6,9.566055E5,5.368038E6,6.605934E6,1.3773018E7,1.6863914E7,3.804286E7],"split_indices":[1,2,2,1,1,0,0,0,0,0,0,0,0,0,0],"split_type":[0,0,0,0,0,0,0,0,0,0,0,0,0,0,0],"sum_hessian":[7.643E3,7.388E3,2.55E2,6.706E3,6.82E2,1.86E2,6.9E1,6.218E3,4.88E2,3.26E2,3.56E2,1.46E2,4E1,6.2E1,7E0],"tree_param":{"num_deleted":"0","num_feature":"21","num_nodes":"15","size_leaf_vector":"1"}},{"base_weights":[1.1922194E5,-1.1278667E7,1.4159282E8,-2.3750326E7,1.3919645E7,9.008531E7,2.9766822E8,-1.4487235E6,-7.626136E5,-7.5541144E5,1.4867579E6,3.405272E6,9.12676E6,1.2245795E7,2.4647792E7],"categories":[],"categories_nodes":[],"categories_segments":[],"categories_sizes":[],"default_left":[0,0,0,0,0,0,0,0,0,0,0,0,0,0,0],"id":15,"left_children":[1,3,5,7,9,11,13,-1,-1,-1,-1,-1,-1,-1,-1],"loss_changes":[1.2327548E19,2.223754E18,4.555445E18,2.0967962E17,1.07609856E18,8.613442E17,1.3318307E18,0E0,0E0,0E0,0E0,0E0,0E0,0E0,0E0],"parents":[2147483647,0,0,1,1,2,2,3,3,4,4,5,5,6,6],"right_children":[2,4,6,8,10,12,14,-1,-1,-1,-1,-1,-1,-1,-1],"split_conditions":[7.1E7,1.6268E1,4.4769E1,1.0996E1,1.3E7,1.4E8,2E8,-1.4487235E6,-7.626136E5,-7.5541144E5,1.4867579E6,3.405272E6,9.12676E6,1.2245795E7,2.4647792E7],"split_indices":[1,2,2,2,1,1,1,0,0,0,0,0,0,0,0],"split_type":[0,0,0,0,0,0,0,0,0,0,0,0,0,0,0],"sum_hessian":[7.643E3,7.074E3,5.69E2,4.732E3,2.342E3,4.29E2,1.4E2,2.929E3,1.803E3,8.26E2,1.516E3,3.48E2,8.1E1,1.12E2,2.8E1],"tree_param":{"num_deleted":"0","num_feature":"21","num_nodes":"15","size_leaf_vector":"1"}},{"base_weights":[1.1953279E5,-7.0055945E6,2.0577362E8,-1.3853979E7,6.0255196E7,1.5936371E8,3.9379514E8,-9.33735E5,1.3004674E6,2.3121615E6,9.419572E6,5.900679E6,1.2107639E7,1.6566147E7,3.6511056E7],"categories":[],"categories_nodes":[],"categories_segments":[],"categories_sizes":[],"default_left":[0,0,0,0,0,0,0,0,0,0,0,0,0,0,0],"id":16,"left_children":[1,3,5,7,9,11,13,-1,-1,-1,-1,-1,-1,-1,-1],"loss_changes":[1.1202283E19,3.4044135E18,2.1711155E18,1.2893698E18,1.2175744E18,6.80054E17,8.0892445E17,0E0,0E0,0E0,0E0,0E0,0E0,0E0,0E0],"parents":[2147483647,0,0,1,1,2,2,3,3,4,4,5,5,6,6],"right_children":[2,4,6,8,10,12,14,-1,-1,-1,-1,-1,-1,-1,-1],"split_conditions":[1.1E8,2.9496E1,6.2104E1,4.2E7,1.7934296E8,1.884004E8,1.62E2,-9.33735E5,1.3004674E6,2.3121615E6,9.419572E6,5.900679E6,1.2107639E7,1.6566147E7,3.6511056E7],"split_indices":[1,2,2,1,5,6,0,0,0,0,0,0,0,0,0],"split_type":[0,0,0,0,0,0,0,0,0,0,0,0,0,0,0],"sum_hessian":[7.643E3,7.388E3,2.55E2,6.706E3,6.82E2,2.06E2,4.9E1,5.983E3,7.23E2,6.16E2,6.6E1,1.39E2,6.7E1,4.3E1,6E0],"tree_param":{"num_deleted":"0","num_feature":"21","num_nodes":"15","size_leaf_vector":"1"}},{"base_weights":[1.2443981E5,-1.0250136E7,1.2889637E8,-2.2134628E7,1.2123995E7,7.457595E7,2.552079E8,-1.4055562E6,-7.901178E5,3.0686672E5,4.016744E6,3.1640692E6,1.244437E7,9.685698E6,1.9242874E7],"categories":[],"categories_nodes":[],"categories_segments":[],"categories_sizes":[],"default_left":[0,0,0,0,0,0,0,0,0,0,0,0,0,0,0],"id":17,"left_children":[1,3,5,7,9,11,13,-1,-1,-1,-1,-1,-1,-1,-1],"loss_changes":[1.0213354E19,1.8815475E18,3.891906E18,1.7443683E17,1.00201944E18,7.717589E17,1.2887739E18,0E0,0E0,0E0,0E0,0E0,0E0,0E0,0E0],"parents":[2147483647,0,0,1,1,2,2,3,3,4,4,5,5,6,6],"right_children":[2,4,6,8,10,12,14,-1,-1,-1,-1,-1,-1,-1,-1],"split_conditions":[7.1E7,1.5851E1,4.0216E1,5.5E6,4.1522E1,1.8E8,1.33E2,-1.4055562E6,-7.901178E5,3.0686672E5,4.016744E6,3.1640692E6,1.244437E7,9.685698E6,1.9242874E7],"split_indices":[1,2,2,1,2,1,0,0,0,0,0,0,0,0,0],"split_type":[0,0,0,0,0,0,0,0,0,0,0,0,0,0,0],"sum_hessian":[7.643E3,7.074E3,5.69E2,4.62E3,2.454E3,3.99E2,1.7E2,2.375E3,2.245E3,2.257E3,1.97E2,3.76E2,2.3E1,1.17E2,5.3E1],"tree_param":{"num_deleted":"0","num_feature":"21","num_nodes":"15","size_leaf_vector":"1"}},{"base_weights":[1.2432226E5,-6.359009E6,1.8725405E8,-1.0036501E7,9.869562E7,1.3305818E8,3.293594E8,-9.15287E5,9.9606144E5,3.8884732E6,1.3799567E7,2.7789118E6,9.460935E6,9.193127E6,2.4346032E7],"categories":[],"categories_nodes":[],"categories_segments":[],"categories_sizes":[],"default_left":[0,0,0,0,0,0,0,0,0,0,0,0,0,0,0],"id":18,"left_children":[1,3,5,7,9,11,13,-1,-1,-1,-1,-1,-1,-1,-1],"loss_changes":[9.275075E18,2.855639E18,1.927766E18,1.7691398E18,9.060655E17,8.031795E17,1.5152001E18,0E0,0E0,0E0,0E0,0E0,0E0,0E0,0E0],"parents":[2147483647,0,0,1,1,2,2,3,3,4,4,5,5,6,6],"right_children":[2,4,6,8,10,12,14,-1,-1,-1,-1,-1,-1,-1,-1],"split_conditions":[1.1E8,4.1522E1,1.36E2,2.75E7,2.1081962E8,3.2669E1,1.8E8,-9.15287E5,9.9606144E5,3.8884732E6,1.3799567E7,2.7789118E6,9.460935E6,9.193127E6,2.4346032E7],"split_indices":[1,2,0,1,5,2,1,0,0,0,0,0,0,0,0],"split_type":[0,0,0,0,0,0,0,0,0,0,0,0,0,0,0],"sum_hessian":[7.643E3,7.388E3,2.55E2,7.139E3,2.49E2,1.86E2,6.9E1,5.595E3,1.544E3,2.24E2,2.5E1,7.9E1,1.07E2,3.7E1,3.2E1],"tree_param":{"num_deleted":"0","num_feature":"21","num_nodes":"15","size_leaf_vector":"1"}},{"base_weights":[1.26419984E5,-1.0643886E7,1.03398856E8,-2.059424E7,8.554193E6,7.196794E7,2.6047757E8,-1.2896698E6,-7.4779906E5,2.8827338E5,6.502219E6,2.7764282E6,9.348039E6,1.0902806E7,2.4437582E7],"categories":[],"categories_nodes":[],"categories_segments":[],"categories_sizes":[],"default_left":[0,0,0,0,0,0,0,0,0,0,0,0,0,0,0],"id":19,"left_children":[1,3,5,7,9,11,13,-1,-1,-1,-1,-1,-1,-1,-1],"loss_changes":[8.5033365E18,1.3226608E18,3.5458612E18,1.3328692E17,8.0018E17,1.1295357E18,1.05547124E18,0E0,0E0,0E0,0E0,0E0,0E0,0E0,0E0],"parents":[2147483647,0,0,1,1,2,2,3,3,4,4,5,5,6,6],"right_children":[2,4,6,8,10,12,14,-1,-1,-1,-1,-1,-1,-1,-1],"split_conditions":[6.1E7,1.5773E1,5.2734E1,5.5E6,6.2104E1,2.8457885E8,1.56E2,-1.2896698E6,-7.4779906E5,2.8827338E5,6.502219E6,2.7764282E6,9.348039E6,1.0902806E7,2.4437582E7],"split_indices":[1,2,2,1,2,5,0,0,0,0,0,0,0,0,0],"split_type":[0,0,0,0,0,0,0,0,0,0,0,0,0,0,0],"sum_hessian":[7.643E3,6.922E3,7.21E2,4.559E3,2.363E3,6.02E2,1.19E2,2.37E3,2.189E3,2.311E3,5.2E1,5.28E2,7.4E1,1.02E2,1.7E1],"tree_param":{"num_deleted":"0","num_feature":"21","num_nodes":"15","size_leaf_vector":"1"}},{"base_weights":[1.2693091E5,-5.7999635E6,1.7119606E8,-1.4771737E7,3.108387E7,1.20744664E8,3.0352768E8,-9.741706E5,1.1972795E5,1.1093046E6,6.460972E6,5.498759E6,2.4537962E7,8.3635785E6,2.2561542E7],"categories":[],"categories_nodes":[],"categories_segments":[],"categories_sizes":[],"default_left":[0,0,0,0,0,0,0,0,0,0,0,0,0,0,0],"id":20,"left_children":[1,3,5,7,9,11,13,-1,-1,-1,-1,-1,-1,-1,-1],"loss_changes":[7.7513107E18,2.4455783E18,1.6724869E18,4.8080943E17,1.2597637E18,6.9119946E17,1.3333041E18,0E0,0E0,0E0,0E0,0E0,0E0,0E0,0E0],"parents":[2147483647,0,0,1,1,2,2,3,3,4,4,5,5,6,6],"right_children":[2,4,6,8,10,12,14,-1,-1,-1,-1,-1,-1,-1,-1],"split_conditions":[1.1E8,2.162E1,1.36E2,2.8356188E7,1.7934296E8,4.9405504E8,1.8E8,-9.741706E5,1.1972795E5,1.1093046E6,6.460972E6,5.498759E6,2.4537962E7,8.3635785E6,2.2561542E7],"split_indices":[1,2,0,5,5,6,1,0,0,0,0,0,0,0,0],"split_type":[0,0,0,0,0,0,0,0,0,0,0,0,0,0,0],"sum_hessian":[7.643E3,7.388E3,2.55E2,5.943E3,1.445E3,1.86E2,6.9E1,4.663E3,1.28E3,1.326E3,1.19E2,1.82E2,4E0,3.7E1,3.2E1],"tree_param":{"num_deleted":"0","num_feature":"21","num_nodes":"15","size_leaf_vector":"1"}},{"base_weights":[1.2943799E5,-9.718129E6,9.455406E7,-1.278587E7,4.480425E7,6.547178E7,2.3990458E8,-1.0723006E6,-3.563247E4,1.5872199E6,6.1035795E6,2.5206648E6,8.540568E6,8.746677E6,1.8775086E7],"categories":[],"categories_nodes":[],"categories_segments":[],"categories_sizes":[],"default_left":[0,0,0,0,0,0,0,0,0,0,0,0,0,0,0],"id":21,"left_children":[1,3,5,7,9,11,13,-1,-1,-1,-1,-1,-1,-1,-1],"loss_changes":[7.108714E18,1.1585175E18,3.0362772E18,6.853479E17,3.684829E17,9.479005E17,9.914989E17,0E0,0E0,0E0,0E0,0E0,0E0,0E0,0E0],"parents":[2147483647,0,0,1,1,2,2,3,3,4,4,5,5,6,6],"right_children":[2,4,6,8,10,12,14,-1,-1,-1,-1,-1,-1,-1,-1],"split_conditions":[6.1E7,3.3856E1,5.2734E1,1.1E7,6.2104E1,2.8457885E8,2.1016027E8,-1.0723006E6,-3.563247E4,1.5872199E6,6.1035795E6,2.5206648E6,8.540568E6,8.746677E6,1.8775086E7],"split_indices":[1,2,2,1,2,5,6,0,0,0,0,0,0,0,0],"split_type":[0,0,0,0,0,0,0,0,0,0,0,0,0,0,0],"sum_hessian":[7.643E3,6.922E3,7.21E2,6.554E3,3.68E2,6.02E2,1.19E2,3.816E3,2.738E3,3.16E2,5.2E1,5.28E2,7.4E1,8.2E1,3.7E1],"tree_param":{"num_deleted":"0","num_feature":"21","num_nodes":"15","size_leaf_vector":"1"}},{"base_weights":[1.288741E5,-4.939968E6,1.6728744E8,-1.0595161E7,4.9365028E7,1.3124656E8,3.5918806E8,-7.820904E5,6.894685E5,5.3602194E5,4.2503755E6,3.9349218E6,1.0318251E7,2.163401E7,6.6094855E6],"categories":[],"categories_nodes":[],"categories_segments":[],"categories_sizes":[],"default_left":[0,0,0,0,0,0,0,0,0,0,0,0,0,0,0],"id":22,"left_children":[1,3,5,7,9,11,13,-1,-1,-1,-1,-1,-1,-1,-1],"loss_changes":[6.47759E18,2.2792438E18,1.5090187E18,8.273025E17,9.63261E17,7.377E17,5.2669466E17,0E0,0E0,0E0,0E0,0E0,0E0,0E0,0E0],"parents":[2147483647,0,0,1,1,2,2,3,3,4,4,5,5,6,6],"right_children":[2,4,6,8,10,12,14,-1,-1,-1,-1,-1,-1,-1,-1],"split_conditions":[1.2E8,2.9496E1,7.3018E1,4.956847E7,2.9E7,1.6836402E8,2.014E3,-7.820904E5,6.894685E5,5.3602194E5,4.2503755E6,3.9349218E6,1.0318251E7,2.163401E7,6.6094855E6],"split_indices":[1,2,2,5,1,6,3,0,0,0,0,0,0,0,0],"split_type":[0,0,0,0,0,0,0,0,0,0,0,0,0,0,0],"sum_hessian":[7.643E3,7.419E3,2.24E2,6.72E3,6.99E2,1.9E2,3.4E1,5.568E3,1.152E3,3.36E2,3.63E2,1.13E2,7.7E1,2.5E1,9E0],"tree_param":{"num_deleted":"0","num_feature":"21","num_nodes":"15","size_leaf_vector":"1"}},{"base_weights":[1.28604164E5,-6.067243E6,1.25143624E8,-1.1621271E7,4.388924E7,6.642043E7,2.1524194E8,-9.859663E5,1.2188799E3,9.728505E6,1.935239E6,2.5038158E6,2.0231966E7,8.680629E6,2.1154012E7],"categories":[],"categories_nodes":[],"categories_segments":[],"categories_sizes":[],"default_left":[0,0,0,0,0,0,0,0,0,0,0,0,0,0,0],"id":23,"left_children":[1,3,5,7,9,11,13,-1,-1,-1,-1,-1,-1,-1,-1],"loss_changes":[5.9216024E18,2.0215268E18,1.8957043E18,6.1827786E17,5.619634E17,1.1958728E18,1.1551568E18,0E0,0E0,0E0,0E0,0E0,0E0,0E0,0E0],"parents":[2147483647,0,0,1,1,2,2,3,3,4,4,5,5,6,6],"right_children":[2,4,6,8,10,12,14,-1,-1,-1,-1,-1,-1,-1,-1],"split_conditions":[4.1522E1,5.1E7,1E0,1.1E7,8.624E0,1.8E8,2.9692227E8,-9.859663E5,1.2188799E3,9.728505E6,1.935239E6,2.5038158E6,2.0231966E7,8.680629E6,2.1154012E7],"split_indices":[2,1,14,1,2,1,6,0,0,0,0,0,0,0,0],"split_type":[0,0,0,0,0,0,0,0,0,0,0,0,0,0,0],"sum_hessian":[7.643E3,7.283E3,3.6E2,6.555E3,7.28E2,2.19E2,1.41E2,3.866E3,2.689E3,2.3E1,7.05E2,2.1E2,9E0,1.19E2,2.2E1],"tree_param":{"num_deleted":"0","num_feature":"21","num_nodes":"15","size_leaf_vector":"1"}},{"base_weights":[1.3044868E5,-7.420692E6,9.3857096E7,-1.8117292E7,7.31838E6,5.274215E7,1.8948354E8,-1.0714142E6,-7.0884094E5,-6.1276606E5,9.670493E5,1.179367E7,2.1998878E6,7.5513215E6,1.6475125E7],"categories":[],"categories_nodes":[],"categories_segments":[],"categories_sizes":[],"default_left":[0,0,0,0,0,0,0,0,0,0,0,0,0,0,0],"id":24,"left_children":[1,3,5,7,9,11,13,-1,-1,-1,-1,-1,-1,-1,-1],"loss_changes":[5.4106846E18,1.1155627E18,2.2310608E18,5.3188325E16,7.0056985E17,6.3017114E17,8.710243E17,0E0,0E0,0E0,0E0,0E0,0E0,0E0,0E0],"parents":[2147483647,0,0,1,1,2,2,3,3,4,4,5,5,6,6],"right_children":[2,4,6,8,10,12,14,-1,-1,-1,-1,-1,-1,-1,-1],"split_conditions":[7.1E7,1.4247E1,4.0216E1,8.733E0,1.3E7,8.624E0,3.5056595E8,-1.0714142E6,-7.0884094E5,-6.1276606E5,9.670493E5,1.179367E7,2.1998878E6,7.5513215E6,1.6475125E7],"split_indices":[1,2,2,2,1,2,5,0,0,0,0,0,0,0,0],"split_type":[0,0,0,0,0,0,0,0,0,0,0,0,0,0,0],"sum_hessian":[7.643E3,7.074E3,5.69E2,4.099E3,2.975E3,3.99E2,1.7E2,2.225E3,1.874E3,1.132E3,1.843E3,1.7E1,3.82E2,1.35E2,3.5E1],"tree_param":{"num_deleted":"0","num_feature":"21","num_nodes":"15","size_leaf_vector":"1"}},{"base_weights":[1.28713664E5,-4.311022E6,1.4654075E8,-9.325956E6,4.3845668E7,1.06269416E8,2.8536506E8,-6.873832E5,6.019509E5,1.2964125E6,5.642338E6,2.6720072E6,9.003864E6,6.3803295E6,2.0238038E7],"categories":[],"categories_nodes":[],"categories_segments":[],"categories_sizes":[],"default_left":[0,0,0,0,0,0,0,0,0,0,0,0,0,0,0],"id":25,"left_children":[1,3,5,7,9,11,13,-1,-1,-1,-1,-1,-1,-1,-1],"loss_changes":[4.969467E18,1.7923586E18,1.2275679E18,6.3509606E17,8.62499E17,6.766386E17,8.901338E17,0E0,0E0,0E0,0E0,0E0,0E0,0E0,0E0],"parents":[2147483647,0,0,1,1,2,2,3,3,4,4,5,5,6,6],"right_children":[2,4,6,8,10,12,14,-1,-1,-1,-1,-1,-1,-1,-1],"split_conditions":[1.2E8,2.9496E1,1.41E2,4.956847E7,1.3382877E8,1.6836402E8,1.8E8,-6.873832E5,6.019509E5,1.2964125E6,5.642338E6,2.6720072E6,9.003864E6,6.3803295E6,2.0238038E7],"split_indices":[1,2,0,5,6,6,1,0,0,0,0,0,0,0,0],"split_type":[0,0,0,0,0,0,0,0,0,0,0,0,0,0,0],"sum_hessian":[7.643E3,7.419E3,2.24E2,6.72E3,6.99E2,1.75E2,4.9E1,5.568E3,1.152E3,5.56E2,1.43E2,1.03E2,7.2E1,2.2E1,2.7E1],"tree_param":{"num_deleted":"0","num_feature":"21","num_nodes":"15","size_leaf_vector":"1"}},{"base_weights":[1.2818457E5,-5.341744E6,1.10496136E8,-1.0195879E7,3.8319508E7,9.05567E7,3.27476E8,-8.6428394E5,-1.2920381E3,1.4985259E6,5.763628E6,3.9917912E6,2.3322326E7,1.1470056E7,3.084752E7],"categories":[],"categories_nodes":[],"categories_segments":[],"categories_sizes":[],"default_left":[0,0,0,0,0,0,0,0,0,0,0,0,0,0,0],"id":26,"left_children":[1,3,5,7,9,11,13,-1,-1,-1,-1,-1,-1,-1,-1],"loss_changes":[4.61531E18,1.5441444E18,1.532195E18,4.727102E17,4.649135E17,1.3006775E18,7.1017566E17,0E0,0E0,0E0,0E0,0E0,0E0,0E0,0E0],"parents":[2147483647,0,0,1,1,2,2,3,3,4,4,5,5,6,6],"right_children":[2,4,6,8,10,12,14,-1,-1,-1,-1,-1,-1,-1,-1],"split_conditions":[4.1522E1,5.1E7,2E8,1.09E7,2.8457885E8,4.9405504E8,1.62E2,-8.6428394E5,-1.2920381E3,1.4985259E6,5.763628E6,3.9917912E6,2.3322326E7,1.1470056E7,3.084752E7],"split_indices":[2,1,1,1,5,6,0,0,0,0,0,0,0,0,0],"split_type":[0,0,0,0,0,0,0,0,0,0,0,0,0,0,0],"sum_hessian":[7.643E3,7.283E3,3.6E2,6.555E3,7.28E2,3.31E2,2.9E1,3.862E3,2.693E3,6.58E2,7E1,3.23E2,8E0,2.3E1,6E0],"tree_param":{"num_deleted":"0","num_feature":"21","num_nodes":"15","size_leaf_vector":"1"}},{"base_weights":[1.3172183E5,-5.0737785E6,1.05164216E8,-9.686217E6,3.6413496E7,5.3579692E7,1.8434331E8,-8.0998E5,3.1255521E4,8.566211E6,1.5887859E6,1.9488932E6,1.7816018E7,7.3684695E6,1.8461792E7],"categories":[],"categories_nodes":[],"categories_segments":[],"categories_sizes":[],"default_left":[0,0,0,0,0,0,0,0,0,0,0,0,0,0,0],"id":27,"left_children":[1,3,5,7,9,11,13,-1,-1,-1,-1,-1,-1,-1,-1],"loss_changes":[4.1798655E18,1.3942005E18,1.4645976E18,4.4032177E17,4.5068123E17,9.586364E17,9.163264E17,0E0,0E0,0E0,0E0,0E0,0E0,0E0,0E0],"parents":[2147483647,0,0,1,1,2,2,3,3,4,4,5,5,6,6],"right_children":[2,4,6,8,10,12,14,-1,-1,-1,-1,-1,-1,-1,-1],"split_conditions":[4.1522E1,5.1E7,1E0,1.4158E1,8.624E0,1.8E8,2.9692227E8,-8.0998E5,3.1255521E4,8.566211E6,1.5887859E6,1.9488932E6,1.7816018E7,7.3684695E6,1.8461792E7],"split_indices":[2,1,14,2,2,1,6,0,0,0,0,0,0,0,0],"split_type":[0,0,0,0,0,0,0,0,0,0,0,0,0,0,0],"sum_hessian":[7.643E3,7.283E3,3.6E2,6.555E3,7.28E2,2.19E2,1.41E2,4.017E3,2.538E3,2.3E1,7.05E2,2.1E2,9E0,1.19E2,2.2E1],"tree_param":{"num_deleted":"0","num_feature":"21","num_nodes":"15","size_leaf_vector":"1"}},{"base_weights":[1.3232702E5,-4.0415922E6,1.2060482E8,-1.0847378E7,2.194193E7,7.977508E7,2.2795562E8,-7.556632E5,-4.0670668E4,7.299782E5,5.3025765E6,2.3588918E7,3.5409858E6,5.8846055E6,1.7400898E7],"categories":[],"categories_nodes":[],"categories_segments":[],"categories_sizes":[],"default_left":[0,0,0,0,0,0,0,0,0,0,0,0,0,0,0],"id":28,"left_children":[1,3,5,7,9,11,13,-1,-1,-1,-1,-1,-1,-1,-1],"loss_changes":[3.8442148E18,1.3068963E18,1.1038899E18,2.5064639E17,9.457941E17,6.230589E17,8.857355E17,0E0,0E0,0E0,0E0,0E0,0E0,0E0,0E0],"parents":[2147483647,0,0,1,1,2,2,3,3,4,4,5,5,6,6],"right_children":[2,4,6,8,10,12,14,-1,-1,-1,-1,-1,-1,-1,-1],"split_conditions":[1.1E8,2.1011E1,1.36E2,1.4158E1,1.7934296E8,6.6715375E6,1.8E8,-7.556632E5,-4.0670668E4,7.299782E5,5.3025765E6,2.3588918E7,3.5409858E6,5.8846055E6,1.7400898E7],"split_indices":[1,2,0,2,5,5,1,0,0,0,0,0,0,0,0],"split_type":[0,0,0,0,0,0,0,0,0,0,0,0,0,0,0],"sum_hessian":[7.643E3,7.388E3,2.55E2,5.855E3,1.533E3,1.86E2,6.9E1,4.108E3,1.747E3,1.411E3,1.22E2,3E0,1.83E2,3.7E1,3.2E1],"tree_param":{"num_deleted":"0","num_feature":"21","num_nodes":"15","size_leaf_vector":"1"}},{"base_weights":[1.3299153E5,-4.6653165E6,9.694946E7,-9.635395E6,2.860292E7,4.9136132E7,1.703437E8,-7.5333894E5,-6.285277E3,5.5151725E5,3.078903E6,1.7759236E6,1.6577755E7,6.7893535E6,1.7161646E7],"categories":[],"categories_nodes":[],"categories_segments":[],"categories_sizes":[],"default_left":[0,0,0,0,0,0,0,0,0,0,0,0,0,0,0],"id":29,"left_children":[1,3,5,7,9,11,13,-1,-1,-1,-1,-1,-1,-1,-1],"loss_changes":[3.5515124E18,1.204654E18,1.2584595E18,3.273607E17,5.4806765E17,8.3431836E17,8.017677E17,0E0,0E0,0E0,0E0,0E0,0E0,0E0,0E0],"parents":[2147483647,0,0,1,1,2,2,3,3,4,4,5,5,6,6],"right_children":[2,4,6,8,10,12,14,-1,-1,-1,-1,-1,-1,-1,-1],"split_conditions":[4.1522E1,8.111566E7,1E0,1.244056E7,6.1E7,1.8E8,2.9692227E8,-7.5333894E5,-6.285277E3,5.5151725E5,3.078903E6,1.7759236E6,1.6577755E7,6.7893535E6,1.7161646E7],"split_indices":[2,5,14,1,1,1,6,0,0,0,0,0,0,0,0],"split_type":[0,0,0,0,0,0,0,0,0,0,0,0,0,0,0],"sum_hessian":[7.643E3,7.283E3,3.6E2,6.337E3,9.46E2,2.19E2,1.41E2,4.033E3,2.304E3,6.18E2,3.28E2,2.1E2,9E0,1.19E2,2.2E1],"tree_param":{"num_deleted":"0","num_feature":"21","num_nodes":"15","size_leaf_vector":"1"}},{"base_weights":[1.3225172E5,-4.431657E6,9.2219176E7,-9.153745E6,2.7176608E7,4.676275E7,1.6199518E8,-7.964045E5,-1.0763404E5,5.239859E5,2.9254258E6,1.6875484E6,1.5831757E7,6.452715E6,1.6340871E7],"categories":[],"categories_nodes":[],"categories_segments":[],"categories_sizes":[],"default_left":[0,0,0,0,0,0,0,0,0,0,0,0,0,0,0],"id":30,"left_children":[1,3,5,7,9,11,13,-1,-1,-1,-1,-1,-1,-1,-1],"loss_changes":[3.2130009E18,1.0874369E18,1.1374327E18,3.0056195E17,4.9480552E17,7.61848E17,7.2879644E17,0E0,0E0,0E0,0E0,0E0,0E0,0E0,0E0],"parents":[2147483647,0,0,1,1,2,2,3,3,4,4,5,5,6,6],"right_children":[2,4,6,8,10,12,14,-1,-1,-1,-1,-1,-1,-1,-1],"split_conditions":[4.1522E1,8.111566E7,1E0,7.5E6,6.1E7,1.8E8,2.9692227E8,-7.964045E5,-1.0763404E5,5.239859E5,2.9254258E6,1.6875484E6,1.5831757E7,6.452715E6,1.6340871E7],"split_indices":[2,5,14,1,1,1,6,0,0,0,0,0,0,0,0],"split_type":[0,0,0,0,0,0,0,0,0,0,0,0,0,0,0],"sum_hessian":[7.643E3,7.283E3,3.6E2,6.337E3,9.46E2,2.19E2,1.41E2,3.22E3,3.117E3,6.18E2,3.28E2,2.1E2,9E0,1.19E2,2.2E1],"tree_param":{"num_deleted":"0","num_feature":"21","num_nodes":"15","size_leaf_vector":"1"}},{"base_weights":[1.3124584E5,-2.5078712E6,1.4584448E8,-7.215928E6,3.9188292E7,8.56038E7,2.5809589E8,-6.59819E5,1.1413202E5,1.0832435E6,5.02738E6,2.2243682E7,3.4050848E6,8.676827E6,2.1346004E7],"categories":[],"categories_nodes":[],"categories_segments":[],"categories_sizes":[],"default_left":[0,0,0,0,0,0,0,0,0,0,0,0,0,0,0],"id":31,"left_children":[1,3,5,7,9,11,13,-1,-1,-1,-1,-1,-1,-1,-1],"loss_changes":[2.939899E18,1.4743589E18,8.975517E17,3.8335524E17,8.171429E17,5.356214E17,5.968696E17,0E0,0E0,0E0,0E0,0E0,0E0,0E0,0E0],"parents":[2147483647,0,0,1,1,2,2,3,3,4,4,5,5,6,6],"right_children":[2,4,6,8,10,12,14,-1,-1,-1,-1,-1,-1,-1,-1],"split_conditions":[1.5E8,2.9496E1,1.36E2,1.4247E1,1.3382877E8,6.6715375E6,1E0,-6.59819E5,1.1413202E5,1.0832435E6,5.02738E6,2.2243682E7,3.4050848E6,8.676827E6,2.1346004E7],"split_indices":[1,2,0,2,6,5,18,0,0,0,0,0,0,0,0],"split_type":[0,0,0,0,0,0,0,0,0,0,0,0,0,0,0],"sum_hessian":[7.643E3,7.508E3,1.35E2,6.747E3,7.61E2,8.9E1,4.6E1,4.14E3,2.607E3,5.93E2,1.68E2,3E0,8.6E1,3.2E1,1.4E1],"tree_param":{"num_deleted":"0","num_feature":"21","num_nodes":"15","size_leaf_vector":"1"}},{"base_weights":[1.3269466E5,-5.938634E6,5.834831E7,-6.7151875E6,9.484697E7,4.4677812E7,1.9820006E8,-6.4654756E5,1.5317992E5,6.647226E6,-5.264902E5,6.710558E5,4.207953E6,7.0697575E6,2.4540352E7],"categories":[],"categories_nodes":[],"categories_segments":[],"categories_sizes":[],"default_left":[0,0,0,0,0,0,0,0,0,0,0,0,0,0,0],"id":32,"left_children":[1,3,5,7,9,11,13,-1,-1,-1,-1,-1,-1,-1,-1],"loss_changes":[2.7020886E18,5.4246825E17,1.3714959E18,4.1767695E17,2.1417353E17,8.121115E17,9.943788E17,0E0,0E0,0E0,0E0,0E0,0E0,0E0,0E0],"parents":[2147483647,0,0,1,1,2,2,3,3,4,4,5,5,6,6],"right_children":[2,4,6,8,10,12,14,-1,-1,-1,-1,-1,-1,-1,-1],"split_conditions":[6.1E7,6.2104E1,1.8E8,1.3E7,9.841E1,2.9061E1,1.62E2,-6.4654756E5,1.5317992E5,6.647226E6,-5.264902E5,6.710558E5,4.207953E6,7.0697575E6,2.4540352E7],"split_indices":[1,2,1,1,2,2,0,0,0,0,0,0,0,0,0],"split_type":[0,0,0,0,0,0,0,0,0,0,0,0,0,0,0],"sum_hessian":[7.643E3,6.922E3,7.21E2,6.87E3,5.2E1,6.58E2,6.3E1,4.2E3,2.67E3,3.8E1,1.4E1,3.68E2,2.9E2,5.4E1,9E0],"tree_param":{"num_deleted":"0","num_feature":"21","num_nodes":"15","size_leaf_vector":"1"}},{"base_weights":[1.3156992E5,-3.8813015E6,8.1100056E7,-8.105434E6,2.4393706E7,5.7337744E7,1.9702392E8,-5.9694775E5,7.014323E4,1.0603318E6,7.5754385E6,1.9691039E6,7.800924E6,5.459228E6,1.6394679E7],"categories":[],"categories_nodes":[],"categories_segments":[],"categories_sizes":[],"default_left":[0,0,0,0,0,0,0,0,0,0,0,0,0,0,0],"id":33,"left_children":[1,3,5,7,9,11,13,-1,-1,-1,-1,-1,-1,-1,-1],"loss_changes":[2.4839738E18,8.7017955E17,9.831209E17,2.310386E17,3.8044006E17,5.2719116E17,6.654247E17,0E0,0E0,0E0,0E0,0E0,0E0,0E0,0E0],"parents":[2147483647,0,0,1,1,2,2,3,3,4,4,5,5,6,6],"right_children":[2,4,6,8,10,12,14,-1,-1,-1,-1,-1,-1,-1,-1],"split_conditions":[4.1522E1,8.111566E7,2.5011403E8,1.64E7,1.8E8,1.9379229E8,7.3018E1,-5.9694775E5,7.014323E4,1.0603318E6,7.5754385E6,1.9691039E6,7.800924E6,5.459228E6,1.6394679E7],"split_indices":[2,5,5,1,1,6,2,0,0,0,0,0,0,0,0],"split_type":[0,0,0,0,0,0,0,0,0,0,0,0,0,0,0],"sum_hessian":[7.643E3,7.283E3,3.6E2,6.337E3,9.46E2,3E2,6E1,4.516E3,1.821E3,9.24E2,2.2E1,2.55E2,4.5E1,3.7E1,2.3E1],"tree_param":{"num_deleted":"0","num_feature":"21","num_nodes":"15","size_leaf_vector":"1"}},{"base_weights":[1.3018959E5,-5.155251E6,5.6160476E7,-8.599718E6,1.8507992E7,2.330408E7,1.20295384E8,-7.780096E5,-2.451678E5,9.461623E6,8.1739975E5,8.2604294E5,1.2163531E7,3.3518008E6,9.912803E6],"categories":[],"categories_nodes":[],"categories_segments":[],"categories_sizes":[],"default_left":[0,0,0,0,0,0,0,0,0,0,0,0,0,0,0],"id":34,"left_children":[1,3,5,7,9,11,13,-1,-1,-1,-1,-1,-1,-1,-1],"loss_changes":[2.2640199E18,5.6956888E17,1.3858688E18,1.5684142E17,3.243691E17,6.480207E17,9.1263616E17,0E0,0E0,0E0,0E0,0E0,0E0,0E0,0E0],"parents":[2147483647,0,0,1,1,2,2,3,3,4,4,5,5,6,6],"right_children":[2,4,6,8,10,12,14,-1,-1,-1,-1,-1,-1,-1,-1],"split_conditions":[3.3255E1,7.6565304E7,1E0,3.3E6,2.351E0,1.8E8,1.2063903E8,-7.780096E5,-2.451678E5,9.461623E6,8.1739975E5,8.2604294E5,1.2163531E7,3.3518008E6,9.912803E6],"split_indices":[2,5,14,1,2,1,6,0,0,0,0,0,0,0,0],"split_type":[0,0,0,0,0,0,0,0,0,0,0,0,0,0,0],"sum_hessian":[7.643E3,6.985E3,6.58E2,6.098E3,8.87E2,4.36E2,2.22E2,2.114E3,3.984E3,1E1,8.77E2,4.24E2,1.2E1,1.33E2,8.9E1],"tree_param":{"num_deleted":"0","num_feature":"21","num_nodes":"15","size_leaf_vector":"1"}},{"base_weights":[1.2832558E5,-5.21023E6,5.1317652E7,-5.9184475E6,8.670243E7,3.930156E7,1.74244E8,-4.7700247E5,4.0076775E5,8.138524E6,1.7834074E6,5.834734E5,3.7102568E6,6.0493275E6,2.248678E7],"categories":[],"categories_nodes":[],"categories_segments":[],"categories_sizes":[],"default_left":[0,0,0,0,0,0,0,0,0,0,0,0,0,0,0],"id":35,"left_children":[1,3,5,7,9,11,13,-1,-1,-1,-1,-1,-1,-1,-1],"loss_changes":[2.0891972E18,4.5115993E17,1.05961406E18,3.468055E17,1.9994444E17,6.347123E17,8.8459476E17,0E0,0E0,0E0,0E0,0E0,0E0,0E0,0E0],"parents":[2147483647,0,0,1,1,2,2,3,3,4,4,5,5,6,6],"right_children":[2,4,6,8,10,12,14,-1,-1,-1,-1,-1,-1,-1,-1],"split_conditions":[6.1E7,6.2104E1,1.8E8,5.0772584E7,8E0,2.9061E1,1.62E2,-4.7700247E5,4.0076775E5,8.138524E6,1.7834074E6,5.834734E5,3.7102568E6,6.0493275E6,2.248678E7],"split_indices":[1,2,1,6,4,2,0,0,0,0,0,0,0,0,0],"split_type":[0,0,0,0,0,0,0,0,0,0,0,0,0,0,0],"sum_hessian":[7.643E3,6.922E3,7.21E2,6.87E3,5.2E1,6.58E2,6.3E1,5.453E3,1.417E3,2E1,3.2E1,3.68E2,2.9E2,5.4E1,9E0],"tree_param":{"num_deleted":"0","num_feature":"21","num_nodes":"15","size_leaf_vector":"1"}},{"base_weights":[1.2749167E5,-3.3866212E6,7.10324E7,-7.710533E6,1.8986996E7,4.9522456E7,1.7600717E8,-4.1521334E5,3.1465972E6,5.1654266E5,3.431948E6,2.1861782E6,1.6367363E7,-5.15919E6,1.0417022E7],"categories":[],"categories_nodes":[],"categories_segments":[],"categories_sizes":[],"default_left":[0,0,0,0,0,0,0,0,0,0,0,0,0,0,0],"id":36,"left_children":[1,3,5,7,9,11,13,-1,-1,-1,-1,-1,-1,-1,-1],"loss_changes":[1.9048797E18,7.048119E17,8.0642223E17,2.565834E17,5.0644842E17,4.7062094E17,5.7215355E17,0E0,0E0,0E0,0E0,0E0,0E0,0E0,0E0],"parents":[2147483647,0,0,1,1,2,2,3,3,4,4,5,5,6,6],"right_children":[2,4,6,8,10,12,14,-1,-1,-1,-1,-1,-1,-1,-1],"split_conditions":[4.1522E1,8.316477E7,2.5011403E8,2.8457885E8,2.986E1,4.9405504E8,4E0,-4.1521334E5,3.1465972E6,5.1654266E5,3.431948E6,2.1861782E6,1.6367363E7,-5.15919E6,1.0417022E7],"split_indices":[2,6,5,5,2,6,4,0,0,0,0,0,0,0,0],"split_type":[0,0,0,0,0,0,0,0,0,0,0,0,0,0,0],"sum_hessian":[7.643E3,7.283E3,3.6E2,6.104E3,1.179E3,3E2,6E1,6.054E3,5E1,1.005E3,1.74E2,2.95E2,5E0,6E0,5.4E1],"tree_param":{"num_deleted":"0","num_feature":"21","num_nodes":"15","size_leaf_vector":"1"}},{"base_weights":[1.2510623E5,-1.9175819E6,1.129076E8,-6.290305E6,2.4957144E7,6.143997E7,2.0906037E8,-5.118341E5,1.0920543E5,1.1257331E6,1.2691795E7,2.0456644E7,2.237394E6,6.3537335E6,1.8774576E7],"categories":[],"categories_nodes":[],"categories_segments":[],"categories_sizes":[],"default_left":[0,0,0,0,0,0,0,0,0,0,0,0,0,0,0],"id":37,"left_children":[1,3,5,7,9,11,13,-1,-1,-1,-1,-1,-1,-1,-1],"loss_changes":[1.7612372E18,8.825827E17,6.601862E17,2.1603215E17,5.818279E17,5.0402706E17,5.935983E17,0E0,0E0,0E0,0E0,0E0,0E0,0E0,0E0],"parents":[2147483647,0,0,1,1,2,2,3,3,4,4,5,5,6,6],"right_children":[2,4,6,8,10,12,14,-1,-1,-1,-1,-1,-1,-1,-1],"split_conditions":[1.5E8,2.5675E1,1.36E2,1.4972E1,4.9405504E8,6.6715375E6,1E0,-5.118341E5,1.0920543E5,1.1257331E6,1.2691795E7,2.0456644E7,2.237394E6,6.3537335E6,1.8774576E7],"split_indices":[1,2,0,2,6,5,18,0,0,0,0,0,0,0,0],"split_type":[0,0,0,0,0,0,0,0,0,0,0,0,0,0,0],"sum_hessian":[7.643E3,7.508E3,1.35E2,6.458E3,1.05E3,8.9E1,4.6E1,4.406E3,2.052E3,1.04E3,1E1,3E0,8.6E1,3.2E1,1.4E1],"tree_param":{"num_deleted":"0","num_feature":"21","num_nodes":"15","size_leaf_vector":"1"}},{"base_weights":[1.2686219E5,-5.330179E6,3.962559E7,-1.2120534E7,7.2737706E5,2.4546508E7,1.0671617E8,-5.3983694E5,-1.3288294E6,-1.21730164E5,1.3559839E6,7.2225145E6,1.0301625E6,4.8834575E6,2.8888858E7],"categories":[],"categories_nodes":[],"categories_segments":[],"categories_sizes":[],"default_left":[0,0,0,0,0,0,0,0,0,0,0,0,0,0,0],"id":38,"left_children":[1,3,5,7,9,11,13,-1,-1,-1,-1,-1,-1,-1,-1],"loss_changes":[1.6478465E18,2.7629885E17,9.3620515E17,6.0319483E16,2.964038E17,3.558878E17,6.6805736E17,0E0,0E0,0E0,0E0,0E0,0E0,0E0,0E0],"parents":[2147483647,0,0,1,1,2,2,3,3,4,4,5,5,6,6],"right_children":[2,4,6,8,10,12,14,-1,-1,-1,-1,-1,-1,-1,-1],"split_conditions":[5.1E7,7E6,4.4769E1,2.1426E1,2.9496E1,8.624E0,1.9E2,-5.3983694E5,-1.3288294E6,-1.21730164E5,1.3559839E6,7.2225145E6,1.0301625E6,4.8834575E6,2.8888858E7],"split_indices":[1,1,2,2,2,2,0,0,0,0,0,0,0,0,0],"split_type":[0,0,0,0,0,0,0,0,0,0,0,0,0,0,0],"sum_hessian":[7.643E3,6.716E3,9.27E2,3.166E3,3.55E3,7.58E2,1.69E2,2.902E3,2.64E2,3.171E3,3.79E2,2.3E1,7.35E2,1.67E2,2E0],"tree_param":{"num_deleted":"0","num_feature":"21","num_nodes":"15","size_leaf_vector":"1"}},{"base_weights":[1.25933914E5,-1.7574498E6,1.0411271E8,-3.015729E6,8.213233E7,5.5459172E7,1.950639E8,-3.1467222E5,8.970217E5,2.218648E6,8.907225E6,1.9602724E7,1.9673032E6,5.8238235E6,1.77476E7],"categories":[],"categories_nodes":[],"categories_segments":[],"categories_sizes":[],"default_left":[0,0,0,0,0,0,0,0,0,0,0,0,0,0,0],"id":39,"left_children":[1,3,5,7,9,11,13,-1,-1,-1,-1,-1,-1,-1,-1],"loss_changes":[1.4972376E18,7.928735E17,5.909952E17,5.0833797E17,3.9451E17,4.7269785E17,5.4922063E17,0E0,0E0,0E0,0E0,0E0,0E0,0E0,0E0],"parents":[2147483647,0,0,1,1,2,2,3,3,4,4,5,5,6,6],"right_children":[2,4,6,8,10,12,14,-1,-1,-1,-1,-1,-1,-1,-1],"split_conditions":[1.5E8,2.8457885E8,1.36E2,2.5675E1,3.5998E1,6.6715375E6,1E0,-3.1467222E5,8.970217E5,2.218648E6,8.907225E6,1.9602724E7,1.9673032E6,5.8238235E6,1.77476E7],"split_indices":[1,5,0,2,2,5,18,0,0,0,0,0,0,0,0],"split_type":[0,0,0,0,0,0,0,0,0,0,0,0,0,0,0],"sum_hessian":[7.643E3,7.508E3,1.35E2,7.398E3,1.1E2,8.9E1,4.6E1,6.398E3,1E3,8E1,3E1,3E0,8.6E1,3.2E1,1.4E1],"tree_param":{"num_deleted":"0","num_feature":"21","num_nodes":"15","size_leaf_vector":"1"}},{"base_weights":[1.27074016E5,-4.895327E6,3.6479812E7,-1.1265184E7,7.870815E5,2.8318852E7,1.4621027E8,-4.9712625E5,-1.2856015E6,-3.115445E5,5.705166E5,1.007419E6,4.9225915E6,4.8719535E6,1.9991544E7],"categories":[],"categories_nodes":[],"categories_segments":[],"categories_sizes":[],"default_left":[0,0,0,0,0,0,0,0,0,0,0,0,0,0,0],"id":40,"left_children":[1,3,5,7,9,11,13,-1,-1,-1,-1,-1,-1,-1,-1],"loss_changes":[1.395805E18,2.4313827E17,8.2688896E17,6.026018E16,2.6481117E17,4.9367825E17,7.526813E17,0E0,0E0,0E0,0E0,0E0,0E0,0E0,0E0],"parents":[2147483647,0,0,1,1,2,2,3,3,4,4,5,5,6,6],"right_children":[2,4,6,8,10,12,14,-1,-1,-1,-1,-1,-1,-1,-1],"split_conditions":[5.1E7,7E6,1.8E8,2.1426E1,1.7079E1,2.8457885E8,1.62E2,-4.9712625E5,-1.2856015E6,-3.115445E5,5.705166E5,1.007419E6,4.9225915E6,4.8719535E6,1.9991544E7],"split_indices":[1,1,1,2,2,5,0,0,0,0,0,0,0,0,0],"split_type":[0,0,0,0,0,0,0,0,0,0,0,0,0,0,0],"sum_hessian":[7.643E3,6.716E3,9.27E2,3.166E3,3.55E3,8.64E2,6.3E1,2.902E3,2.64E2,2.138E3,1.412E3,7.75E2,8.9E1,5.4E1,9E0],"tree_param":{"num_deleted":"0","num_feature":"21","num_nodes":"15","size_leaf_vector":"1"}},{"base_weights":[1.24548875E5,-1.7496552E6,9.25146E7,-6.2837055E6,1.9834606E7,7.1114136E7,2.5827626E8,-3.3720122E5,2.0844042E6,4.467133E5,3.0908195E6,2.2247188E6,8.38988E6,7.9946315E6,4.581036E7],"categories":[],"categories_nodes":[],"categories_segments":[],"categories_sizes":[],"default_left":[0,0,0,0,0,0,0,0,0,0,0,0,0,0,0],"id":41,"left_children":[1,3,5,7,9,11,13,-1,-1,-1,-1,-1,-1,-1,-1],"loss_changes":[1.3237801E18,7.334206E17,5.2083412E17,1.3703674E17,5.9480576E17,3.4255594E17,9.539088E17,0E0,0E0,0E0,0E0,0E0,0E0,0E0,0E0],"parents":[2147483647,0,0,1,1,2,2,3,3,4,4,5,5,6,6],"right_children":[2,4,6,8,10,12,14,-1,-1,-1,-1,-1,-1,-1,-1],"split_conditions":[5.8646E1,8.16E7,1.62E2,2.8457885E8,2.986E1,2.1016027E8,1E0,-3.3720122E5,2.0844042E6,4.467133E5,3.0908195E6,2.2247188E6,8.38988E6,7.9946315E6,4.581036E7],"split_indices":[2,6,0,5,2,6,8,0,0,0,0,0,0,0,0],"split_type":[0,0,0,0,0,0,0,0,0,0,0,0,0,0,0],"sum_hessian":[7.643E3,7.492E3,1.51E2,6.192E3,1.3E3,1.35E2,1.6E1,6.134E3,5.8E1,1.033E3,2.67E2,1.07E2,2.8E1,1.5E1,1E0],"tree_param":{"num_deleted":"0","num_feature":"21","num_nodes":"15","size_leaf_vector":"1"}},{"base_weights":[1.2744029E5,-1.6614672E6,8.831268E7,-5.9692385E6,1.8845596E7,6.1249384E7,2.1133725E8,-6.189323E5,-1.2982365E5,4.2439922E5,2.9368552E6,1.051446E6,8.06082E6,5.613395E6,2.3917714E7],"categories":[],"categories_nodes":[],"categories_segments":[],"categories_sizes":[],"default_left":[0,0,0,0,0,0,0,0,0,0,0,0,0,0,0],"id":42,"left_children":[1,3,5,7,9,11,13,-1,-1,-1,-1,-1,-1,-1,-1],"loss_changes":[1.2060279E18,6.620421E17,4.931322E17,1.3384458E17,5.3704955E17,5.032205E17,6.605327E17,0E0,0E0,0E0,0E0,0E0,0E0,0E0,0E0],"parents":[2147483647,0,0,1,1,2,2,3,3,4,4,5,5,6,6],"right_children":[2,4,6,8,10,12,14,-1,-1,-1,-1,-1,-1,-1,-1],"split_conditions":[5.8646E1,8.16E7,1.8E8,3.3E6,2.986E1,1E0,1E0,-6.189323E5,-1.2982365E5,4.2439922E5,2.9368552E6,1.051446E6,8.06082E6,5.613395E6,2.3917714E7],"split_indices":[2,6,1,1,2,19,18,0,0,0,0,0,0,0,0],"split_type":[0,0,0,0,0,0,0,0,0,0,0,0,0,0,0],"sum_hessian":[7.643E3,7.492E3,1.51E2,6.192E3,1.3E3,1.25E2,2.6E1,2.134E3,4.058E3,1.033E3,2.67E2,9E1,3.5E1,2E1,6E0],"tree_param":{"num_deleted":"0","num_feature":"21","num_nodes":"15","size_leaf_vector":"1"}},{"base_weights":[1.2646558E5,-3.7445872E6,3.724443E7,-4.317096E6,7.0546984E7,3.511699E7,2.677075E7,-3.5745022E5,2.8075275E5,7.199944E6,1.0833539E6,1.4497636E6,9.558362E6],"categories":[],"categories_nodes":[],"categories_segments":[],"categories_sizes":[],"default_left":[0,0,0,0,0,0,0,0,0,0,0,0,0],"id":43,"left_children":[1,3,5,7,9,11,-1,-1,-1,-1,-1,-1,-1],"loss_changes":[1.0984722E18,2.9475763E17,7.463934E17,1.9330035E17,1.8716706E17,6.822701E17,0E0,0E0,0E0,0E0,0E0,0E0,0E0],"parents":[2147483647,0,0,1,1,2,2,3,3,4,4,5,5],"right_children":[2,4,6,8,10,12,-1,-1,-1,-1,-1,-1,-1],"split_conditions":[6.1E7,6.2104E1,1.92E2,4.645796E7,8E0,4.9831018E8,2.677075E7,-3.5745022E5,2.8075275E5,7.199944E6,1.0833539E6,1.4497636E6,9.558362E6],"split_indices":[1,2,0,6,4,5,0,0,0,0,0,0,0],"split_type":[0,0,0,0,0,0,0,0,0,0,0,0,0],"sum_hessian":[7.643E3,6.922E3,7.21E2,6.87E3,5.2E1,7.19E2,2E0,5.346E3,1.524E3,2E1,3.2E1,6.93E2,2.6E1],"tree_param":{"num_deleted":"0","num_feature":"21","num_nodes":"13","size_leaf_vector":"1"}},{"base_weights":[1.2615852E5,-9.467416E5,1.2721257E8,-4.1391328E6,2.5561058E7,8.227191E7,3.6166493E8,-2.3335566E5,2.2860178E6,1.0691811E6,1.2346603E7,1.280805E5,9.256216E6,4.0754564E7,2.544886E6],"categories":[],"categories_nodes":[],"categories_segments":[],"categories_sizes":[],"default_left":[0,0,0,0,0,0,0,0,0,0,0,0,0,0,0],"id":44,"left_children":[1,3,5,7,9,11,13,-1,-1,-1,-1,-1,-1,-1,-1],"loss_changes":[1.0423877E18,6.4163485E17,6.445775E17,1.7835346E17,7.484017E17,4.5043755E17,1.3676141E18,0E0,0E0,0E0,0E0,0E0,0E0,0E0,0E0],"parents":[2147483647,0,0,1,1,2,2,3,3,4,4,5,5,6,6],"right_children":[2,4,6,8,10,12,14,-1,-1,-1,-1,-1,-1,-1,-1],"split_conditions":[1.8E8,2.9496E1,1.62E2,2.8457885E8,4.9405504E8,1.884004E8,7.528329E7,-2.3335566E5,2.2860178E6,1.0691811E6,1.2346603E7,1.280805E5,9.256216E6,4.0754564E7,2.544886E6],"split_indices":[1,2,0,5,6,6,6,0,0,0,0,0,0,0,0],"split_type":[0,0,0,0,0,0,0,0,0,0,0,0,0,0,0],"sum_hessian":[7.643E3,7.58E3,6.3E1,6.766E3,8.14E2,5.4E1,9E0,6.696E3,7E1,8E2,1.4E1,3.1E1,2.3E1,3E0,6E0],"tree_param":{"num_deleted":"0","num_feature":"21","num_nodes":"15","size_leaf_vector":"1"}},{"base_weights":[1.2876602E5,-1.4647128E6,7.8680136E7,-4.1192645E6,2.575262E7,5.8938476E7,2.3198512E8,-3.4668012E5,2.2783375E5,5.2576175E5,3.6740798E6,1.782632E6,7.1812895E6,6.9730435E6,4.2809336E7],"categories":[],"categories_nodes":[],"categories_segments":[],"categories_sizes":[],"default_left":[0,0,0,0,0,0,0,0,0,0,0,0,0,0,0],"id":45,"left_children":[1,3,5,7,9,11,13,-1,-1,-1,-1,-1,-1,-1,-1],"loss_changes":[9.569142E17,5.4147395E17,4.4635437E17,1.6675106E17,4.835856E17,2.6307338E17,8.624099E17,0E0,0E0,0E0,0E0,0E0,0E0,0E0,0E0],"parents":[2147483647,0,0,1,1,2,2,3,3,4,4,5,5,6,6],"right_children":[2,4,6,8,10,12,14,-1,-1,-1,-1,-1,-1,-1,-1],"split_conditions":[5.8646E1,1.3382877E8,1.62E2,2.8356188E7,2.986E1,2.1016027E8,1E0,-3.4668012E5,2.2783375E5,5.2576175E5,3.6740798E6,1.782632E6,7.1812895E6,6.9730435E6,4.2809336E7],"split_indices":[2,6,0,5,2,6,8,0,0,0,0,0,0,0,0],"split_type":[0,0,0,0,0,0,0,0,0,0,0,0,0,0,0],"sum_hessian":[7.643E3,7.492E3,1.51E2,6.827E3,6.65E2,1.35E2,1.6E1,5.155E3,1.672E3,5.05E2,1.6E2,1.07E2,2.8E1,1.5E1,1E0],"tree_param":{"num_deleted":"0","num_feature":"21","num_nodes":"15","size_leaf_vector":"1"}},{"base_weights":[1.3054697E5,-8.672716E5,1.1832323E8,-1.9976995E6,6.6032236E7,7.579869E7,3.403759E8,-2.3950553E5,7.5405394E5,1.5809206E6,6.9615755E6,6.919915E4,8.593001E6,3.860114E7,2.2547702E6],"categories":[],"categories_nodes":[],"categories_segments":[],"categories_sizes":[],"default_left":[0,0,0,0,0,0,0,0,0,0,0,0,0,0,0],"id":46,"left_children":[1,3,5,7,9,11,13,-1,-1,-1,-1,-1,-1,-1,-1],"loss_changes":[9.0159665E17,5.734456E17,5.7853216E17,3.5565604E17,3.1300007E17,3.9292278E17,1.2397543E18,0E0,0E0,0E0,0E0,0E0,0E0,0E0,0E0],"parents":[2147483647,0,0,1,1,2,2,3,3,4,4,5,5,6,6],"right_children":[2,4,6,8,10,12,14,-1,-1,-1,-1,-1,-1,-1,-1],"split_conditions":[1.8E8,2.8457885E8,1.62E2,2.5675E1,3.5998E1,1.884004E8,7.528329E7,-2.3950553E5,7.5405394E5,1.5809206E6,6.9615755E6,6.919915E4,8.593001E6,3.860114E7,2.2547702E6],"split_indices":[1,5,0,2,2,6,6,0,0,0,0,0,0,0,0],"split_type":[0,0,0,0,0,0,0,0,0,0,0,0,0,0,0],"sum_hessian":[7.643E3,7.58E3,6.3E1,7.455E3,1.25E2,5.4E1,9E0,6.408E3,1.047E3,8.6E1,3.9E1,3.1E1,2.3E1,3E0,6E0],"tree_param":{"num_deleted":"0","num_feature":"21","num_nodes":"15","size_leaf_vector":"1"}},{"base_weights":[1.3168264E5,-3.7358255E6,2.8125132E7,-1.0004334E7,2.0302844E5,1.8054998E7,8.2379336E7,-4.3649575E5,-1.6750541E6,-3.3908047E5,3.3504012E5,7.511936E5,6.9653465E6,2.3466148E6,8.409578E6],"categories":[],"categories_nodes":[],"categories_segments":[],"categories_sizes":[],"default_left":[0,0,0,0,0,0,0,0,0,0,0,0,0,0,0],"id":47,"left_children":[1,3,5,7,9,11,13,-1,-1,-1,-1,-1,-1,-1,-1],"loss_changes":[8.276819E17,1.6584975E17,5.055228E17,7.732422E16,1.8730229E17,2.8605035E17,4.3316587E17,0E0,0E0,0E0,0E0,0E0,0E0,0E0,0E0],"parents":[2147483647,0,0,1,1,2,2,3,3,4,4,5,5,6,6],"right_children":[2,4,6,8,10,12,14,-1,-1,-1,-1,-1,-1,-1,-1],"split_conditions":[5.1E7,4.8E6,2.1016027E8,2.5037E1,1.4322E1,4.9831018E8,4.9413E1,-4.3649575E5,-1.6750541E6,-3.3908047E5,3.3504012E5,7.511936E5,6.9653465E6,2.3466148E6,8.409578E6],"split_indices":[1,1,6,2,2,5,2,0,0,0,0,0,0,0,0],"split_type":[0,0,0,0,0,0,0,0,0,0,0,0,0,0,0],"sum_hessian":[7.643E3,6.716E3,9.27E2,2.591E3,4.125E3,7.83E2,1.44E2,2.459E3,1.32E2,1.988E3,2.137E3,7.65E2,1.8E1,1.03E2,4.1E1],"tree_param":{"num_deleted":"0","num_feature":"21","num_nodes":"15","size_leaf_vector":"1"}},{"base_weights":[1.27238E5,-8.0180694E5,1.1017353E8,-1.8453234E6,6.0954228E7,6.904478E7,3.2536426E8,-2.1686783E5,7.198729E5,1.4538369E6,6.4381965E6,-9.37615E3,7.9238835E6,3.6970076E7,2.1145478E6],"categories":[],"categories_nodes":[],"categories_segments":[],"categories_sizes":[],"default_left":[0,0,0,0,0,0,0,0,0,0,0,0,0,0,0],"id":48,"left_children":[1,3,5,7,9,11,13,-1,-1,-1,-1,-1,-1,-1,-1],"loss_changes":[7.8159526E17,4.8865822E17,5.439688E17,3.01863E17,2.6861797E17,3.4057015E17,1.14075884E18,0E0,0E0,0E0,0E0,0E0,0E0,0E0,0E0],"parents":[2147483647,0,0,1,1,2,2,3,3,4,4,5,5,6,6],"right_children":[2,4,6,8,10,12,14,-1,-1,-1,-1,-1,-1,-1,-1],"split_conditions":[1.8E8,2.8457885E8,1.62E2,2.645E1,3.5998E1,1.884004E8,7.528329E7,-2.1686783E5,7.198729E5,1.4538369E6,6.4381965E6,-9.37615E3,7.9238835E6,3.6970076E7,2.1145478E6],"split_indices":[1,5,0,2,2,6,6,0,0,0,0,0,0,0,0],"split_type":[0,0,0,0,0,0,0,0,0,0,0,0,0,0,0],"sum_hessian":[7.643E3,7.58E3,6.3E1,7.455E3,1.25E2,5.4E1,9E0,6.464E3,9.91E2,8.6E1,3.9E1,3.1E1,2.3E1,3E0,6E0],"tree_param":{"num_deleted":"0","num_feature":"21","num_nodes":"15","size_leaf_vector":"1"}},{"base_weights":[1.2812265E5,-7.6060944E5,1.0539922E8,-4.739087E6,1.3950862E7,6.5736452E7,3.1300448E8,-5.0777384E5,-8.175053E4,6.1073525E5,8.360576E6,-8.92125E3,7.544197E6,3.5583696E7,2.0239236E6],"categories":[],"categories_nodes":[],"categories_segments":[],"categories_sizes":[],"default_left":[0,0,0,0,0,0,0,0,0,0,0,0,0,0,0],"id":49,"left_children":[1,3,5,7,9,11,13,-1,-1,-1,-1,-1,-1,-1,-1],"loss_changes":[7.1523596E17,4.4377647E17,5.0641286E17,1.0032271E17,4.27418E17,3.0871366E17,1.05767054E18,0E0,0E0,0E0,0E0,0E0,0E0,0E0,0E0],"parents":[2147483647,0,0,1,1,2,2,3,3,4,4,5,5,6,6],"right_children":[2,4,6,8,10,12,14,-1,-1,-1,-1,-1,-1,-1,-1],"split_conditions":[1.8E8,3.1E7,1.62E2,3.3E6,4.9405504E8,1.884004E8,7.528329E7,-5.0777384E5,-8.175053E4,6.1073525E5,8.360576E6,-8.92125E3,7.544197E6,3.5583696E7,2.0239236E6],"split_indices":[1,1,0,1,6,6,6,0,0,0,0,0,0,0,0],"split_type":[0,0,0,0,0,0,0,0,0,0,0,0,0,0,0],"sum_hessian":[7.643E3,7.58E3,6.3E1,5.967E3,1.613E3,5.4E1,9E0,2.173E3,3.794E3,1.596E3,1.7E1,3.1E1,2.3E1,3E0,6E0],"tree_param":{"num_deleted":"0","num_feature":"21","num_nodes":"15","size_leaf_vector":"1"}},{"base_weights":[1.28719125E5,-1.0713939E6,7.413135E7,-3.5512738E6,2.3929858E7,5.3904804E7,2.0476318E8,-2.739892E5,2.681343E5,4.4999122E5,3.3604778E6,2.2368945E6,1.0037915E7,5.7492245E6,3.8786092E7],"categories":[],"categories_nodes":[],"categories_segments":[],"categories_sizes":[],"default_left":[0,0,0,0,0,0,0,0,0,0,0,0,0,0,0],"id":50,"left_children":[1,3,5,7,9,11,13,-1,-1,-1,-1,-1,-1,-1,-1],"loss_changes":[6.7895475E17,4.6651175E17,3.1131455E17,1.1769941E17,4.3814274E17,1.35061225E17,7.309628E17,0E0,0E0,0E0,0E0,0E0,0E0,0E0,0E0],"parents":[2147483647,0,0,1,1,2,2,3,3,4,4,5,5,6,6],"right_children":[2,4,6,8,10,12,14,-1,-1,-1,-1,-1,-1,-1,-1],"split_conditions":[6.2104E1,1.3382877E8,1.62E2,4.8138336E7,2.986E1,2.015E3,1E0,-2.739892E5,2.681343E5,4.4999122E5,3.3604778E6,2.2368945E6,1.0037915E7,5.7492245E6,3.8786092E7],"split_indices":[2,6,0,5,2,3,8,0,0,0,0,0,0,0,0],"split_type":[0,0,0,0,0,0,0,0,0,0,0,0,0,0,0],"sum_hessian":[7.643E3,7.522E3,1.21E2,6.844E3,6.78E2,1.06E2,1.5E1,5.627E3,1.217E3,5.05E2,1.73E2,1.01E2,5E0,1.4E1,1E0],"tree_param":{"num_deleted":"0","num_feature":"21","num_nodes":"15","size_leaf_vector":"1"}},{"base_weights":[1.3021315E5,-1.0173183E6,7.089045E7,-3.373711E6,2.2738978E7,5.1324292E7,1.9730848E8,-4.6748416E5,-3.1477338E4,4.2753616E5,3.1934195E6,4.243207E6,7.108728E5,5.480927E6,3.7816444E7],"categories":[],"categories_nodes":[],"categories_segments":[],"categories_sizes":[],"default_left":[0,0,0,0,0,0,0,0,0,0,0,0,0,0,0],"id":51,"left_children":[1,3,5,7,9,11,13,-1,-1,-1,-1,-1,-1,-1,-1],"loss_changes":[6.2076186E17,4.2120796E17,2.9164216E17,1.122456E17,3.956874E17,1.31961135E17,7.014198E17,0E0,0E0,0E0,0E0,0E0,0E0,0E0,0E0],"parents":[2147483647,0,0,1,1,2,2,3,3,4,4,5,5,6,6],"right_children":[2,4,6,8,10,12,14,-1,-1,-1,-1,-1,-1,-1,-1],"split_conditions":[6.2104E1,1.3382877E8,1.62E2,3.3E6,2.986E1,8E0,1E0,-4.6748416E5,-3.1477338E4,4.2753616E5,3.1934195E6,4.243207E6,7.108728E5,5.480927E6,3.7816444E7],"split_indices":[2,6,0,1,2,4,8,0,0,0,0,0,0,0,0],"split_type":[0,0,0,0,0,0,0,0,0,0,0,0,0,0,0],"sum_hessian":[7.643E3,7.522E3,1.21E2,6.844E3,6.78E2,1.06E2,1.5E1,2.153E3,4.691E3,5.05E2,1.73E2,5.5E1,5.1E1,1.4E1,1E0],"tree_param":{"num_deleted":"0","num_feature":"21","num_nodes":"15","size_leaf_vector":"1"}},{"base_weights":[1.304235E5,-1.244151E6,5.6494816E7,-3.8104362E6,1.4468187E7,3.6312E7,1.8785202E8,-2.0485712E5,3.3405348E6,4.4257672E5,5.5093015E6,9.134237E6,1.3155869E6,2.1754308E7,3.0228208E6],"categories":[],"categories_nodes":[],"categories_segments":[],"categories_sizes":[],"default_left":[0,0,0,0,0,0,0,0,0,0,0,0,0,0,0],"id":52,"left_children":[1,3,5,7,9,11,13,-1,-1,-1,-1,-1,-1,-1,-1],"loss_changes":[5.923049E17,3.0098076E17,4.7568948E17,1.30181764E17,5.6244404E17,2.2793202E17,7.2961324E17,0E0,0E0,0E0,0E0,0E0,0E0,0E0,0E0],"parents":[2147483647,0,0,1,1,2,2,3,3,4,4,5,5,6,6],"right_children":[2,4,6,8,10,12,14,-1,-1,-1,-1,-1,-1,-1,-1],"split_conditions":[2.5011403E8,9.841271E7,7.3018E1,8.3952E1,1.5E8,1.0582E1,7.528329E7,-2.0485712E5,3.3405348E6,4.4257672E5,5.5093015E6,9.134237E6,1.3155869E6,2.1754308E7,3.0228208E6],"split_indices":[5,6,2,2,1,2,6,0,0,0,0,0,0,0,0],"split_type":[0,0,0,0,0,0,0,0,0,0,0,0,0,0,0],"sum_hessian":[7.643E3,7.462E3,1.81E2,6.415E3,1.047E3,1.58E2,2.3E1,6.39E3,2.5E1,9.9E2,5.7E1,9E0,1.49E2,7E0,1.6E1],"tree_param":{"num_deleted":"0","num_feature":"21","num_nodes":"15","size_leaf_vector":"1"}},{"base_weights":[1.2969957E5,-6.416899E5,9.150117E7,-1.5494538E6,5.307997E7,4.696015E7,2.4722192E8,-2.4559653E5,3.5372322E5,1.9956992E6,9.354791E6,6.96372E6,-6.1018794E5,1.9187476E7,4.8428775E6],"categories":[],"categories_nodes":[],"categories_segments":[],"categories_sizes":[],"default_left":[0,0,0,0,0,0,0,0,0,0,0,0,0,0,0],"id":53,"left_children":[1,3,5,7,9,11,13,-1,-1,-1,-1,-1,-1,-1,-1],"loss_changes":[5.3883065E17,3.6978174E17,4.322919E17,2.162418E17,2.1485302E17,2.8024493E17,2.5023531E17,0E0,0E0,0E0,0E0,0E0,0E0,0E0,0E0],"parents":[2147483647,0,0,1,1,2,2,3,3,4,4,5,5,6,6],"right_children":[2,4,6,8,10,12,14,-1,-1,-1,-1,-1,-1,-1,-1],"split_conditions":[1.8E8,2.8457885E8,1.54E2,1.8602E1,7.3018E1,1.6418622E8,7.528329E7,-2.4559653E5,3.5372322E5,1.9956992E6,9.354791E6,6.96372E6,-6.1018794E5,1.9187476E7,4.8428775E6],"split_indices":[1,5,0,2,2,5,6,0,0,0,0,0,0,0,0],"split_type":[0,0,0,0,0,0,0,0,0,0,0,0,0,0,0],"sum_hessian":[7.643E3,7.58E3,6.3E1,7.455E3,1.25E2,5E1,1.3E1,5.364E3,2.091E3,1.15E2,1E1,1.9E1,3.1E1,6E0,7E0],"tree_param":{"num_deleted":"0","num_feature":"21","num_nodes":"15","size_leaf_vector":"1"}},{"base_weights":[1.2868845E5,-2.8595722E6,2.1758018E7,-6.1446825E6,2.6842098E6,1.339402E7,6.6831236E7,-4.8450366E5,1.1120285E5,-1.9439197E5,6.9393294E5,6.174652E5,1.4062615E7,1.8183962E6,7.033649E6],"categories":[],"categories_nodes":[],"categories_segments":[],"categories_sizes":[],"default_left":[0,0,0,0,0,0,0,0,0,0,0,0,0,0,0],"id":54,"left_children":[1,3,5,7,9,11,13,-1,-1,-1,-1,-1,-1,-1,-1],"loss_changes":[4.9412506E17,1.2234606E17,3.4895376E17,1.2517151E17,1.8398011E17,2.1591825E17,3.210563E17,0E0,0E0,0E0,0E0,0E0,0E0,0E0,0E0],"parents":[2147483647,0,0,1,1,2,2,3,3,4,4,5,5,6,6],"right_children":[2,4,6,8,10,12,14,-1,-1,-1,-1,-1,-1,-1,-1],"split_conditions":[5.1E7,1E0,2.1016027E8,1.19E2,1.4158E1,1.92E2,4.9413E1,-4.8450366E5,1.1120285E5,-1.9439197E5,6.9393294E5,6.174652E5,1.4062615E7,1.8183962E6,7.033649E6],"split_indices":[1,10,6,0,2,0,2,0,0,0,0,0,0,0,0],"split_type":[0,0,0,0,0,0,0,0,0,0,0,0,0,0,0],"sum_hessian":[7.643E3,6.716E3,9.27E2,4.217E3,2.499E3,7.83E2,1.44E2,2.962E3,1.255E3,1.575E3,9.24E2,7.81E2,2E0,1.03E2,4.1E1],"tree_param":{"num_deleted":"0","num_feature":"21","num_nodes":"15","size_leaf_vector":"1"}},{"base_weights":[1.2534861E5,-1.096944E6,5.0245372E7,-3.4196115E6,1.3123792E7,3.190039E7,1.6968731E8,-1.8437561E5,3.1281988E6,3.9945066E5,5.031571E6,8.507981E6,1.1235219E6,2.0277868E7,2.4354025E6],"categories":[],"categories_nodes":[],"categories_segments":[],"categories_sizes":[],"default_left":[0,0,0,0,0,0,0,0,0,0,0,0,0,0,0],"id":55,"left_children":[1,3,5,7,9,11,13,-1,-1,-1,-1,-1,-1,-1,-1],"loss_changes":[4.6833674E17,2.465481E17,3.93378E17,1.13646664E17,4.700963E17,2.034771E17,6.650952E17,0E0,0E0,0E0,0E0,0E0,0E0,0E0,0E0],"parents":[2147483647,0,0,1,1,2,2,3,3,4,4,5,5,6,6],"right_children":[2,4,6,8,10,12,14,-1,-1,-1,-1,-1,-1,-1,-1],"split_conditions":[2.5011403E8,9.841271E7,7.3018E1,8.3952E1,1.5E8,1.0582E1,7.528329E7,-1.8437561E5,3.1281988E6,3.9945066E5,5.031571E6,8.507981E6,1.1235219E6,2.0277868E7,2.4354025E6],"split_indices":[5,6,2,2,1,2,6,0,0,0,0,0,0,0,0],"split_type":[0,0,0,0,0,0,0,0,0,0,0,0,0,0,0],"sum_hessian":[7.643E3,7.462E3,1.81E2,6.415E3,1.047E3,1.58E2,2.3E1,6.39E3,2.5E1,9.9E2,5.7E1,9E0,1.49E2,7E0,1.6E1],"tree_param":{"num_deleted":"0","num_feature":"21","num_nodes":"15","size_leaf_vector":"1"}},{"base_weights":[1.244083E5,-1.817323E6,2.9108534E7,-3.7016652E6,1.1237508E7,5.34499E6,6.79887E7,-3.1477422E5,3.6171598E4,1.7034889E5,1.8081712E6,-6.7531245E3,7.4417505E6,1.81055E6,5.7470785E6],"categories":[],"categories_nodes":[],"categories_segments":[],"categories_sizes":[],"default_left":[0,0,0,0,0,0,0,0,0,0,0,0,0,0,0],"id":56,"left_children":[1,3,5,7,9,11,13,-1,-1,-1,-1,-1,-1,-1,-1],"loss_changes":[4.3025254E17,1.7629892E17,4.4312336E17,7.1879173E16,1.7632236E17,2.3513362E17,2.6739168E17,0E0,0E0,0E0,0E0,0E0,0E0,0E0,0E0],"parents":[2147483647,0,0,1,1,2,2,3,3,4,4,5,5,6,6],"right_children":[2,4,6,8,10,12,14,-1,-1,-1,-1,-1,-1,-1,-1],"split_conditions":[3.7406E1,8.111566E7,1E0,1E0,1.25E2,1.8E8,1.2063903E8,-3.1477422E5,3.6171598E4,1.7034889E5,1.8081712E6,-6.7531245E3,7.4417505E6,1.81055E6,5.7470785E6],"split_indices":[2,5,14,10,0,1,6,0,0,0,0,0,0,0,0],"split_type":[0,0,0,0,0,0,0,0,0,0,0,0,0,0,0],"sum_hessian":[7.643E3,7.164E3,4.79E2,6.261E3,9.03E2,2.98E2,1.81E2,3.947E3,2.314E3,6.88E2,2.15E2,2.88E2,1E1,1.09E2,7.2E1],"tree_param":{"num_deleted":"0","num_feature":"21","num_nodes":"15","size_leaf_vector":"1"}},{"base_weights":[1.2037174E5,-7.969226E5,5.6683364E7,-2.7217118E6,1.8608052E7,3.885339E7,1.7237861E8,-3.311893E5,4.6373195E4,3.110579E5,2.7261385E6,1.5122075E6,8.936747E6,4.4895475E6,3.5279836E7],"categories":[],"categories_nodes":[],"categories_segments":[],"categories_sizes":[],"default_left":[0,0,0,0,0,0,0,0,0,0,0,0,0,0,0],"id":57,"left_children":[1,3,5,7,9,11,13,-1,-1,-1,-1,-1,-1,-1,-1],"loss_changes":[3.9665346E17,2.8103832E17,2.4496937E17,9.747452E16,3.0172874E17,1.234516E17,6.412396E17,0E0,0E0,0E0,0E0,0E0,0E0,0E0,0E0],"parents":[2147483647,0,0,1,1,2,2,3,3,4,4,5,5,6,6],"right_children":[2,4,6,8,10,12,14,-1,-1,-1,-1,-1,-1,-1,-1],"split_conditions":[6.2104E1,1.3382877E8,1.62E2,1.03E2,2.986E1,2.015E3,1E0,-3.311893E5,4.6373195E4,3.110579E5,2.7261385E6,1.5122075E6,8.936747E6,4.4895475E6,3.5279836E7],"split_indices":[2,6,0,0,2,3,8,0,0,0,0,0,0,0,0],"split_type":[0,0,0,0,0,0,0,0,0,0,0,0,0,0,0],"sum_hessian":[7.643E3,7.522E3,1.21E2,6.844E3,6.78E2,1.06E2,1.5E1,3.307E3,3.537E3,5.05E2,1.73E2,1.01E2,5E0,1.4E1,1E0],"tree_param":{"num_deleted":"0","num_feature":"21","num_nodes":"15","size_leaf_vector":"1"}},{"base_weights":[1.21282914E5,-1.4428474E6,3.168085E7,-1.898293E6,8.108582E7,2.5877742E7,2.5577155E8,-1.0886333E5,4.1064272E6,2.7392959E4,1.0092927E7,7.543842E5,3.9694718E6,5.6586245E6,2.0286364E7],"categories":[],"categories_nodes":[],"categories_segments":[],"categories_sizes":[],"default_left":[0,0,0,0,0,0,0,0,0,0,0,0,0,0,0],"id":58,"left_children":[1,3,5,7,9,11,13,-1,-1,-1,-1,-1,-1,-1,-1],"loss_changes":[3.7737857E17,2.7394E17,4.6283375E17,1.700107E17,3.8896086E17,2.026224E17,1.465348E17,0E0,0E0,0E0,0E0,0E0,0E0,0E0,0E0],"parents":[2147483647,0,0,1,1,2,2,3,3,4,4,5,5,6,6],"right_children":[2,4,6,8,10,12,14,-1,-1,-1,-1,-1,-1,-1,-1],"split_conditions":[1.7934296E8,1.6E8,1.78E2,4.9405504E8,1.9987994E8,1.4E2,7.3018E1,-1.0886333E5,4.1064272E6,2.7392959E4,1.0092927E7,7.543842E5,3.9694718E6,5.6586245E6,2.0286364E7],"split_indices":[5,1,0,6,6,0,2,0,0,0,0,0,0,0,0],"split_type":[0,0,0,0,0,0,0,0,0,0,0,0,0,0,0],"sum_hessian":[7.643E3,7.283E3,3.6E2,7.244E3,3.9E1,3.52E2,8E0,7.221E3,2.3E1,2.4E1,1.5E1,2.94E2,5.8E1,5E0,3E0],"tree_param":{"num_deleted":"0","num_feature":"21","num_nodes":"15","size_leaf_vector":"1"}},{"base_weights":[1.21078055E5,-9.2853106E5,4.316015E7,-3.5527185E6,9.060201E6,3.4624772E7,2.5159832E8,-3.0976006E5,3.111931E4,-1.7182752E5,1.5279002E6,5.94106E5,4.931959E6,5.809108E6,1.967129E7],"categories":[],"categories_nodes":[],"categories_segments":[],"categories_sizes":[],"default_left":[0,0,0,0,0,0,0,0,0,0,0,0,0,0,0],"id":59,"left_children":[1,3,5,7,9,11,13,-1,-1,-1,-1,-1,-1,-1,-1],"loss_changes":[3.4535172E17,1.9565462E17,3.1508457E17,6.5217807E16,4.1732273E17,2.550588E17,8.8731035E16,0E0,0E0,0E0,0E0,0E0,0E0,0E0,0E0],"parents":[2147483647,0,0,1,1,2,2,3,3,4,4,5,5,6,6],"right_children":[2,4,6,8,10,12,14,-1,-1,-1,-1,-1,-1,-1,-1],"split_conditions":[2.5011403E8,2.162E1,1.85E2,1E0,1.15E2,1E0,7.3018E1,-3.0976006E5,3.111931E4,-1.7182752E5,1.5279002E6,5.94106E5,4.931959E6,5.809108E6,1.967129E7],"split_indices":[5,2,0,10,0,18,2,0,0,0,0,0,0,0,0],"split_type":[0,0,0,0,0,0,0,0,0,0,0,0,0,0,0],"sum_hessian":[7.643E3,7.462E3,1.81E2,5.91E3,1.552E3,1.75E2,6E0,3.619E3,2.291E3,9.82E2,5.7E2,1.3E2,4.5E1,4E0,2E0],"tree_param":{"num_deleted":"0","num_feature":"21","num_nodes":"15","size_leaf_vector":"1"}},{"base_weights":[1.1922097E5,-7.1204525E5,5.1377388E7,-3.2839055E6,1.1387353E7,3.5152544E7,1.5666995E8,-1.4715069E5,-2.1782008E6,1.9058897E5,2.0066562E6,1.3517349E6,8.3648585E6,3.7990238E6,3.4175308E7],"categories":[],"categories_nodes":[],"categories_segments":[],"categories_sizes":[],"default_left":[0,0,0,0,0,0,0,0,0,0,0,0,0,0,0],"id":60,"left_children":[1,3,5,7,9,11,13,-1,-1,-1,-1,-1,-1,-1,-1],"loss_changes":[3.257412E17,2.3413782E17,2.0291198E17,8.507368E16,2.8707998E17,1.1025925E17,6.2822906E17,0E0,0E0,0E0,0E0,0E0,0E0,0E0,0E0],"parents":[2147483647,0,0,1,1,2,2,3,3,4,4,5,5,6,6],"right_children":[2,4,6,8,10,12,14,-1,-1,-1,-1,-1,-1,-1,-1],"split_conditions":[6.2104E1,8.16E7,1.62E2,1.3E8,1.24E2,2.015E3,1E0,-1.4715069E5,-2.1782008E6,1.9058897E5,2.0066562E6,1.3517349E6,8.3648585E6,3.7990238E6,3.4175308E7],"split_indices":[2,6,0,1,0,3,8,0,0,0,0,0,0,0,0],"split_type":[0,0,0,0,0,0,0,0,0,0,0,0,0,0,0],"sum_hessian":[7.643E3,7.522E3,1.21E2,6.204E3,1.318E3,1.06E2,1.5E1,6.153E3,5.1E1,1.044E3,2.74E2,1.01E2,5E0,1.4E1,1E0],"tree_param":{"num_deleted":"0","num_feature":"21","num_nodes":"15","size_leaf_vector":"1"}},{"base_weights":[1.1948229E5,-4.6116006E5,6.889652E7,-8.2124156E5,1.0031206E8,2.913222E7,2.0883099E8,-9.14844E4,1.1143134E6,2.1777262E6,2.0788964E7,3.4104885E6,-5.1776975E6,5.0466945E6,1.914295E7],"categories":[],"categories_nodes":[],"categories_segments":[],"categories_sizes":[],"default_left":[0,0,0,0,0,0,0,0,0,0,0,0,0,0,0],"id":61,"left_children":[1,3,5,7,9,11,13,-1,-1,-1,-1,-1,-1,-1,-1],"loss_changes":[3.0529383E17,2.7517091E17,3.5003764E17,1.7609258E17,4.6532978E17,2.7150093E17,2.2423619E17,0E0,0E0,0E0,0E0,0E0,0E0,0E0,0E0],"parents":[2147483647,0,0,1,1,2,2,3,3,4,4,5,5,6,6],"right_children":[2,4,6,8,10,12,14,-1,-1,-1,-1,-1,-1,-1,-1],"split_conditions":[1.8E8,4.9405504E8,1.54E2,1.7934296E8,1E0,4.0852915E8,4.9831018E8,-9.14844E4,1.1143134E6,2.1777262E6,2.0788964E7,3.4104885E6,-5.1776975E6,5.0466945E6,1.914295E7],"split_indices":[1,6,0,5,18,5,5,0,0,0,0,0,0,0,0],"split_type":[0,0,0,0,0,0,0,0,0,0,0,0,0,0,0],"sum_hessian":[7.643E3,7.58E3,6.3E1,7.554E3,2.6E1,5E1,1.3E1,7.239E3,3.15E2,2.3E1,3E0,3.9E1,1.1E1,9E0,4E0],"tree_param":{"num_deleted":"0","num_feature":"21","num_nodes":"15","size_leaf_vector":"1"}},{"base_weights":[1.1958037E5,-1.4840308E6,2.4056568E7,-3.0463785E6,9.33998E6,2.6012332E6,5.9172436E7,-2.7313647E5,5.378905E4,5.9909305E6,3.985088E5,-1.09571766E5,6.4140615E6,-4.314413E6,3.3619268E6],"categories":[],"categories_nodes":[],"categories_segments":[],"categories_sizes":[],"default_left":[0,0,0,0,0,0,0,0,0,0,0,0,0,0,0],"id":62,"left_children":[1,3,5,7,9,11,13,-1,-1,-1,-1,-1,-1,-1,-1],"loss_changes":[2.9345536E17,1.2119484E17,3.61489E17,6.2379044E16,1.3585102E17,1.8038155E17,2.193424E17,0E0,0E0,0E0,0E0,0E0,0E0,0E0,0E0],"parents":[2147483647,0,0,1,1,2,2,3,3,4,4,5,5,6,6],"right_children":[2,4,6,8,10,12,14,-1,-1,-1,-1,-1,-1,-1,-1],"split_conditions":[3.7406E1,8.111566E7,1E0,1E0,2.351E0,1.8E8,7.7E6,-2.7313647E5,5.378905E4,5.9909305E6,3.985088E5,-1.09571766E5,6.4140615E6,-4.314413E6,3.3619268E6],"split_indices":[2,5,14,10,2,1,6,0,0,0,0,0,0,0,0],"split_type":[0,0,0,0,0,0,0,0,0,0,0,0,0,0,0],"sum_hessian":[7.643E3,7.164E3,4.79E2,6.261E3,9.03E2,2.98E2,1.81E2,3.947E3,2.314E3,1E1,8.93E2,2.88E2,1E1,9E0,1.72E2],"tree_param":{"num_deleted":"0","num_feature":"21","num_nodes":"15","size_leaf_vector":"1"}},{"base_weights":[1.15108305E5,-6.44921E5,4.6980564E7,-2.261481E6,1.5652571E7,1.0098935E8,1.630503E7,-2.4382478E5,1.1298373E5,2.3656573E5,2.3661068E6,2.8807085E6,1.3163452E7,-1.2274059E6,3.5548688E6],"categories":[],"categories_nodes":[],"categories_segments":[],"categories_sizes":[],"default_left":[0,0,0,0,0,0,0,0,0,0,0,0,0,0,0],"id":63,"left_children":[1,3,5,7,9,11,13,-1,-1,-1,-1,-1,-1,-1,-1],"loss_changes":[2.7230287E17,1.9823538E17,2.0047662E17,8.093868E16,2.3462281E17,2.945441E17,1.7858206E17,0E0,0E0,0E0,0E0,0E0,0E0,0E0,0E0],"parents":[2147483647,0,0,1,1,2,2,3,3,4,4,5,5,6,6],"right_children":[2,4,6,8,10,12,14,-1,-1,-1,-1,-1,-1,-1,-1],"split_conditions":[6.2104E1,1.3382877E8,2.004E3,1E0,2.986E1,2.1081962E8,1.5E8,-2.4382478E5,1.1298373E5,2.3656573E5,2.3661068E6,2.8807085E6,1.3163452E7,-1.2274059E6,3.5548688E6],"split_indices":[2,6,3,10,2,5,1,0,0,0,0,0,0,0,0],"split_type":[0,0,0,0,0,0,0,0,0,0,0,0,0,0,0],"sum_hessian":[7.643E3,7.522E3,1.21E2,6.844E3,6.78E2,4.3E1,7.8E1,4.336E3,2.508E3,5.05E2,1.73E2,3.5E1,8E0,4.5E1,3.3E1],"tree_param":{"num_deleted":"0","num_feature":"21","num_nodes":"15","size_leaf_vector":"1"}},{"base_weights":[1.1207956E5,-7.777621E5,3.659986E7,-4.164304E6,5.2222265E6,2.164131E7,1.3417527E8,-2.0469217E5,-5.7392485E6,-5.9869736E3,1.6250826E6,5.5772315E6,4.321699E5,1.775779E7,1.1145892E6],"categories":[],"categories_nodes":[],"categories_segments":[],"categories_sizes":[],"default_left":[0,0,0,0,0,0,0,0,0,0,0,0,0,0,0],"id":64,"left_children":[1,3,5,7,9,11,13,-1,-1,-1,-1,-1,-1,-1,-1],"loss_changes":[2.4821654E17,1.5166402E17,2.6274105E17,3.6717143E16,3.924434E17,1.8483622E17,5.854606E17,0E0,0E0,0E0,0E0,0E0,0E0,0E0,0E0],"parents":[2147483647,0,0,1,1,2,2,3,3,4,4,5,5,6,6],"right_children":[2,4,6,8,10,12,14,-1,-1,-1,-1,-1,-1,-1,-1],"split_conditions":[2.5011403E8,1.6268E1,7.3018E1,1.8E8,1E0,1.994E3,7.528329E7,-2.0469217E5,-5.7392485E6,-5.9869736E3,1.6250826E6,5.5772315E6,4.321699E5,1.775779E7,1.1145892E6],"split_indices":[5,2,2,1,13,3,6,0,0,0,0,0,0,0,0],"split_type":[0,0,0,0,0,0,0,0,0,0,0,0,0,0,0],"sum_hessian":[7.643E3,7.462E3,1.81E2,4.77E3,2.692E3,1.58E2,2.3E1,4.768E3,2E0,2.252E3,4.4E2,1.9E1,1.39E2,7E0,1.6E1],"tree_param":{"num_deleted":"0","num_feature":"21","num_nodes":"15","size_leaf_vector":"1"}},{"base_weights":[1.0916454E5,-3.9818706E5,6.020484E7,-7.3308856E5,9.332698E7,2.2836252E7,1.9203293E8,-7.9711266E4,9.499536E5,1.9429356E6,1.984024E7,3.0451288E6,-5.2977255E6,4.4396195E6,1.800537E7],"categories":[],"categories_nodes":[],"categories_segments":[],"categories_sizes":[],"default_left":[0,0,0,0,0,0,0,0,0,0,0,0,0,0,0],"id":65,"left_children":[1,3,5,7,9,11,13,-1,-1,-1,-1,-1,-1,-1,-1],"loss_changes":[2.3308676E17,2.3802616E17,3.1089337E17,1.2840551E17,4.3088823E17,2.56485E17,2.1095464E17,0E0,0E0,0E0,0E0,0E0,0E0,0E0,0E0],"parents":[2147483647,0,0,1,1,2,2,3,3,4,4,5,5,6,6],"right_children":[2,4,6,8,10,12,14,-1,-1,-1,-1,-1,-1,-1,-1],"split_conditions":[1.8E8,4.9405504E8,1.54E2,1.7934296E8,1E0,4.0852915E8,4.9831018E8,-7.9711266E4,9.499536E5,1.9429356E6,1.984024E7,3.0451288E6,-5.2977255E6,4.4396195E6,1.800537E7],"split_indices":[1,6,0,5,18,5,5,0,0,0,0,0,0,0,0],"split_type":[0,0,0,0,0,0,0,0,0,0,0,0,0,0,0],"sum_hessian":[7.643E3,7.58E3,6.3E1,7.554E3,2.6E1,5E1,1.3E1,7.239E3,3.15E2,2.3E1,3E0,3.9E1,1.1E1,9E0,4E0],"tree_param":{"num_deleted":"0","num_feature":"21","num_nodes":"15","size_leaf_vector":"1"}},{"base_weights":[1.09311875E5,-5.829451E5,4.2795708E7,-2.7639082E6,9.677449E6,9.491677E7,1.3224537E7,-1.2053469E5,-2.2256168E6,1.3985278E5,1.7893876E6,1.9623859E6,1.057021E7,-2.5223016E5,5.782381E6],"categories":[],"categories_nodes":[],"categories_segments":[],"categories_sizes":[],"default_left":[0,0,0,0,0,0,0,0,0,0,0,0,0,0,0],"id":66,"left_children":[1,3,5,7,9,11,13,-1,-1,-1,-1,-1,-1,-1,-1],"loss_changes":[2.2590482E17,1.68373E17,1.8678102E17,9.1392575E16,2.3685716E17,2.7703154E17,1.4840674E17,0E0,0E0,0E0,0E0,0E0,0E0,0E0,0E0],"parents":[2147483647,0,0,1,1,2,2,3,3,4,4,5,5,6,6],"right_children":[2,4,6,8,10,12,14,-1,-1,-1,-1,-1,-1,-1,-1],"split_conditions":[6.2104E1,8.16E7,2.004E3,1.3E8,1.24E2,6.7538776E7,4.9831018E8,-1.2053469E5,-2.2256168E6,1.3985278E5,1.7893876E6,1.9623859E6,1.057021E7,-2.5223016E5,5.782381E6],"split_indices":[2,6,3,1,0,6,5,0,0,0,0,0,0,0,0],"split_type":[0,0,0,0,0,0,0,0,0,0,0,0,0,0,0],"sum_hessian":[7.643E3,7.522E3,1.21E2,6.204E3,1.318E3,4.3E1,7.8E1,6.153E3,5.1E1,1.044E3,2.74E2,3E1,1.3E1,6.7E1,1.1E1],"tree_param":{"num_deleted":"0","num_feature":"21","num_nodes":"15","size_leaf_vector":"1"}},{"base_weights":[1.06154945E5,-1.25695E6,2.0453116E7,-5.2748465E6,2.3626878E6,8.153729E5,5.260274E7,-2.5338448E5,-5.242235E6,-3.1880576E4,7.525692E5,-4.35993E5,2.741512E6,-4.2762895E6,3.0141495E6],"categories":[],"categories_nodes":[],"categories_segments":[],"categories_sizes":[],"default_left":[0,0,0,0,0,0,0,0,0,0,0,0,0,0,0],"id":67,"left_children":[1,3,5,7,9,11,13,-1,-1,-1,-1,-1,-1,-1,-1],"loss_changes":[2.1203236E17,1.0421543E17,3.030032E17,6.9516734E16,1.4353306E17,1.5447638E17,1.9823243E17,0E0,0E0,0E0,0E0,0E0,0E0,0E0,0E0],"parents":[2147483647,0,0,1,1,2,2,3,3,4,4,5,5,6,6],"right_children":[2,4,6,8,10,12,14,-1,-1,-1,-1,-1,-1,-1,-1],"split_conditions":[3.7406E1,1.03E2,1E0,1.6E8,2.162E1,1E0,7.7E6,-2.5338448E5,-5.242235E6,-3.1880576E4,7.525692E5,-4.35993E5,2.741512E6,-4.2762895E6,3.0141495E6],"split_indices":[2,0,14,1,2,17,6,0,0,0,0,0,0,0,0],"split_type":[0,0,0,0,0,0,0,0,0,0,0,0,0,0,0],"sum_hessian":[7.643E3,7.164E3,4.79E2,3.395E3,3.769E3,2.98E2,1.81E2,3.389E3,6E0,3.049E3,7.2E2,2.54E2,4.4E1,9E0,1.72E2],"tree_param":{"num_deleted":"0","num_feature":"21","num_nodes":"15","size_leaf_vector":"1"}},{"base_weights":[1.0035892E5,-3.659805E5,5.533815E7,-6.793303E5,8.73275E7,1.9575492E7,1.816637E8,-2.6021253E5,1.29029E5,1.7547772E6,1.8944368E7,5.3039835E6,-1.7550679E6,4.1228945E6,1.7187128E7],"categories":[],"categories_nodes":[],"categories_segments":[],"categories_sizes":[],"default_left":[0,0,0,0,0,0,0,0,0,0,0,0,0,0,0],"id":68,"left_children":[1,3,5,7,9,11,13,-1,-1,-1,-1,-1,-1,-1,-1],"loss_changes":[1.9692635E17,2.0837561E17,2.8557908E17,1.1145598E17,3.978788E17,2.4494212E17,1.96764E17,0E0,0E0,0E0,0E0,0E0,0E0,0E0,0E0],"parents":[2147483647,0,0,1,1,2,2,3,3,4,4,5,5,6,6],"right_children":[2,4,6,8,10,12,14,-1,-1,-1,-1,-1,-1,-1,-1],"split_conditions":[1.8E8,4.9405504E8,1.54E2,7E6,1E0,1.6418622E8,4.9831018E8,-2.6021253E5,1.29029E5,1.7547772E6,1.8944368E7,5.3039835E6,-1.7550679E6,4.1228945E6,1.7187128E7],"split_indices":[1,6,0,1,18,5,5,0,0,0,0,0,0,0,0],"split_type":[0,0,0,0,0,0,0,0,0,0,0,0,0,0,0],"sum_hessian":[7.643E3,7.58E3,6.3E1,7.554E3,2.6E1,5E1,1.3E1,3.163E3,4.391E3,2.3E1,3E0,1.9E1,3.1E1,9E0,4E0],"tree_param":{"num_deleted":"0","num_feature":"21","num_nodes":"15","size_leaf_vector":"1"}},{"base_weights":[1.0128414E5,-5.280259E5,3.8906184E7,-1.1133001E6,3.384013E7,8.915362E7,1.0427793E7,-6.5304562E4,3.3336835E6,3.4116812E6,-2.5649725E5,1.8157224E6,9.989326E6,-7.982943E4,7.8495265E6],"categories":[],"categories_nodes":[],"categories_segments":[],"categories_sizes":[],"default_left":[0,0,0,0,0,0,0,0,0,0,0,0,0,0,0],"id":69,"left_children":[1,3,5,7,9,11,13,-1,-1,-1,-1,-1,-1,-1,-1],"loss_changes":[1.8668941E17,1.513613E17,1.7364817E17,9.676953E16,1.6922996E17,2.4995789E17,1.3947443E17,0E0,0E0,0E0,0E0,0E0,0E0,0E0,0E0],"parents":[2147483647,0,0,1,1,2,2,3,3,4,4,5,5,6,6],"right_children":[2,4,6,8,10,12,14,-1,-1,-1,-1,-1,-1,-1,-1],"split_conditions":[6.2104E1,2.8457885E8,2.004E3,4.9405504E8,7E0,6.7538776E7,2.015E3,-6.5304562E4,3.3336835E6,3.4116812E6,-2.5649725E5,1.8157224E6,9.989326E6,-7.982943E4,7.8495265E6],"split_indices":[2,5,3,6,4,6,3,0,0,0,0,0,0,0,0],"split_type":[0,0,0,0,0,0,0,0,0,0,0,0,0,0,0],"sum_hessian":[7.643E3,7.522E3,1.21E2,7.397E3,1.25E2,4.3E1,7.8E1,7.377E3,2E1,6.6E1,5.9E1,3E1,1.3E1,7.3E1,5E0],"tree_param":{"num_deleted":"0","num_feature":"21","num_nodes":"15","size_leaf_vector":"1"}},{"base_weights":[9.962128E4,-2.449329E6,9.170603E6,-4.408453E6,2.637607E6,-2.8605798E6,1.968596E7,-1.4456958E5,-7.586791E5,-4.8717043E4,1.1701464E6,-2.2567445E5,6.268032E6,9.2945544E5,1.6981028E7],"categories":[],"categories_nodes":[],"categories_segments":[],"categories_sizes":[],"default_left":[0,0,0,0,0,0,0,0,0,0,0,0,0,0,0],"id":70,"left_children":[1,3,5,7,9,11,13,-1,-1,-1,-1,-1,-1,-1,-1],"loss_changes":[1.7676306E17,5.9488346E16,2.1221725E17,7.032795E16,1.245282E17,1.6651325E17,3.0776124E17,0E0,0E0,0E0,0E0,0E0,0E0,0E0,0E0],"parents":[2147483647,0,0,1,1,2,2,3,3,4,4,5,5,6,6],"right_children":[2,4,6,8,10,12,14,-1,-1,-1,-1,-1,-1,-1,-1],"split_conditions":[3.1E7,1.15E2,2.0852E1,2.2403E1,2.162E1,1.6E8,1.91E2,-1.4456958E5,-7.586791E5,-4.8717043E4,1.1701464E6,-2.2567445E5,6.268032E6,9.2945544E5,1.6981028E7],"split_indices":[1,0,2,2,2,1,0,0,0,0,0,0,0,0,0],"split_type":[0,0,0,0,0,0,0,0,0,0,0,0,0,0,0],"sum_hessian":[7.643E3,5.967E3,1.676E3,4.308E3,1.659E3,7.82E2,8.94E2,3.777E3,5.31E2,1.414E3,2.45E2,7.73E2,9E0,8.92E2,2E0],"tree_param":{"num_deleted":"0","num_feature":"21","num_nodes":"15","size_leaf_vector":"1"}},{"base_weights":[9.7802625E4,-3.2660716E5,5.036894E7,-6.149185E5,8.035927E7,1.672517E7,1.6933061E8,-1.807987E5,1.7914719E5,1.5083626E6,1.8071078E7,2.6676312E6,-5.3380055E6,1.4286271E7,2.315942E6],"categories":[],"categories_nodes":[],"categories_segments":[],"categories_sizes":[],"default_left":[0,0,0,0,0,0,0,0,0,0,0,0,0,0,0],"id":71,"left_children":[1,3,5,7,9,11,13,-1,-1,-1,-1,-1,-1,-1,-1],"loss_changes":[1.631055E17,1.7640357E17,2.5331635E17,9.519098E16,3.6998814E17,2.3636643E17,1.8721656E17,0E0,0E0,0E0,0E0,0E0,0E0,0E0,0E0],"parents":[2147483647,0,0,1,1,2,2,3,3,4,4,5,5,6,6],"right_children":[2,4,6,8,10,12,14,-1,-1,-1,-1,-1,-1,-1,-1],"split_conditions":[1.8E8,4.9405504E8,1.54E2,1.4972E1,1E0,4.0852915E8,7.528329E7,-1.807987E5,1.7914719E5,1.5083626E6,1.8071078E7,2.6676312E6,-5.3380055E6,1.4286271E7,2.315942E6],"split_indices":[1,6,0,2,18,5,6,0,0,0,0,0,0,0,0],"split_type":[0,0,0,0,0,0,0,0,0,0,0,0,0,0,0],"sum_hessian":[7.643E3,7.58E3,6.3E1,7.554E3,2.6E1,5E1,1.3E1,4.405E3,3.149E3,2.3E1,3E0,3.9E1,1.1E1,6E0,7E0],"tree_param":{"num_deleted":"0","num_feature":"21","num_nodes":"15","size_leaf_vector":"1"}},{"base_weights":[9.72966E4,-5.497409E5,3.199305E7,-8.540533E5,5.9174028E7,-1.02675576E8,4.0187664E7,-1.607035E5,2.2592873E5,6.5845335E6,-2.4383508E6,-2.1570253E5,-1.1227449E7,8.532592E5,5.211907E6],"categories":[],"categories_nodes":[],"categories_segments":[],"categories_sizes":[],"default_left":[0,0,0,0,0,0,0,0,0,0,0,0,0,0,0],"id":72,"left_children":[1,3,5,7,9,11,13,-1,-1,-1,-1,-1,-1,-1,-1],"loss_changes":[1.5777253E17,1.3623345E17,1.7186705E17,9.45528E16,3.0386797E17,1.0692017E17,2.1148598E17,0E0,0E0,0E0,0E0,0E0,0E0,0E0,0E0],"parents":[2147483647,0,0,1,1,2,2,3,3,4,4,5,5,6,6],"right_children":[2,4,6,8,10,12,14,-1,-1,-1,-1,-1,-1,-1,-1],"split_conditions":[2.8457885E8,1.8E8,4E0,1.15E2,1E0,4.2954E1,1E0,-1.607035E5,2.2592873E5,6.5845335E6,-2.4383508E6,-2.1570253E5,-1.1227449E7,8.532592E5,5.211907E6],"split_indices":[5,1,4,0,18,2,18,0,0,0,0,0,0,0,0],"split_type":[0,0,0,0,0,0,0,0,0,0,0,0,0,0,0],"sum_hessian":[7.643E3,7.492E3,1.51E2,7.455E3,3.7E1,8E0,1.43E2,5.18E3,2.275E3,2.2E1,1.5E1,5E0,3E0,1.06E2,3.7E1],"tree_param":{"num_deleted":"0","num_feature":"21","num_nodes":"15","size_leaf_vector":"1"}},{"base_weights":[9.2279414E4,-3.1007916E5,4.930184E7,-5.710758E5,8.19168E7,1.6144693E8,-2.44946E5,-1.4388964E5,2.901984E5,1.6115662E6,3.061707E7,3.4073552E6,1.5582709E7,-2.8055748E6,3.18071E6],"categories":[],"categories_nodes":[],"categories_segments":[],"categories_sizes":[],"default_left":[0,0,0,0,0,0,0,0,0,0,0,0,0,0,0],"id":73,"left_children":[1,3,5,7,9,11,13,-1,-1,-1,-1,-1,-1,-1,-1],"loss_changes":[1.5136563E17,1.627851E17,3.4453815E17,1.11189685E17,6.1276896E17,2.4503362E17,1.6054344E17,0E0,0E0,0E0,0E0,0E0,0E0,0E0,0E0],"parents":[2147483647,0,0,1,1,2,2,3,3,4,4,5,5,6,6],"right_children":[2,4,6,8,10,12,14,-1,-1,-1,-1,-1,-1,-1,-1],"split_conditions":[8.3952E1,4.9831018E8,2.004E3,4.645796E7,7.3018E1,4.0996664E7,2.011E3,-1.4388964E5,2.901984E5,1.6115662E6,3.061707E7,3.4073552E6,1.5582709E7,-2.8055748E6,3.18071E6],"split_indices":[2,5,3,6,2,5,3,0,0,0,0,0,0,0,0],"split_type":[0,0,0,0,0,0,0,0,0,0,0,0,0,0,0],"sum_hessian":[7.643E3,7.582E3,6.1E1,7.559E3,2.3E1,1.8E1,4.3E1,5.551E3,2.008E3,2.2E1,1E0,1.2E1,6E0,2.3E1,2E1],"tree_param":{"num_deleted":"0","num_feature":"21","num_nodes":"15","size_leaf_vector":"1"}},{"base_weights":[9.443393E4,-1.01731525E6,1.668941E7,-3.7060515E6,3.481006E6,-1.01070575E6,4.567647E7,-3.5773328E5,1.8408005E5,-1.6667842E5,6.912187E5,3.868786E5,-2.8124782E6,-4.3649435E6,2.654944E6],"categories":[],"categories_nodes":[],"categories_segments":[],"categories_sizes":[],"default_left":[0,0,0,0,0,0,0,0,0,0,0,0,0,0,0],"id":74,"left_children":[1,3,5,7,9,11,13,-1,-1,-1,-1,-1,-1,-1,-1],"loss_changes":[1.4104459E17,8.667215E16,2.4632184E17,1.1429141E17,1.8901811E17,1.4492544E17,1.8426901E17,0E0,0E0,0E0,0E0,0E0,0E0,0E0,0E0],"parents":[2147483647,0,0,1,1,2,2,3,3,4,4,5,5,6,6],"right_children":[2,4,6,8,10,12,14,-1,-1,-1,-1,-1,-1,-1,-1],"split_conditions":[3.7406E1,1E0,1E0,1.19E2,1.4158E1,1E0,7.7E6,-3.5773328E5,1.8408005E5,-1.6667842E5,6.912187E5,3.868786E5,-2.8124782E6,-4.3649435E6,2.654944E6],"split_indices":[2,10,14,0,2,18,6,0,0,0,0,0,0,0,0],"split_type":[0,0,0,0,0,0,0,0,0,0,0,0,0,0,0],"sum_hessian":[7.643E3,7.164E3,4.79E2,4.484E3,2.68E3,2.98E2,1.81E2,3.057E3,1.427E3,1.616E3,1.064E3,2.58E2,4E1,9E0,1.72E2],"tree_param":{"num_deleted":"0","num_feature":"21","num_nodes":"15","size_leaf_vector":"1"}},{"base_weights":[8.921705E4,-2.8624094E5,4.600871E7,-5.359895E5,7.839648E7,1.5329131E8,-1.3635176E6,-1.0940264E5,3.6021338E5,1.5002278E6,2.9785268E7,1.6568501E6,1.2905825E7,-2.7235998E6,2.9698408E6],"categories":[],"categories_nodes":[],"categories_segments":[],"categories_sizes":[],"default_left":[0,0,0,0,0,0,0,0,0,0,0,0,0,0,0],"id":75,"left_children":[1,3,5,7,9,11,13,-1,-1,-1,-1,-1,-1,-1,-1],"loss_changes":[1.3180217E17,1.4905474E17,3.153064E17,9.668847E16,5.8293186E17,2.3075554E17,1.4521855E17,0E0,0E0,0E0,0E0,0E0,0E0,0E0,0E0],"parents":[2147483647,0,0,1,1,2,2,3,3,4,4,5,5,6,6],"right_children":[2,4,6,8,10,12,14,-1,-1,-1,-1,-1,-1,-1,-1],"split_conditions":[8.3952E1,4.9831018E8,2.004E3,8.16E7,7.3018E1,2.6E7,2.011E3,-1.0940264E5,3.6021338E5,1.5002278E6,2.9785268E7,1.6568501E6,1.2905825E7,-2.7235998E6,2.9698408E6],"split_indices":[2,5,3,6,2,1,3,0,0,0,0,0,0,0,0],"split_type":[0,0,0,0,0,0,0,0,0,0,0,0,0,0,0],"sum_hessian":[7.643E3,7.582E3,6.1E1,7.559E3,2.3E1,1.8E1,4.3E1,6.23E3,1.329E3,2.2E1,1E0,9E0,9E0,2.3E1,2E1],"tree_param":{"num_deleted":"0","num_feature":"21","num_nodes":"15","size_leaf_vector":"1"}},{"base_weights":[9.08191E4,-1.6946638E5,6.201152E7,-5.0915684E5,4.7390336E7,2.5284968E7,2.5527792E8,-1.2804879E5,2.5807145E5,6.5484675E6,-9.422357E5,-2.277766E6,6.176748E6,2.9040638E7,1.4345512E6],"categories":[],"categories_nodes":[],"categories_segments":[],"categories_sizes":[],"default_left":[0,0,0,0,0,0,0,0,0,0,0,0,0,0,0],"id":76,"left_children":[1,3,5,7,9,11,13,-1,-1,-1,-1,-1,-1,-1,-1],"loss_changes":[1.23209315E17,1.230168E17,2.2068154E17,8.7973935E16,3.0140452E17,2.005093E17,3.521455E17,0E0,0E0,0E0,0E0,0E0,0E0,0E0,0E0],"parents":[2147483647,0,0,1,1,2,2,3,3,4,4,5,5,6,6],"right_children":[2,4,6,8,10,12,14,-1,-1,-1,-1,-1,-1,-1,-1],"split_conditions":[4.9831018E8,8.3952E1,1.62E2,4.645796E7,7.528329E7,1.3696827E8,1.63E2,-1.2804879E5,2.5807145E5,6.5484675E6,-9.422357E5,-2.277766E6,6.176748E6,2.9040638E7,1.4345512E6],"split_indices":[5,2,0,6,6,6,0,0,0,0,0,0,0,0,0],"split_type":[0,0,0,0,0,0,0,0,0,0,0,0,0,0,0],"sum_hessian":[7.643E3,7.612E3,3.1E1,7.559E3,5.3E1,2.7E1,4E0,5.551E3,2.008E3,2.3E1,3E1,1.6E1,1.1E1,1E0,3E0],"tree_param":{"num_deleted":"0","num_feature":"21","num_nodes":"15","size_leaf_vector":"1"}},{"base_weights":[9.1525516E4,-4.650283E5,2.752683E7,-7.4335294E5,5.4157436E7,-1.009517E8,3.536558E7,-1.27767375E5,2.929296E5,4.4388806E5,1.1142325E7,-3.3432347E5,-1.0855581E7,6.977842E5,4.7360335E6],"categories":[],"categories_nodes":[],"categories_segments":[],"categories_sizes":[],"default_left":[0,0,0,0,0,0,0,0,0,0,0,0,0,0,0],"id":77,"left_children":[1,3,5,7,9,11,13,-1,-1,-1,-1,-1,-1,-1,-1],"loss_changes":[1.1673075E17,1.1395467E17,1.5665108E17,8.920877E16,2.8827267E17,9.709684E16,1.816713E17,0E0,0E0,0E0,0E0,0E0,0E0,0E0,0E0],"parents":[2147483647,0,0,1,1,2,2,3,3,4,4,5,5,6,6],"right_children":[2,4,6,8,10,12,14,-1,-1,-1,-1,-1,-1,-1,-1],"split_conditions":[2.8457885E8,1.8E8,4E0,1E0,1.41E2,4.2954E1,1E0,-1.27767375E5,2.929296E5,4.4388806E5,1.1142325E7,-3.3432347E5,-1.0855581E7,6.977842E5,4.7360335E6],"split_indices":[5,1,4,13,0,2,18,0,0,0,0,0,0,0,0],"split_type":[0,0,0,0,0,0,0,0,0,0,0,0,0,0,0],"sum_hessian":[7.643E3,7.492E3,1.51E2,7.455E3,3.7E1,8E0,1.43E2,5.85E3,1.605E3,3E1,7E0,5E0,3E0,1.06E2,3.7E1],"tree_param":{"num_deleted":"0","num_feature":"21","num_nodes":"15","size_leaf_vector":"1"}},{"base_weights":[8.773338E4,-1.00243156E6,1.3619013E7,-2.579102E6,6.3540625E6,3.0193482E7,-8.333512E6,-1.1204627E5,-2.0046552E6,2.646133E5,9.699555E6,6.674592E5,4.038476E6,-2.2053445E5,-7.0819895E6],"categories":[],"categories_nodes":[],"categories_segments":[],"categories_sizes":[],"default_left":[0,0,0,0,0,0,0,0,0,0,0,0,0,0,0],"id":78,"left_children":[1,3,5,7,9,11,13,-1,-1,-1,-1,-1,-1,-1,-1],"loss_changes":[1.12772784E17,8.207767E16,2.0764696E17,7.383351E16,2.4781461E17,2.7579507E17,1.2801776E17,0E0,0E0,0E0,0E0,0E0,0E0,0E0,0E0],"parents":[2147483647,0,0,1,1,2,2,3,3,4,4,5,5,6,6],"right_children":[2,4,6,8,10,12,14,-1,-1,-1,-1,-1,-1,-1,-1],"split_conditions":[1.5236883E8,1.1E1,1E0,1.5E8,2E8,1.21E2,6.2104E1,-1.1204627E5,-2.0046552E6,2.646133E5,9.699555E6,6.674592E5,4.038476E6,-2.2053445E5,-7.0819895E6],"split_indices":[6,4,9,1,1,0,2,0,0,0,0,0,0,0,0],"split_type":[0,0,0,0,0,0,0,0,0,0,0,0,0,0,0],"sum_hessian":[7.643E3,7.074E3,5.69E2,5.826E3,1.248E3,3.24E2,2.45E2,5.775E3,5.1E1,1.242E3,6E0,2.44E2,8E1,2.39E2,6E0],"tree_param":{"num_deleted":"0","num_feature":"21","num_nodes":"15","size_leaf_vector":"1"}},{"base_weights":[8.403405E4,-2.136457E6,6.4587685E6,-6.412095E6,3.5588252E6,6.3397025E5,2.6253888E7,-3.3291912E5,3.0186845E6,-1.5623642E5,6.120777E5,-1.4169877E4,8.742731E6,2.5825848E6,7.046489E4],"categories":[],"categories_nodes":[],"categories_segments":[],"categories_sizes":[],"default_left":[0,0,0,0,0,0,0,0,0,0,0,0,0,0,0],"id":79,"left_children":[1,3,5,7,9,11,13,-1,-1,-1,-1,-1,-1,-1,-1],"loss_changes":[1.0821494E17,1.3809277E17,2.2770594E17,5.3678785E16,1.4117082E17,2.441014E17,2.8324533E17,0E0,0E0,0E0,0E0,0E0,0E0,0E0,0E0],"parents":[2147483647,0,0,1,1,2,2,3,3,4,4,5,5,6,6],"right_children":[2,4,6,8,10,12,14,-1,-1,-1,-1,-1,-1,-1,-1],"split_conditions":[1.19E2,1E0,2.3655E1,4.0852915E8,1.4158E1,1.6E8,1E0,-3.3291912E5,3.0186845E6,-1.5623642E5,6.120777E5,-1.4169877E4,8.742731E6,2.5825848E6,7.046489E4],"split_indices":[0,10,2,5,2,1,9,0,0,0,0,0,0,0,0],"split_type":[0,0,0,0,0,0,0,0,0,0,0,0,0,0,0],"sum_hessian":[7.643E3,5.669E3,1.974E3,3.238E3,2.431E3,1.526E3,4.48E2,3.227E3,1.1E1,1.374E3,1.057E3,1.519E3,7E0,2.21E2,2.27E2],"tree_param":{"num_deleted":"0","num_feature":"21","num_nodes":"15","size_leaf_vector":"1"}},{"base_weights":[8.173217E4,-8.4615825E5,1.3932259E7,-3.2668155E6,3.2036345E6,6.994917E6,7.769554E7,-3.1454225E5,1.60565E5,-1.436376E5,6.213232E5,9.549631E5,-1.5556964E6,7.7873985E6,1.4137116E6],"categories":[],"categories_nodes":[],"categories_segments":[],"categories_sizes":[],"default_left":[0,0,0,0,0,0,0,0,0,0,0,0,0,0,0],"id":80,"left_children":[1,3,5,7,9,11,13,-1,-1,-1,-1,-1,-1,-1,-1],"loss_changes":[9.825072E16,7.0250104E16,2.1178343E17,8.788141E16,1.502829E17,2.0079087E17,1.7689665E17,0E0,0E0,0E0,0E0,0E0,0E0,0E0,0E0],"parents":[2147483647,0,0,1,1,2,2,3,3,4,4,5,5,6,6],"right_children":[2,4,6,8,10,12,14,-1,-1,-1,-1,-1,-1,-1,-1],"split_conditions":[3.7406E1,1E0,1E0,1.19E2,1.4158E1,1E0,1.998E3,-3.1454225E5,1.60565E5,-1.436376E5,6.213232E5,9.549631E5,-1.5556964E6,7.7873985E6,1.4137116E6],"split_indices":[2,10,13,0,2,9,3,0,0,0,0,0,0,0,0],"split_type":[0,0,0,0,0,0,0,0,0,0,0,0,0,0,0],"sum_hessian":[7.643E3,7.164E3,4.79E2,4.484E3,2.68E3,4.33E2,4.6E1,3.057E3,1.427E3,1.616E3,1.064E3,3.29E2,1.04E2,1.7E1,2.9E1],"tree_param":{"num_deleted":"0","num_feature":"21","num_nodes":"15","size_leaf_vector":"1"}},{"base_weights":[7.881334E4,2.1522176E4,1.094888E7,-1.972466E6,5.748924E6,-1.1373908E5,3.4621018E6,2.3413975E4,1.1867538E6],"categories":[],"categories_nodes":[],"categories_segments":[],"categories_sizes":[],"default_left":[0,0,0,0,0,0,0,0,0],"id":81,"left_children":[1,3,-1,5,7,-1,-1,-1,-1],"loss_changes":[9.585843E16,8.729724E16,0E0,1.2222834E17,1.8747637E17,0E0,0E0,0E0,0E0],"parents":[2147483647,0,0,1,1,3,3,4,4],"right_children":[2,4,-1,6,8,-1,-1,-1,-1],"split_conditions":[9.421593E8,1.19E2,1.094888E7,4.0852915E8,2.3655E1,-1.1373908E5,3.4621018E6,2.3413975E4,1.1867538E6],"split_indices":[5,0,0,5,2,0,0,0,0],"split_type":[0,0,0,0,0,0,0,0,0],"sum_hessian":[7.643E3,7.642E3,1E0,5.669E3,1.973E3,5.646E3,2.3E1,1.526E3,4.47E2],"tree_param":{"num_deleted":"0","num_feature":"21","num_nodes":"9","size_leaf_vector":"1"}},{"base_weights":[7.690137E4,2.1042482E4,1.0675159E7,-1.6889254E6,6.109985E6,-1.4563061E5,2.214988E5,-1.7126648E5,7.227275E5],"categories":[],"categories_nodes":[],"categories_segments":[],"categories_sizes":[],"default_left":[0,0,0,0,0,0,0,0,0],"id":82,"left_children":[1,3,-1,5,7,-1,-1,-1,-1],"loss_changes":[9.1125385E16,7.958844E16,0E0,4.469901E16,1.3340557E17,0E0,0E0,0E0,0E0],"parents":[2147483647,0,0,1,1,3,3,4,4],"right_children":[2,4,-1,6,8,-1,-1,-1,-1],"split_conditions":[9.421593E8,3.1E7,1.0675159E7,1.1E1,2.0852E1,-1.4563061E5,2.214988E5,-1.7126648E5,7.227275E5],"split_indices":[5,1,0,4,2,0,0,0,0],"split_type":[0,0,0,0,0,0,0,0,0],"sum_hessian":[7.643E3,7.642E3,1E0,5.967E3,1.675E3,4.973E3,9.94E2,7.82E2,8.93E2],"tree_param":{"num_deleted":"0","num_feature":"21","num_nodes":"9","size_leaf_vector":"1"}},{"base_weights":[7.453537E4,2.00729E4,1.040828E7,-1.8536814E6,5.4021225E6,-2.8537628E5,1.6398648E5,3.2997012E3,1.0400568E6],"categories":[],"categories_nodes":[],"categories_segments":[],"categories_sizes":[],"default_left":[0,0,0,0,0,0,0,0,0],"id":83,"left_children":[1,3,-1,5,7,-1,-1,-1,-1],"loss_changes":[8.662645E16,7.708691E16,0E0,1.121904E17,1.622044E17,0E0,0E0,0E0,0E0],"parents":[2147483647,0,0,1,1,3,3,4,4],"right_children":[2,4,-1,6,8,-1,-1,-1,-1],"split_conditions":[9.421593E8,1.19E2,1.040828E7,1E0,2.2223E1,-2.8537628E5,1.6398648E5,3.2997012E3,1.0400568E6],"split_indices":[5,0,0,10,2,0,0,0,0],"split_type":[0,0,0,0,0,0,0,0,0],"sum_hessian":[7.643E3,7.642E3,1E0,5.669E3,1.973E3,3.238E3,2.431E3,1.466E3,5.07E2],"tree_param":{"num_deleted":"0","num_feature":"21","num_nodes":"9","size_leaf_vector":"1"}},{"base_weights":[7.2290664E4,1.9189705E4,1.0148074E7,-1.598527E6,6.0394025E6,-1.6404969E5,3.0627234E5,-1.2225935E5,1.6037451E6],"categories":[],"categories_nodes":[],"categories_segments":[],"categories_sizes":[],"default_left":[0,0,0,0,0,0,0,0,0],"id":84,"left_children":[1,3,-1,5,7,-1,-1,-1,-1],"loss_changes":[8.234959E16,7.444482E16,0E0,7.831694E16,3.577164E17,0E0,0E0,0E0,0E0],"parents":[2147483647,0,0,1,1,3,3,4,4],"right_children":[2,4,-1,6,8,-1,-1,-1,-1],"split_conditions":[9.421593E8,1E0,1.0148074E7,1E0,1.7242E1,-1.6404969E5,3.0627234E5,-1.2225935E5,1.6037451E6],"split_indices":[5,13,0,14,2,0,0,0,0],"split_type":[0,0,0,0,0,0,0,0,0],"sum_hessian":[7.643E3,7.642E3,1E0,6.024E3,1.618E3,4.947E3,1.077E3,1.221E3,3.97E2],"tree_param":{"num_deleted":"0","num_feature":"21","num_nodes":"9","size_leaf_vector":"1"}},{"base_weights":[7.0215734E4,-1.3992992E5,5.0062984E7,-4.306186E5,4.0559076E7,1.459036E7,2.3869709E8,-1.3430248E5,1.7099189E5,5.968992E6,-1.0885905E6,-2.5001768E6,5.2441255E6,2.7783898E7,1.0266192E6],"categories":[],"categories_nodes":[],"categories_segments":[],"categories_sizes":[],"default_left":[0,0,0,0,0,0,0,0,0,0,0,0,0,0,0],"id":85,"left_children":[1,3,5,7,9,11,13,-1,-1,-1,-1,-1,-1,-1,-1],"loss_changes":[8.031306E16,9.008488E16,2.1064042E17,6.566353E16,2.6789938E17,1.685495E17,3.3436076E17,0E0,0E0,0E0,0E0,0E0,0E0,0E0,0E0],"parents":[2147483647,0,0,1,1,2,2,3,3,4,4,5,5,6,6],"right_children":[2,4,6,8,10,12,14,-1,-1,-1,-1,-1,-1,-1,-1],"split_conditions":[4.9831018E8,8.3952E1,1.62E2,1E0,7.528329E7,1.3696827E8,1.63E2,-1.3430248E5,1.7099189E5,5.968992E6,-1.0885905E6,-2.5001768E6,5.2441255E6,2.7783898E7,1.0266192E6],"split_indices":[5,2,0,10,6,6,0,0,0,0,0,0,0,0,0],"split_type":[0,0,0,0,0,0,0,0,0,0,0,0,0,0,0],"sum_hessian":[7.643E3,7.612E3,3.1E1,7.559E3,5.3E1,2.7E1,4E0,4.767E3,2.792E3,2.3E1,3E1,1.6E1,1.1E1,1E0,3E0],"tree_param":{"num_deleted":"0","num_feature":"21","num_nodes":"15","size_leaf_vector":"1"}},{"base_weights":[7.147641E4,-8.390394E5,1.1372928E7,-2.2402058E6,5.698539E6,2.6262958E7,-8.345089E6,-9.432726E4,-2.074033E6,2.3699711E5,8.755195E6,1.8475658E5,2.9201478E6,-2.2902125E5,-6.811357E6],"categories":[],"categories_nodes":[],"categories_segments":[],"categories_sizes":[],"default_left":[0,0,0,0,0,0,0,0,0,0,0,0,0,0,0],"id":86,"left_children":[1,3,5,7,9,11,13,-1,-1,-1,-1,-1,-1,-1,-1],"loss_changes":[7.866745E16,6.4821425E16,1.6757222E17,8.078771E16,2.0199693E17,2.355164E17,1.1780853E17,0E0,0E0,0E0,0E0,0E0,0E0,0E0,0E0],"parents":[2147483647,0,0,1,1,2,2,3,3,4,4,5,5,6,6],"right_children":[2,4,6,8,10,12,14,-1,-1,-1,-1,-1,-1,-1,-1],"split_conditions":[1.5236883E8,1.1E1,1E0,1.5E8,2E8,2.9496E1,6.2104E1,-9.432726E4,-2.074033E6,2.3699711E5,8.755195E6,1.8475658E5,2.9201478E6,-2.2902125E5,-6.811357E6],"split_indices":[6,4,9,1,1,2,2,0,0,0,0,0,0,0,0],"split_type":[0,0,0,0,0,0,0,0,0,0,0,0,0,0,0],"sum_hessian":[7.643E3,7.074E3,5.69E2,5.826E3,1.248E3,3.24E2,2.45E2,5.775E3,5.1E1,1.242E3,6E0,1.91E2,1.33E2,2.39E2,6E0],"tree_param":{"num_deleted":"0","num_feature":"21","num_nodes":"15","size_leaf_vector":"1"}},{"base_weights":[6.828067E4,1.7575145E4,9.690266E6,-2.0154481E6,4.4813795E6,-1.1758324E5,3.7262472E6,-2.6067154E4,9.48447E5],"categories":[],"categories_nodes":[],"categories_segments":[],"categories_sizes":[],"default_left":[0,0,0,0,0,0,0,0,0],"id":87,"left_children":[1,3,-1,5,7,-1,-1,-1,-1],"loss_changes":[7.508772E16,6.9369395E16,0E0,1.3533107E17,1.7337548E17,0E0,0E0,0E0,0E0],"parents":[2147483647,0,0,1,1,3,3,4,4],"right_children":[2,4,-1,6,8,-1,-1,-1,-1],"split_conditions":[9.421593E8,1.15E2,9.690266E6,4.0852915E8,2.2223E1,-1.1758324E5,3.7262472E6,-2.6067154E4,9.48447E5],"split_indices":[5,0,0,5,2,0,0,0,0],"split_type":[0,0,0,0,0,0,0,0,0],"sum_hessian":[7.643E3,7.642E3,1E0,5.251E3,2.391E3,5.229E3,2.2E1,1.778E3,6.13E2],"tree_param":{"num_deleted":"0","num_feature":"21","num_nodes":"9","size_leaf_vector":"1"}},{"base_weights":[6.6727125E4,1.7289254E4,9.44801E6,-1.5197816E6,5.737385E6,-1.5274675E5,2.763977E5,1.989144E5,5.8869135E6],"categories":[],"categories_nodes":[],"categories_segments":[],"categories_sizes":[],"default_left":[0,0,0,0,0,0,0,0,0],"id":88,"left_children":[1,3,-1,5,7,-1,-1,-1,-1],"loss_changes":[7.138016E16,6.720744E16,0E0,6.520349E16,3.1850766E17,0E0,0E0,0E0,0E0],"parents":[2147483647,0,0,1,1,3,3,4,4],"right_children":[2,4,-1,6,8,-1,-1,-1,-1],"split_conditions":[9.421593E8,1E0,9.44801E6,1E0,4.6433E1,-1.5274675E5,2.763977E5,1.989144E5,5.8869135E6],"split_indices":[5,13,0,14,2,0,0,0,0],"split_type":[0,0,0,0,0,0,0,0,0],"sum_hessian":[7.643E3,7.642E3,1E0,6.024E3,1.618E3,4.947E3,1.077E3,1.594E3,2.4E1],"tree_param":{"num_deleted":"0","num_feature":"21","num_nodes":"9","size_leaf_vector":"1"}},{"base_weights":[6.543916E4,1.7237283E4,9.21181E6,-4.531892E6,1.8252428E6,-1.3282245E5,-1.2773609E6,-1.7473154E4,5.3377756E5],"categories":[],"categories_nodes":[],"categories_segments":[],"categories_sizes":[],"default_left":[0,0,0,0,0,0,0,0,0],"id":89,"left_children":[1,3,-1,5,7,-1,-1,-1,-1],"loss_changes":[6.785549E16,6.28708E16,0E0,8.561608E16,1.0528381E17,0E0,0E0,0E0,0E0],"parents":[2147483647,0,0,1,1,3,3,4,4],"right_children":[2,4,-1,6,8,-1,-1,-1,-1],"split_conditions":[9.421593E8,3.3E6,9.21181E6,1.9765E1,1E0,-1.3282245E5,-1.2773609E6,-1.7473154E4,5.3377756E5],"split_indices":[5,1,0,2,13,0,0,0,0],"split_type":[0,0,0,0,0,0,0,0,0],"sum_hessian":[7.643E3,7.642E3,1E0,2.173E3,5.469E3,1.996E3,1.77E2,4.391E3,1.078E3],"tree_param":{"num_deleted":"0","num_feature":"21","num_nodes":"9","size_leaf_vector":"1"}},{"base_weights":[6.3255152E4,-7.675452E5,1.0375271E7,-2.0821341E6,5.3660635E6,2.4489662E7,-8.313966E6,-8.689876E4,-2.013511E6,2.228853E5,8.2948955E6,2.2596523E5,2.820304E6,-2.348782E5,-6.5558595E6],